{
    "layer1": {
        "weights": [
            [
                0.03988110112097687,
                0.059881101120977456,
                -0.00011889887902327738,
                0.049881101120976795,
                0.02988110112097686,
                -0.010118898879023138,
                0.01988110112097668,
                0.059881101120977456,
                0.049881101120976795,
                0.009881101120977035,
                0.01988110112097668,
                -0.050118898879023197,
                -0.020118898879023232,
                0.049881101120976795,
                -0.00011889887902327738,
                -0.030118898879023193,
                0.01988110112097668,
                0.03988110112097687,
                0.02988110112097686,
                -0.010118898879023138,
                -0.00011889887902327738,
                0.009881101120977035,
                0.03988110112097687,
                0.009881101120977035,
                -0.00011889887902327738,
                0.009881101120977035,
                -0.051727468635956265,
                -0.051727468635956265,
                0.03805177826529913,
                0.06988110112097813,
                0.01988110112097668,
                -0.001262157128701057,
                -0.03126215712870099,
                0.009137641646001875,
                0.07043855953225713,
                0.039614033232645104,
                0.011537213685084303,
                0.06188169810567403,
                -0.016096270893879595,
                0.020760197532966894,
                0.06736740171479676,
                0.022764215279690136,
                0.008458213312680386,
                -0.025616831911846934,
                0.02442499402469658,
                0.07017790945412455,
                -0.05067881540218678,
                0.04932118459781342,
                0.049881101120976795,
                0.059881101120977456,
                0.03988110112097687,
                0.049881101120976795,
                0.009881101120977035,
                0.01988110112097668,
                -0.00011889887902327738,
                -0.050118898879023197,
                0.059881101120977456,
                0.01988110112097668,
                -0.030118898879023193,
                0.009881101120977035,
                0.009881101120977035,
                -0.010118898879023138,
                -0.010118898879023138,
                0.009881101120977035,
                0.02988110112097686,
                0.01988110112097668,
                -0.00011889887902327738,
                -0.050118898879023197,
                -0.020118898879023232,
                -0.030118898879023193,
                0.01988110112097668,
                0.059881101120977456,
                0.049881101120976795,
                0.049881101120976795,
                0.049881101120976795,
                -0.020118898879023232,
                0.049881101120976795,
                0.02988110112097686,
                -0.040118898879023035,
                -0.050118898879023197,
                -0.050118898879023197,
                0.03988110112097687,
                -0.020118898879023232,
                -0.040118898879023035,
                0.02988110112097686,
                -0.010118898879023138,
                -0.040118898879023035,
                -0.030118898879023193,
                0.009881101120977035,
                -0.030118898879023193,
                -0.020118898879023232,
                0.03988110112097687,
                -0.00011889887902327738,
                -0.010118898879023138,
                0.009881101120977035,
                -0.050118898879023197,
                -2.8024219533728264e-05,
                -0.0036870175443995826,
                -0.024185138462732014,
                -0.03388914271966403,
                0.06667614973699207,
                0.010934964574444647,
                -0.028931027276630574,
                0.038633568094390155,
                0.06053372974023142,
                -0.03700573521459892,
                -0.053554465386454975,
                -0.03545123540059366,
                0.05108334759363737,
                -0.03182943314138924,
                0.048934721162880425,
                0.03904778161457543,
                0.04173047414662135,
                -0.01211757424384104,
                0.07176307153668134,
                0.05739571750644501,
                0.0053062876684492905,
                -0.02015101049594381,
                0.030513326092056623,
                -0.001991852903308396,
                0.018443887746820695,
                -0.01126388229199777,
                0.02935069962083138,
                -0.04863397017435405,
                -0.027782554975872162,
                0.06495022742225597,
                0.06573949645218329,
                -0.004850841455062463,
                0.03941097591240546,
                -0.016791238547062493,
                0.05377302629408743,
                0.040763616167993434,
                0.010503475758650929,
                -0.011175994246688028,
                -0.0614172447874849,
                0.059555265551378536,
                -0.0424313924895024,
                0.030825403464046868,
                0.055113306655507635,
                0.00662650970496974,
                -0.04257909827870395,
                0.03503421689652242,
                0.06598194473590518,
                0.03953349778771348,
                -0.0034198268747991844,
                -0.017271212208602404,
                -0.005451598638727662,
                -0.029189498100234582,
                0.024069127702981707,
                -0.005101251612702324,
                -0.03386430830012878,
                -0.04817299389249523,
                0.04280047977396784,
                -0.0012638533500373007,
                0.011647833390956068,
                -0.005419808806196165,
                0.06881039523128143,
                0.06300393695089189,
                -0.06992620596806216,
                -0.03635313525389934,
                -0.014494779246522479,
                0.08159250744705737,
                0.056146885853821105,
                -0.0039995046259159285,
                -0.009780485588921407,
                0.046359729561135654,
                0.0557585857540897,
                0.07123574068968927,
                -0.013101803282331952,
                0.05664835793044958,
                0.019248569076960455,
                0.005914890984123499,
                0.05121540916251303,
                -0.022918193159005756,
                0.045939193350202905,
                -0.05080611880014616,
                -0.05106583741380911,
                0.04793686855818624,
                -0.012577448194742656,
                0.03004422336651876,
                0.020850552002284268,
                0.05304017934899433,
                -0.014677633935531254,
                -0.006041881882146221,
                -0.02357655260323716,
                0.0532070816661594,
                0.01803109325665856,
                0.07345324661283228,
                0.06507711104703816,
                -0.03283576595093938,
                0.019553438663422913,
                -0.04434210386914957,
                -0.05730783342975174,
                -0.028599426708269947,
                0.055276442571580785,
                0.037568580903747886,
                0.042375271489241674,
                -0.009446987312418288,
                0.016455064012408274,
                0.06923622081471684,
                -0.015300207530431896,
                0.022124231576045532,
                -0.017875768423954164,
                -0.038224585617665896,
                -0.002709267748627766,
                0.05849535735232895,
                0.02440023172055964,
                0.06208590535594,
                0.005533875404233438,
                -0.02275520603033084,
                0.04905955483336866,
                0.053129795074053306,
                -0.05786048450835304,
                0.026884521694058982,
                -0.04709842478286393,
                -0.057456238532832646,
                0.062269262682404944,
                -0.05211640637226474,
                -0.020798425471861542,
                0.07032034279363364,
                0.0002002718169851891,
                -0.0437683356168469,
                -0.022992650255617034,
                -0.016460449564987625,
                0.03827253136404384,
                -0.040118898879023035,
                0.059881101120977456,
                -0.011727468635955984,
                0.06827253136404543,
                0.05827253136404454,
                -0.020118898879023232,
                -0.020118898879023232,
                0.009881101120977035,
                -0.040118898879023035,
                0.02988110112097686,
                -0.050118898879023197,
                -0.050118898879023197,
                0.06988110112097813,
                -0.020118898879023232,
                0.01988110112097668,
                -0.00011889887902327738,
                -0.010118898879023138,
                -0.040118898879023035,
                0.059881101120977456,
                0.06988110112097813,
                0.06827253136404543,
                -0.03882255030845913,
                -0.030118898879023193,
                0.01988110112097668,
                0.07076395881196341,
                0.021177449691540916,
                0.02988110112097686,
                0.02988110112097686,
                -0.020118898879023232,
                0.01988110112097668,
                -0.010118898879023138,
                -0.020118898879023232,
                -0.040118898879023035,
                -0.020118898879023232,
                0.06988110112097813,
                -0.00011889887902327738,
                0.02988110112097686,
                0.02988110112097686,
                0.06988110112097813,
                -0.00011889887902327738,
                -0.010118898879023138,
                -0.009593475720067435,
                -0.01005878722732245,
                0.056812473990323034,
                0.059881101120977456,
                -0.010118898879023138,
                -0.001330342540083042,
                0.03149491339928277,
                0.02907738820127305,
                0.022084180486046493,
                -0.016900072097935807,
                -0.039937911403702654,
                -0.008687493927403091,
                -0.03226720098003361,
                0.020586210853436992,
                -0.052793382614745844,
                -0.03621226269976098,
                0.0298552113322287,
                -0.031088876495292354,
                0.04946550317875747,
                0.014010856264906122,
                0.06875554683114106,
                -0.03242576965976627,
                0.017422899284711642,
                0.05595691984419513,
                -0.03283954858055781,
                0.07121891230003449,
                -0.030508573560035536,
                0.03796636651837982,
                0.08169624822295396,
                0.0670414523867142,
                -0.017541148213837166,
                -0.025627359352544572,
                0.011661706834832702,
                0.06446069206915035,
                -0.0035784831340387683,
                0.0632733055783665,
                -0.029660623577885094,
                0.06159434451026928,
                -0.05000696659964712,
                -0.010118898879023138,
                0.059881101120977456,
                0.05040652427993244,
                0.060406524279933135,
                0.05040652427993244,
                0.03988110112097687,
                0.02988110112097686,
                -0.030118898879023193,
                -0.00011889887902327738,
                -0.030118898879023193,
                0.03988110112097687,
                0.02988110112097686,
                -0.020118898879023232,
                -0.040118898879023035,
                0.06988110112097813,
                0.049881101120976795,
                0.01988110112097668,
                0.01988110112097668,
                0.049881101120976795,
                -0.00011889887902327738,
                -6.966599647050531e-06,
                -0.010006966599646953,
                -0.020118898879023232,
                -0.050118898879023197,
                0.029993033400353145,
                -6.966599647050531e-06,
                0.01988110112097668,
                -0.040118898879023035,
                -0.010118898879023138,
                -0.040118898879023035,
                -0.040118898879023035,
                -0.020118898879023232,
                0.049881101120976795,
                -0.00011889887902327738,
                -0.00011889887902327738,
                0.01988110112097668,
                -0.020118898879023232,
                -0.050118898879023197,
                0.009881101120977035,
                0.009881101120977035,
                0.02988110112097686,
                -0.00011889887902327738,
                0.02988110112097686,
                0.03988110112097687,
                -0.020118898879023232,
                0.009881101120977035,
                0.009881101120977035,
                -0.020118898879023232,
                -0.0020547526368294208,
                0.01988110112097668,
                0.059881101120977456,
                0.059881101120977456,
                -0.020118898879023232,
                0.02988110112097686,
                -0.050118898879023197,
                -0.040118898879023035,
                0.009881101120977035,
                0.059881101120977456,
                -0.030118898879023193,
                0.03988110112097687,
                0.059881101120977456,
                -0.012054752636829319,
                0.027945247363170722,
                0.04986380884473199,
                -0.013977175321383128,
                0.03724724501304602,
                0.03999303340035306,
                0.01805717964254685,
                0.04999303340035297,
                0.06008869918091495,
                0.06362893651065622,
                0.014500280231994312,
                -0.028991092341486557,
                -0.019821758808600543,
                -0.03751015321412047,
                0.01606994613424212,
                0.042967465181424455,
                -0.04643574404339091,
                0.028776587984495155,
                0.043303034589363534,
                -0.002583324109291659,
                0.006092030774209731,
                -0.01496862299967913,
                0.04042990900560936,
                -0.05751729086294459,
                0.0756358999638543,
                0.056445260180120076,
                0.028052225946472945,
                -0.017715949859844964,
                0.07225126924186537,
                0.06886384695459115,
                -0.048291857179137816,
                0.04237793734966539,
                0.04711539689981046,
                0.022771340565079033,
                0.0379452473631708,
                -0.0020547526368294208,
                0.059881101120977456,
                0.06988110112097813,
                -0.00011889887902327738,
                0.049881101120976795,
                -0.00011889887902327738,
                -0.030118898879023193,
                -0.010118898879023138,
                -0.040118898879023035,
                0.059881101120977456,
                0.06988110112097813,
                -0.040118898879023035,
                0.01988110112097668,
                -0.0020547526368294208,
                -0.04205475263682923,
                -0.01655377134204994,
                -0.01655377134204994,
                0.03988110112097687,
                -0.050118898879023197,
                -0.030118898879023193,
                -0.00011889887902327738,
                -0.050118898879023197,
                0.02988110112097686,
                0.01988110112097668,
                0.049881101120976795,
                -0.030118898879023193,
                -0.020118898879023232,
                0.01988110112097668,
                -0.020118898879023232,
                0.023446228657950062,
                -0.008073877810224565,
                0.03017758140573311,
                0.056249260056704734,
                0.05440021983005087,
                0.08681223910478726,
                0.0196108777574381,
                0.012677101076099468,
                0.034672200157593695,
                0.03050137266521538,
                0.02609301449992142,
                -0.007559187930810993,
                -0.03353353779183156,
                -0.03924492037507733,
                0.053958174359737904,
                -0.0289475613440474,
                0.05101554061690034,
                0.01782715644472892,
                0.06645795589725488,
                0.03348954144581321,
                0.07842668239348768,
                -0.0494832449791678,
                0.015138518220492746,
                0.017142500784168395,
                -0.003991135274884797,
                0.01928490838776796,
                -0.005231626733100743,
                0.02193844721345686,
                -0.04611312214853319,
                0.026812782873027647,
                0.000537307952061957,
                0.003339858419928537,
                0.007853486547953302,
                0.05224041323535282,
                0.029861476782893432,
                0.005506341453613243,
                0.027356506387155918,
                -0.0034535838548941985,
                -0.02873753007961255,
                -0.058444366033572864,
                -0.027258473231224947,
                0.00371457513885929,
                0.0653700575476653,
                0.05317597469722229,
                -0.0022167576318549392,
                0.07872319480711676,
                0.028421527116179093,
                0.056558360575673115,
                -0.005932741502276817,
                0.03168533581588505,
                0.052047670948235265,
                -0.015620250670156004,
                -0.02950598779314186,
                0.025134634955313085,
                0.01667399045839444,
                -0.021437972619783578,
                -0.05217198046616108,
                0.0016949791559578292,
                0.00941117666562929,
                0.01656388915898519,
                0.0738493250129844,
                0.018567678491859262,
                0.032849923755104225,
                0.07147573541078228,
                0.04366479712135994,
                0.0018395701019570674,
                0.02950716317740114,
                0.02661093934365542,
                0.036973693921262395,
                0.022854658003359073,
                -0.007335499470317731,
                0.02086032881275533,
                0.028970892812108077,
                0.0625314754192345,
                0.04784056722850654,
                0.04757855535532108,
                0.04877940038560298,
                0.05825984338194686,
                0.018976793790902457,
                -0.015399500688388966,
                -0.006897877203632349,
                0.04742654099134815,
                0.06392467081791217,
                0.006361754549092144,
                -0.037298065482352885,
                0.04958038298715164,
                0.02124470780231074,
                0.04550682251544745,
                -0.054747826960067116,
                0.021719726151802652,
                0.03602575755594388,
                -0.0025410350492580786,
                -0.02710265262564397,
                0.00886257032181803,
                -0.06225248514849007,
                -0.008870054743621174,
                0.06576334576065891,
                0.028760027403166837,
                -0.017574218728989392,
                0.009047491101284876,
                0.014216607690334018,
                -0.02603625599821962,
                -0.026973125729820156,
                0.07451536106299923,
                -0.01896159452821538,
                -0.053448714012556874,
                0.048031234510771945,
                -0.0028517166924714207,
                -0.01566758161919742,
                0.004036946893837776,
                0.025990835410275085,
                -0.044838253284664197,
                0.020937192021359567,
                0.03977278375429353,
                0.04770926147994378,
                -0.020770310256531702,
                0.024037027102832863,
                -0.00864020477192285,
                0.013223398610644505,
                -0.028556242712484275,
                0.062080664396264376,
                0.0627596426569202,
                -0.016274753332868153,
                -0.019841366240122758,
                0.06798251096071961,
                0.047847957401968316,
                0.05213644615283479,
                -0.04229197541246692,
                0.06787027223012086,
                0.03668982872359504,
                -0.004644875594261168,
                -0.005265823178168139,
                0.0333633599223561,
                0.04784448508819699,
                -0.028823402221652365,
                0.02215246389004184,
                -0.03536740148223281,
                0.051441517543854696,
                0.0013554846522384908,
                0.03950797925428418,
                0.03131403660556634,
                0.013529905421548503,
                -0.023115505629790686,
                0.004085945732545271,
                -0.045150895298407316,
                -0.04982739526074516,
                0.03242256831708351,
                0.004099032509823224,
                0.044616443590587265,
                -0.02619164334173468,
                0.03501308620985817,
                0.0461917803401176,
                -0.006238574296134521,
                -0.036409603054485144,
                -0.0010531845058537102,
                0.007113877423795016,
                -0.03957146358025393,
                -0.02370610638402358,
                -0.05616613419993792,
                0.037927826669743495,
                0.06576505128694117,
                -0.020388875899415206,
                -0.05037722128823043,
                0.03962277871176962,
                0.049881101120976795,
                0.06988110112097813,
                0.01988110112097668,
                -0.010118898879023138,
                0.049881101120976795,
                -0.040118898879023035,
                0.02988110112097686,
                -0.040118898879023035,
                -0.00011889887902327738,
                0.009881101120977035,
                -0.010118898879023138,
                -0.030118898879023193,
                -0.018441367530424413,
                0.0617583856383663,
                0.010081548343936604,
                0.02008154834393636,
                -0.030118898879023193,
                0.03988110112097687,
                -0.010118898879023138,
                0.01988110112097668,
                0.059881101120977456,
                0.06988110112097813,
                -0.050118898879023197,
                0.049881101120976795,
                0.049881101120976795,
                -0.010118898879023138,
                -0.00011889887902327738,
                0.01988110112097668,
                0.06008154834393703,
                8.154834393631911e-05,
                0.05798763900433451,
                0.038849066371959354,
                -0.036795737530975516,
                0.05798763900433451,
                -0.05201236099566639,
                -0.03230019710199903,
                0.025138428890068093,
                -0.04584782996458661,
                -0.009453519880509733,
                -0.05819233636882723,
                0.01910791680366346,
                0.044239954717933405,
                0.04656238364156046,
                -0.043818471825053586,
                -0.047757914920624166,
                0.04552553486664684,
                -0.05094194257035632,
                -0.029408858534246105,
                -0.040709284271382866,
                -0.04297692961175055,
                -0.047307719797634484,
                0.0305094635105324,
                0.03988110112097687,
                0.0326922802023656,
                0.05269228020236569,
                0.0305094635105324,
                -0.00011889887902327738,
                0.030615065502548337,
                0.06741011837774309,
                0.02138842829305778,
                -0.015993667592488492,
                -0.04221280821862572,
                0.059881101120977456,
                0.01988110112097668,
                -0.010118898879023138,
                0.01988110112097668,
                0.01988110112097668,
                0.009881101120977035,
                -0.040118898879023035,
                -0.010118898879023138,
                -0.00011889887902327738,
                -0.030118898879023193,
                0.059881101120977456,
                -0.00011889887902327738,
                0.02988110112097686,
                0.03988110112097687,
                0.03988110112097687,
                0.03988110112097687,
                0.03988110112097687,
                -0.020118898879023232,
                0.06988110112097813,
                -0.030118898879023193,
                0.059881101120977456,
                0.049881101120976795,
                0.049881101120976795,
                -0.050118898879023197,
                -0.040118898879023035,
                0.049881101120976795,
                0.009881101120977035,
                -0.010118898879023138,
                0.06988110112097813,
                -0.050118898879023197,
                0.009881101120977035,
                -0.00011889887902327738,
                -0.040118898879023035,
                -0.00011889887902327738,
                0.03988110112097687,
                0.059881101120977456,
                -0.050118898879023197,
                0.009881101120977035,
                -0.040118898879023035,
                0.049881101120976795,
                -0.040118898879023035,
                -0.050118898879023197,
                -0.00011889887902327738,
                0.03988110112097687,
                -0.010118898879023138,
                -0.040118898879023035,
                0.049881101120976795,
                0.049881101120976795,
                0.049881101120976795,
                -0.010118898879023138,
                -0.00011889887902327738,
                -0.020118898879023232,
                0.01988110112097668,
                -0.010118898879023138,
                -0.010118898879023138,
                0.049881101120976795,
                0.06988110112097813,
                0.01988110112097668,
                -0.040118898879023035,
                0.02988110112097686,
                -0.00011889887902327738,
                0.06988110112097813,
                0.03988110112097687,
                0.049881101120976795,
                0.04476666406110046,
                0.014766664061100434,
                0.06460770025546664,
                0.05460770025546597,
                -0.025693802709101436,
                -0.029261848616019652,
                -0.008746185906396576,
                0.010734118538700642,
                -0.041460536613600184,
                -0.005983239040145377,
                0.010619171548897242,
                -0.04680670640415366,
                0.055130708162224804,
                0.027067881979253965,
                -0.00949053648946776,
                -0.017972853228199956,
                -0.010145552580418717,
                -0.010145552580418717,
                0.040420683582934464,
                0.01192379722575781,
                0.015176127789293808,
                -0.038546692196187574,
                0.07024823366317828,
                -0.01881609750399226,
                -0.006069761060103531,
                -0.04118906808060609,
                0.06387401935591548,
                0.012125145725634263,
                0.0671205183769356,
                0.06620038546417283,
                0.06985444741958213,
                0.05048280980913665,
                0.059881101120977456,
                0.059881101120977456,
                0.049881101120976795,
                -0.040118898879023035,
                0.009881101120977035,
                0.01988110112097668,
                0.06988110112097813,
                0.049881101120976795,
                0.03988110112097687,
                0.03988110112097687,
                -0.010118898879023138,
                0.06988110112097813,
                0.02988110112097686,
                -0.00011889887902327738,
                0.009881101120977035,
                0.06988110112097813,
                0.009881101120977035,
                -0.030118898879023193,
                -0.030118898879023193,
                0.02988110112097686,
                0.01988110112097668,
                0.059881101120977456,
                -0.030118898879023193,
                -0.00011889887902327738,
                0.03988110112097687,
                -0.050118898879023197,
                -0.040118898879023035,
                0.01988110112097668,
                -0.020118898879023232,
                -0.040118898879023035,
                -0.020118898879023232,
                0.02988110112097686,
                0.009881101120977035,
                -0.040118898879023035,
                -0.040118898879023035,
                0.049881101120976795,
                0.02988110112097686,
                -0.030118898879023193,
                0.059881101120977456,
                -0.050118898879023197,
                -0.010118898879023138,
                0.049881101120976795,
                0.03988110112097687,
                -0.020118898879023232,
                0.059881101120977456,
                0.01988110112097668,
                0.059881101120977456,
                0.059881101120977456,
                0.0012323953667467474,
                0.030170279963752343,
                0.01635758151043988,
                0.07123239536674818,
                0.0498544474195813,
                0.03985444741958124,
                0.04977993454582094,
                0.0649796335632753,
                -0.0005377640935662871,
                -0.0351676313854891,
                0.028435866035232817,
                0.043686132040425395,
                0.010166543026409762,
                0.01513993239453593,
                -0.0018162828787929002,
                0.06444698828864127,
                0.05962306198171667,
                0.02233601694252211,
                -0.042076873840800035,
                0.04417039891190493,
                0.0015482279109177398,
                -0.028767604633253143,
                -0.02014555258041881,
                0.034618858681553746,
                -0.04021394634390827,
                -0.04014555258041869,
                -0.010145552580418717,
                0.06649215598738019,
                0.03784223050758495,
                0.06451581186878337,
                0.025665114846783032,
                0.016742315769930648,
                0.03017643069049209,
                0.02294655177851299,
                0.01802559423094683,
                0.05472568823044262,
                0.07395923852397408,
                -0.011055809709752623,
                0.03715623058257379,
                -0.0013067264374304168,
                -0.008308707012831424,
                -0.007098175402341147,
                0.029255660921141746,
                0.005952397459928102,
                0.06581402129499284,
                -0.04798472542834458,
                0.027504739471681635,
                0.06134978379012909,
                0.04288700993194889,
                0.019928864112968448,
                -0.022306281662945557,
                -0.0044958054801435545,
                0.06448982124206334,
                0.039991103541157993,
                0.021674754377534293,
                0.04617351665195921,
                0.05020912332939271,
                0.030842336550001553,
                0.001789169087444339,
                0.013697219905903632,
                0.03867514839200698,
                -0.000927105323033307,
                0.043130312783400265,
                0.013916250601732922,
                -0.00808798146484627,
                -0.0015964036786198653,
                -0.04040832314039634,
                0.005002988036966189,
                -0.003183015600195387,
                -0.04996963744068829,
                -0.04185595096297446,
                -0.01688954644361985,
                0.05800544539291905,
                0.015400629844909114,
                -0.007132622510173163,
                0.07268739237154768,
                -0.023587179658984377,
                0.0024194878233577766,
                0.028836720957186094,
                0.04992662395589352,
                0.007324053865224056,
                0.046297459696318065,
                0.033237439515422254,
                0.0565338597796891,
                0.006424844892178473,
                0.0634278682260866,
                0.04361646142972652,
                -0.05817083815737687,
                -0.05513577093764638,
                0.08327604616864928,
                -0.019388983074667472,
                -0.04014028867877034,
                -0.023564906378765356,
                0.018823359950336547,
                0.0832167704801669,
                0.005685022028962157,
                0.02948427268960274,
                0.0353841997037365,
                -0.04076047521437911,
                0.022369686973792612,
                0.06896726280441655,
                0.019959693144328598,
                0.009339750811569505,
                -0.009525458747277322,
                0.08144620966474916,
                0.07783160449124667,
                -0.0406602491884305,
                0.03044745932683272,
                -0.005459184904059852,
                0.02869335043999534,
                -0.029555926851075016,
                -0.01499465637761732,
                -0.03050258382599904,
                0.00901937897438104,
                0.05642132351626969,
                0.05047126292754268,
                0.05980080454122852,
                0.0413880099594116,
                -0.0332926842017366,
                0.006623749564998896,
                0.038491943012866486,
                -0.009523313884615081,
                0.009967486793324798,
                0.05999700181634326,
                -0.04044719121360093,
                0.050467242861611056,
                -0.029327283178430013,
                -0.000476706236619008,
                0.059881101120977456,
                -0.030118898879023193,
                0.009881101120977035,
                -0.00011889887902327738,
                0.059881101120977456,
                0.06988110112097813,
                -0.020118898879023232,
                0.009881101120977035,
                0.059881101120977456,
                0.01988110112097668,
                -0.030118898879023193,
                0.03988110112097687,
                -0.010118898879023138,
                0.009881101120977035,
                -0.050118898879023197,
                0.06988110112097813,
                0.02988110112097686,
                0.059881101120977456,
                0.06988110112097813,
                -0.020118898879023232,
                0.01988110112097668,
                -0.00011889887902327738,
                0.03988110112097687,
                0.049881101120976795,
                -0.020118898879023232,
                -0.020118898879023232,
                0.03988110112097687,
                -0.00011889887902327738,
                -0.040118898879023035,
                -0.030118898879023193,
                0.01988110112097668,
                0.01988110112097668,
                0.06988110112097813,
                0.009881101120977035,
                0.01988110112097668,
                -0.030118898879023193,
                -0.00011889887902327738,
                -0.020118898879023232,
                0.02988110112097686,
                -0.020118898879023232,
                -0.030118898879023193,
                -0.010118898879023138,
                0.009881101120977035,
                -0.010118898879023138,
                0.01988110112097668,
                -0.030118898879023193,
                0.059881101120977456,
                0.02988110112097686,
                0.010195987309817875,
                -0.050118898879023197,
                -0.008743261521184422,
                0.03040299226376189,
                0.03585463082273686,
                0.03658821686688961,
                0.057133731290917075,
                -0.010432727510326768,
                0.009488827157555859,
                -0.013383424966719914,
                -0.040118898879023035,
                -0.030118898879023193,
                -0.020118898879023232,
                -0.0393690280393434,
                0.009881101120977035,
                0.03988110112097687,
                0.01988110112097668,
                0.02988110112097686,
                -0.020118898879023232,
                -0.030118898879023193,
                0.01988110112097668,
                0.059881101120977456,
                -0.00011889887902327738,
                -0.050118898879023197,
                -0.050118898879023197,
                -0.010118898879023138,
                0.01988110112097668,
                -0.040118898879023035,
                -0.020118898879023232,
                0.02988110112097686,
                0.06988110112097813,
                -0.010118898879023138,
                0.01988110112097668,
                0.009881101120977035,
                -0.050118898879023197,
                -0.010118898879023138,
                -0.040118898879023035,
                -0.020118898879023232,
                0.03988110112097687,
                0.02988110112097686,
                -0.050118898879023197,
                -0.040118898879023035,
                0.03988110112097687,
                -0.040118898879023035,
                -0.010118898879023138,
                -0.020118898879023232,
                -0.050118898879023197,
                -0.050118898879023197
            ],
            [
                -0.04733036403635949,
                -0.007330364036359147,
                0.052669635963640514,
                0.02266963596364093,
                -0.02733036403635907,
                0.02266963596364093,
                -0.02733036403635907,
                0.00266963596364087,
                -0.017330364036359014,
                0.06266963596363995,
                -0.017330364036359014,
                0.042669635963640505,
                0.02266963596364093,
                0.042669635963640505,
                0.012669635963641082,
                0.052669635963640514,
                -0.007330364036359147,
                0.02266963596364093,
                0.02266963596364093,
                0.00266963596364087,
                0.012669635963641082,
                0.00266963596364087,
                -0.007330364036359147,
                0.052669635963640514,
                0.02266963596364093,
                0.012669635963641082,
                -0.05855571611235974,
                0.0014442838876406014,
                -0.03793187351004159,
                -0.0373303640363595,
                -0.007330364036359147,
                0.01228300992619708,
                -0.027716990073803054,
                -0.02802255900193171,
                0.0012229851137283713,
                0.001974797922444147,
                -0.00898912405683357,
                -0.04985817294033832,
                -0.017732632313180986,
                0.027565030014352745,
                0.014325456189573283,
                0.013278805402958881,
                0.045110734244607945,
                0.03441881733526293,
                0.021777495450465933,
                -0.0587351618730619,
                -0.018214695379897398,
                0.02178530462010263,
                -0.0373303640363595,
                0.052669635963640514,
                -0.0373303640363595,
                0.052669635963640514,
                -0.0373303640363595,
                0.042669635963640505,
                0.042669635963640505,
                -0.017330364036359014,
                0.052669635963640514,
                -0.0373303640363595,
                0.042669635963640505,
                -0.007330364036359147,
                -0.007330364036359147,
                -0.04733036403635949,
                0.012669635963641082,
                -0.02733036403635907,
                0.02266963596364093,
                0.042669635963640505,
                0.012669635963641082,
                -0.05733036403635949,
                0.06266963596363995,
                0.052669635963640514,
                0.02266963596364093,
                -0.017330364036359014,
                0.012669635963641082,
                0.052669635963640514,
                -0.007330364036359147,
                0.032669635963640455,
                0.012669635963641082,
                -0.007330364036359147,
                0.052669635963640514,
                -0.007330364036359147,
                0.012669635963641082,
                -0.05733036403635949,
                0.00266963596364087,
                -0.05733036403635949,
                0.032669635963640455,
                -0.05733036403635949,
                -0.05733036403635949,
                -0.04733036403635949,
                -0.04733036403635949,
                0.00266963596364087,
                -0.017330364036359014,
                -0.02733036403635907,
                0.06266963596363995,
                0.052669635963640514,
                0.02266963596364093,
                0.042669635963640505,
                0.04208416315848535,
                -0.03126477335979895,
                0.043215127251643205,
                -0.026404657937158665,
                0.01344022400484981,
                -0.01907426847107114,
                -0.03960585093213246,
                0.03551681320767363,
                0.04985176658818948,
                -0.019770785339811157,
                0.04622903563541267,
                -0.02334552361286809,
                0.01785581061376674,
                0.06100097165947069,
                0.030604693660043952,
                -0.06099474563530027,
                -0.005907650887842038,
                -0.017046377073889972,
                -0.03139830657523278,
                0.03880402658104074,
                -0.01144931349399461,
                0.022719522127120112,
                0.02367152236256899,
                0.0013490548919553086,
                -0.058384629893812455,
                0.022312695300179756,
                0.05160572090167198,
                -0.037806625512117296,
                0.024804341882961396,
                0.0008245038894434473,
                -0.019500782159031584,
                0.033981687208940396,
                0.06236985133305778,
                -0.05206808186545202,
                0.05332021777036054,
                -0.0071666861685739745,
                0.04613796540356287,
                -0.035761939928426426,
                0.031191703366789697,
                -0.04872542036284769,
                -0.014835734423040791,
                0.06167320963675781,
                0.02372400128348971,
                0.038359955014338,
                0.004819160580894004,
                0.00030311118918210277,
                0.008424046887740557,
                0.036974280159325155,
                0.03184574095193868,
                -0.034326824690430816,
                -0.0070677211540023654,
                0.012623518581003095,
                0.013400764973260133,
                0.05089044581272183,
                0.047163569965702666,
                -0.037847196701273664,
                -0.01742558369320621,
                -0.05113732770160767,
                -0.06314612400501808,
                -0.04946047183650597,
                -0.03579265608146094,
                0.02811451617023919,
                0.02267221221899626,
                0.04900152716582071,
                -0.030319881192912554,
                -0.04261253907698917,
                0.05815292343945009,
                0.0383642332757108,
                0.05830848417831415,
                -0.06368575285958786,
                -0.0038024693644886616,
                0.022090646999544925,
                0.03307659988058896,
                0.04940132522210795,
                -0.0008192345900764904,
                -0.009064655274414142,
                -0.05940640988820087,
                0.042717655797978864,
                0.05832936484316533,
                0.052039852628248354,
                0.02739803471927661,
                -0.020388635115755307,
                -0.028241593066713176,
                0.03454009412698546,
                0.05159633732795023,
                0.06260260910500688,
                -0.04028193792611297,
                0.013931839025814617,
                0.00032848418380248287,
                -0.0025587493144550895,
                0.03917083478862046,
                0.05136624357645386,
                0.027563311828277037,
                0.030764112483302238,
                0.02319008406574378,
                0.019618596624946062,
                0.004051619476686125,
                -0.028025623465432994,
                0.027263590695596432,
                -0.048915219793684246,
                0.015566336554135682,
                -0.014523320008990885,
                0.00496975165860188,
                0.019734563999646414,
                -0.0012416073314765054,
                0.058168704988254556,
                -0.031831295011745225,
                -0.057933983365702886,
                0.06646075662820146,
                -0.015651415462369558,
                -0.03001391953430168,
                -0.007563548203494609,
                0.009305531055153771,
                0.06274043309511913,
                0.03530839781745194,
                -0.019545323768360046,
                0.0010294353108186171,
                -0.007654053060421291,
                0.00489367286883468,
                -0.004412779431290482,
                -0.038360830773732715,
                -0.008241004106976682,
                -0.010747253876584623,
                -0.040225034707794385,
                0.038455520782748255,
                -0.017291774478548565,
                -0.03448312341377045,
                0.008904804324876786,
                0.04144428388764025,
                0.042669635963640505,
                0.02266963596364093,
                0.03144428388764038,
                -0.018555716112359386,
                -0.03855571611235975,
                -0.02733036403635907,
                -0.017330364036359014,
                -0.02733036403635907,
                0.00266963596364087,
                -0.0373303640363595,
                -0.04733036403635949,
                -0.02733036403635907,
                -0.0373303640363595,
                0.042669635963640505,
                0.00266963596364087,
                -0.0373303640363595,
                -0.007330364036359147,
                0.052669635963640514,
                0.012669635963641082,
                0.012669635963641082,
                -0.008555716112359352,
                -0.03793675874023104,
                0.02266963596364093,
                -0.04733036403635949,
                0.0422363970718847,
                -0.05793675874023103,
                0.032669635963640455,
                -0.007330364036359147,
                0.02266963596364093,
                0.012669635963641082,
                -0.04733036403635949,
                0.00266963596364087,
                -0.04733036403635949,
                -0.02733036403635907,
                -0.007330364036359147,
                -0.02733036403635907,
                0.02266963596364093,
                0.06266963596363995,
                -0.017330364036359014,
                0.042669635963640505,
                -0.02733036403635907,
                0.03220309026730516,
                -0.018635635771250554,
                0.0023550203778906344,
                -0.04733036403635949,
                0.042669635963640505,
                -0.03605586802343139,
                -0.0027168786190778175,
                -0.032735711736803966,
                0.040490397752863706,
                0.009288961393731771,
                0.00948881153636876,
                0.029117818880513336,
                -0.03332126443079079,
                -0.06272434379923121,
                0.04366252137268393,
                -0.018317399390593233,
                0.03869523931024209,
                0.060725245691208914,
                0.021105420346335755,
                -0.04989966378103928,
                0.03806986504324431,
                0.016591947052578455,
                -0.029913463629557335,
                -0.04041194202673122,
                0.005019869689282505,
                -0.043849779550372704,
                0.05657527072839149,
                0.03005056220783237,
                0.04130349355356612,
                -0.004583784613322219,
                0.05771764750307284,
                -0.04784555307709751,
                0.030601219587135835,
                -0.025538500347854244,
                -0.05346862401695652,
                -0.04588874930479981,
                -0.04184051585572432,
                0.02934934107334645,
                -0.017623753920578432,
                0.00266963596364087,
                0.012669635963641082,
                -0.027796909732694264,
                0.02220309026730573,
                0.02220309026730573,
                0.052669635963640514,
                0.00266963596364087,
                0.042669635963640505,
                0.06266963596363995,
                0.032669635963640455,
                -0.007330364036359147,
                -0.02733036403635907,
                -0.04733036403635949,
                0.042669635963640505,
                -0.04733036403635949,
                0.012669635963641082,
                -0.007330364036359147,
                -0.05733036403635949,
                -0.0373303640363595,
                0.042669635963640505,
                0.0023762460794215035,
                0.05237624607942107,
                0.052669635963640514,
                -0.04733036403635949,
                0.022376246079421597,
                -0.05762375392057893,
                -0.007330364036359147,
                -0.007330364036359147,
                0.06266963596363995,
                0.012669635963641082,
                -0.0373303640363595,
                0.00266963596364087,
                0.00266963596364087,
                -0.0373303640363595,
                -0.017330364036359014,
                0.052669635963640514,
                0.06266963596363995,
                0.032669635963640455,
                -0.04733036403635949,
                0.052669635963640514,
                -0.007330364036359147,
                0.042669635963640505,
                -0.0373303640363595,
                -0.0373303640363595,
                0.052669635963640514,
                -0.02733036403635907,
                -0.05733036403635949,
                0.00266963596364087,
                0.0618637117168103,
                0.042669635963640505,
                -0.007330364036359147,
                0.06266963596363995,
                0.042669635963640505,
                0.042669635963640505,
                0.02266963596364093,
                -0.007330364036359147,
                0.052669635963640514,
                0.00266963596364087,
                0.052669635963640514,
                0.012669635963641082,
                0.052669635963640514,
                0.0018637117168110201,
                -0.008136288283188934,
                0.012121841734007884,
                -0.013071527359639455,
                -0.036359421926112016,
                0.012376246079421702,
                0.041570321832591246,
                -0.027623753920578406,
                0.05280630882798618,
                0.04395776366639374,
                0.0336964732278939,
                -0.009093602987266042,
                0.05986491096053837,
                0.042640970819058745,
                0.014586215393267514,
                -0.045850565834866394,
                0.018961858452170247,
                -0.057409175569258834,
                0.04977580789209492,
                -0.01488900873177433,
                -0.020459096897679198,
                0.01635676844003583,
                0.021147094757249955,
                0.013070014898555466,
                0.004379742083254584,
                0.02057505461642142,
                0.04511309566559832,
                -0.006844755243793336,
                0.004104264009936463,
                0.04165550306998288,
                -0.058839523818222536,
                -0.03377932768914703,
                -0.017145867948419803,
                -0.03888446872475307,
                0.051863711716810645,
                -0.038136288283189365,
                -0.04733036403635949,
                -0.017330364036359014,
                0.00266963596364087,
                0.042669635963640505,
                0.06266963596363995,
                0.042669635963640505,
                0.012669635963641082,
                -0.05733036403635949,
                -0.04733036403635949,
                0.02266963596364093,
                0.042669635963640505,
                -0.02733036403635907,
                0.0618637117168103,
                0.011863711716811179,
                0.012474801472525297,
                0.012474801472525297,
                -0.04733036403635949,
                -0.0373303640363595,
                0.052669635963640514,
                -0.02733036403635907,
                -0.04733036403635949,
                -0.02733036403635907,
                0.032669635963640455,
                -0.02733036403635907,
                -0.0373303640363595,
                -0.02733036403635907,
                0.00266963596364087,
                0.032669635963640455,
                -0.01752519852747491,
                0.05423673714532374,
                0.06058612685892586,
                0.04231004323937334,
                -0.04378000394964714,
                -0.015751815293243963,
                0.05152801181489928,
                0.042024677486760885,
                -0.05289515995111493,
                -0.010306735431053997,
                -0.018299073238251324,
                0.028949686216017928,
                -0.05940924830229214,
                -0.01570636370012737,
                0.029557708464306595,
                0.05078991990499911,
                -0.06059781160794298,
                0.0154780806076479,
                0.02528163146109025,
                0.046860060288062826,
                -0.009511119576836907,
                0.060306569065269086,
                -0.03575821147365373,
                -0.048835738960113693,
                -0.047011787385715584,
                0.010744363454204528,
                -0.052524449827426024,
                -0.033551659855995244,
                -0.038791374294170254,
                -0.05580297575829634,
                0.05817004935413088,
                -0.020910443298361052,
                0.05808482294936058,
                0.02713477814078456,
                -0.03598016067495718,
                0.05457934834918634,
                -0.047312142075506734,
                0.06145254631468795,
                -0.0588780129739787,
                -0.029318923471182697,
                0.014678222995772922,
                -0.05465611288541284,
                0.03193890028534137,
                -0.04486961359130302,
                0.041811400691917494,
                -0.059651737900939236,
                0.002200868626272752,
                -0.03974613315348785,
                -0.026781046517808414,
                0.0071589518383991056,
                -0.01302936670451277,
                -0.0086118679411891,
                0.027184123922198,
                -0.03793286439312789,
                -0.04172273657258456,
                0.0241069824887611,
                -0.024614761233254127,
                0.04856746528025801,
                -0.010351592163234356,
                0.0016252950243365123,
                -0.06253443341721444,
                -0.05732424598416374,
                -0.047418468221427174,
                0.020145003692565232,
                0.01889873733689516,
                0.054809242755559026,
                -0.012254890148004337,
                0.02997387171434313,
                -0.017290842749582817,
                -0.046800887207519085,
                -0.014034269050830706,
                0.03596345028851465,
                0.03819656215544796,
                0.05876210812862252,
                0.039720246018875624,
                0.011041365095928556,
                0.009846125085670857,
                -0.0010387539861778901,
                0.004111302426562584,
                0.02164529948378755,
                0.007380561604011844,
                0.037241993520742936,
                -0.010983416969093074,
                -0.002442706689095881,
                0.04670885361575355,
                0.021163425115713806,
                -0.0030729019951071528,
                0.009079146755749825,
                0.04168509716144932,
                0.01457107251726979,
                -0.028909914847311945,
                -0.016719849885215913,
                0.011494180765213143,
                -0.05872777063286772,
                -0.0040399693189102975,
                0.05011296011645403,
                -0.028360464063653782,
                -0.009265186524644212,
                0.023765844157268446,
                0.05258378350415394,
                0.023272935878948815,
                0.020962745861771603,
                -0.011790561207796464,
                -0.0071817404194827045,
                0.02310451382797379,
                -0.018360812225258868,
                0.04362781664606544,
                -0.05936044168014453,
                0.028786502395250733,
                0.03431487661302328,
                -0.019780740712487237,
                -0.05675700774862001,
                -0.014831071065913413,
                0.014111633376614596,
                0.046572729292607286,
                0.05264179144119794,
                -0.042408400279931806,
                -0.04844892864686415,
                -0.048234915731579814,
                0.06519685240602086,
                0.024212479943303028,
                -0.04873863985201178,
                0.021812940115304432,
                0.062370652653704686,
                0.016932598475145295,
                -0.025351621392574006,
                0.05780561906663857,
                0.031125719952809078,
                -0.03523564697663299,
                0.03452596393316029,
                0.0027391984082929966,
                0.012204529728477156,
                -0.016527789035938115,
                -0.028431139323575584,
                -0.00448773496369111,
                0.005320254165806918,
                0.002223158857824452,
                0.05172087795621907,
                -0.050594853690321934,
                -0.03796099527750222,
                0.052671670281721976,
                0.010724307259924626,
                0.00864594974670539,
                0.019366800142391002,
                -0.029247583518717386,
                -0.008303219328777575,
                -0.03921482641692875,
                -0.04215347844137342,
                0.05891106659705902,
                0.029207974210300764,
                0.05048861297399935,
                -0.0577133938527414,
                0.03375753218883593,
                -0.01788351063202616,
                -0.000655930506599439,
                0.019844264324811182,
                -0.05978520106585326,
                -0.018552002552158782,
                0.009502809259918633,
                0.05067866427707912,
                0.00476841558564471,
                -0.017660137813754685,
                0.012141191677724197,
                0.012141191677724197,
                -0.02733036403635907,
                0.012669635963641082,
                -0.02733036403635907,
                -0.05733036403635949,
                -0.017330364036359014,
                -0.04733036403635949,
                0.00266963596364087,
                0.00266963596364087,
                0.052669635963640514,
                0.032669635963640455,
                0.032669635963640455,
                0.06266963596363995,
                -0.02705288407544599,
                -0.016240342598791285,
                -0.027751139248028592,
                -0.047751139248029074,
                0.00266963596364087,
                0.00266963596364087,
                -0.04733036403635949,
                0.052669635963640514,
                0.06266963596363995,
                -0.04733036403635949,
                -0.05733036403635949,
                -0.04733036403635949,
                0.032669635963640455,
                0.042669635963640505,
                -0.04733036403635949,
                -0.05733036403635949,
                0.0022488607519714045,
                -0.017751139248028666,
                -0.05901754627530521,
                -0.05534456634021406,
                -0.03801984150137309,
                -0.039017546275305216,
                -0.029017546275304985,
                0.010463474480330264,
                -0.02748775438588423,
                -0.02511614056520151,
                -0.03533562755853889,
                0.04713689411301326,
                -0.029762521274861085,
                0.0109660692652268,
                -0.004703635129508205,
                -0.01191242848786697,
                -0.008781019245198564,
                -0.053336941847911455,
                -0.030735829621032815,
                0.024337917102008663,
                0.03676922457862058,
                -0.032858457753133,
                -0.038162970317515685,
                0.052435927252258485,
                -0.04733036403635949,
                0.04183702968248432,
                0.05183702968248432,
                -0.037564072747741525,
                0.042669635963640505,
                -0.03761858730667498,
                -0.05841608579977543,
                -0.025971405692027372,
                -0.0126592700806524,
                0.011403228936364765,
                -0.007330364036359147,
                0.042669635963640505,
                0.02266963596364093,
                -0.04733036403635949,
                -0.0373303640363595,
                0.032669635963640455,
                -0.04733036403635949,
                0.06266963596363995,
                0.042669635963640505,
                -0.0373303640363595,
                -0.02733036403635907,
                -0.02733036403635907,
                -0.007330364036359147,
                -0.02733036403635907,
                -0.05733036403635949,
                -0.02733036403635907,
                -0.0373303640363595,
                -0.017330364036359014,
                -0.007330364036359147,
                0.052669635963640514,
                0.02266963596364093,
                0.012669635963641082,
                0.052669635963640514,
                -0.007330364036359147,
                -0.007330364036359147,
                -0.02733036403635907,
                0.042669635963640505,
                0.052669635963640514,
                0.052669635963640514,
                0.012669635963641082,
                -0.04733036403635949,
                -0.04733036403635949,
                0.042669635963640505,
                0.052669635963640514,
                0.00266963596364087,
                0.052669635963640514,
                0.052669635963640514,
                0.032669635963640455,
                -0.017330364036359014,
                -0.007330364036359147,
                -0.017330364036359014,
                -0.007330364036359147,
                0.00266963596364087,
                -0.05733036403635949,
                -0.04733036403635949,
                -0.0373303640363595,
                0.012669635963641082,
                0.052669635963640514,
                0.032669635963640455,
                -0.0373303640363595,
                -0.007330364036359147,
                0.02266963596364093,
                -0.04733036403635949,
                -0.04733036403635949,
                0.012669635963641082,
                -0.02733036403635907,
                0.02266963596364093,
                -0.0373303640363595,
                0.042669635963640505,
                -0.017330364036359014,
                -0.007330364036359147,
                0.012669635963641082,
                0.052669635963640514,
                0.052669635963640514,
                0.043272630947397694,
                0.02327263094739835,
                -0.04792588195202635,
                -0.03792588195202635,
                0.0028631416426689697,
                0.06802060174857827,
                0.03763341288397259,
                -0.036510714059190486,
                -0.01657850081568229,
                0.06724523918756845,
                0.00457236913403421,
                0.05459052347850178,
                0.040892261815370284,
                0.04023482127094411,
                0.02243592725225889,
                0.0218820538806371,
                -0.01850291618947046,
                -0.048502916189470884,
                0.059256708618045856,
                -0.05961699219386812,
                -0.024468772076244625,
                0.01306660426973629,
                0.06566190151490064,
                -0.037595668737609944,
                -0.028113500126734407,
                0.04356414185670809,
                -0.021802673868323845,
                -0.008414203985622514,
                -0.01923117104167465,
                -0.059136777997645294,
                0.06149708381052851,
                0.021263375099147573,
                -0.05733036403635949,
                -0.04733036403635949,
                -0.04733036403635949,
                -0.017330364036359014,
                0.052669635963640514,
                -0.0373303640363595,
                -0.02733036403635907,
                -0.017330364036359014,
                0.00266963596364087,
                0.052669635963640514,
                0.00266963596364087,
                0.052669635963640514,
                0.012669635963641082,
                -0.007330364036359147,
                0.052669635963640514,
                0.012669635963641082,
                0.00266963596364087,
                0.00266963596364087,
                -0.017330364036359014,
                -0.007330364036359147,
                -0.04733036403635949,
                -0.0373303640363595,
                0.032669635963640455,
                -0.04733036403635949,
                -0.0373303640363595,
                -0.0373303640363595,
                -0.017330364036359014,
                -0.05733036403635949,
                -0.017330364036359014,
                0.012669635963641082,
                0.02266963596364093,
                0.052669635963640514,
                -0.04733036403635949,
                0.02266963596364093,
                -0.0373303640363595,
                -0.017330364036359014,
                0.012669635963641082,
                0.042669635963640505,
                0.02266963596364093,
                0.06266963596363995,
                -0.05733036403635949,
                -0.017330364036359014,
                0.00266963596364087,
                -0.05733036403635949,
                -0.05733036403635949,
                -0.017330364036359014,
                0.012669635963641082,
                -0.04733036403635949,
                -0.04727005956669822,
                -0.019166114431554797,
                0.030645862571247493,
                0.012729940433302294,
                0.06149708381052851,
                0.011497083810529591,
                0.04986172565874321,
                0.009413005948475522,
                0.007669067967212196,
                -0.008177531252909117,
                -0.04127814542412611,
                -0.04532152174047456,
                0.021013674697289292,
                0.044832607628776,
                -0.05686413305403172,
                -0.03954259260500783,
                -0.019046579392884535,
                -0.01674126799936849,
                0.04473172023872685,
                -0.027767272695303755,
                -0.017933257808781973,
                0.002729940433302127,
                0.06149708381052851,
                -0.02714519132486294,
                0.02283326596837842,
                -0.05850291618947088,
                -0.00850291618947052,
                0.05100253766957023,
                -0.04042826164205664,
                -0.016367550309069317,
                0.02253450075024527,
                0.009121783116964073,
                0.012199100587519813,
                0.011912775045400637,
                0.020469245595964868,
                -0.016661916322313355,
                -0.014621601323389154,
                -0.011872054982849108,
                -0.0012589227629905017,
                0.014508849099927936,
                0.05319987630101234,
                -0.006468152670947152,
                -0.005257220829118332,
                0.033469717240972786,
                0.06279622738490559,
                -0.027680802308732832,
                0.029381833620601323,
                -0.02986476776230142,
                0.03197344839076421,
                -0.061999892244752136,
                -0.0013765701160447612,
                0.006763320481792686,
                0.01857604764010461,
                0.05169925106619959,
                0.0401071196371418,
                0.006543939827729181,
                0.006971395310673069,
                -0.05739178868847048,
                0.010645895040646464,
                0.015635676702871283,
                0.02906337726486422,
                -0.03970409035329794,
                0.007550949536531828,
                -0.0572931074809799,
                0.02829722770461859,
                0.04614975861946634,
                -0.009638211862665618,
                0.026840904186704845,
                0.018259438342382136,
                -0.01557935202640267,
                -0.05060436026898441,
                0.028403287967252933,
                -0.018341233668223794,
                -0.033564316398183025,
                -0.010256079485281427,
                0.03870139667215566,
                0.06199127443049971,
                0.012421139101352636,
                0.06189350505570172,
                -0.03699354456274213,
                -0.000841326170880641,
                -0.06071053962235601,
                -0.028889508266101815,
                0.052141632695130676,
                -0.05552885508960813,
                0.0196347237748339,
                5.1404782526731575e-05,
                0.06234888760145437,
                0.06347007190812405,
                -0.045536625758190785,
                -0.02844534550021672,
                0.06600708086664454,
                -0.022278335164638088,
                -0.03826970153618762,
                0.05238966364771446,
                0.012013228556864021,
                -0.01616434093854451,
                0.012002877466071746,
                -0.006682062814035982,
                -0.00474100989531175,
                0.010234953287247144,
                -0.0380373025431753,
                0.011082276758329686,
                0.06051553299399344,
                0.013252101991140554,
                0.042433886436657124,
                -0.02891772324167046,
                -0.03744687129073023,
                -0.058289281549838805,
                0.06674949995518181,
                -0.04242786412338475,
                -0.0023182152480398714,
                0.018675016228649467,
                0.030017468803451103,
                0.011434157375190414,
                -0.008804638277237972,
                0.04380862257437748,
                -0.008151988080874938,
                0.04096658190318098,
                -0.0593035997377415,
                0.029833636159559373,
                -0.0474087815352072,
                -0.009343849010811329,
                -0.009523432729241709,
                -0.039289443338066936,
                -0.010508279996683429,
                0.04113056923721254,
                -0.059109859619636405,
                -0.0373303640363595,
                0.06266963596363995,
                -0.007330364036359147,
                -0.007330364036359147,
                0.052669635963640514,
                0.032669635963640455,
                -0.0373303640363595,
                0.012669635963641082,
                -0.0373303640363595,
                0.032669635963640455,
                0.012669635963641082,
                0.042669635963640505,
                -0.04733036403635949,
                0.052669635963640514,
                -0.02733036403635907,
                0.042669635963640505,
                -0.007330364036359147,
                0.052669635963640514,
                -0.04733036403635949,
                -0.05733036403635949,
                0.00266963596364087,
                0.052669635963640514,
                0.00266963596364087,
                0.00266963596364087,
                -0.0373303640363595,
                0.012669635963641082,
                -0.007330364036359147,
                0.052669635963640514,
                0.032669635963640455,
                0.00266963596364087,
                -0.0373303640363595,
                -0.0373303640363595,
                0.06266963596363995,
                0.012669635963641082,
                -0.02733036403635907,
                0.042669635963640505,
                -0.0373303640363595,
                -0.007330364036359147,
                0.052669635963640514,
                -0.04733036403635949,
                -0.04733036403635949,
                -0.05733036403635949,
                -0.0373303640363595,
                -0.017330364036359014,
                -0.017330364036359014,
                -0.02733036403635907,
                -0.05733036403635949,
                0.00266963596364087,
                -0.007654698882823853,
                0.032669635963640455,
                -0.01809707658476786,
                0.011063682877147386,
                -0.01595132347787093,
                0.02973373906316601,
                -0.03718194857559963,
                0.0009642818906726398,
                -0.008101616321020522,
                -0.00938919448297973,
                0.00266963596364087,
                0.00266963596364087,
                -0.017330364036359014,
                0.042504431868965506,
                0.06266963596363995,
                0.012669635963641082,
                0.02266963596364093,
                0.032669635963640455,
                -0.017330364036359014,
                0.012669635963641082,
                0.00266963596364087,
                0.00266963596364087,
                -0.007330364036359147,
                0.00266963596364087,
                -0.0373303640363595,
                -0.02733036403635907,
                -0.0373303640363595,
                0.012669635963641082,
                -0.02733036403635907,
                0.042669635963640505,
                0.052669635963640514,
                0.032669635963640455,
                -0.017330364036359014,
                0.06266963596363995,
                -0.017330364036359014,
                -0.017330364036359014,
                0.012669635963641082,
                0.02266963596364093,
                -0.007330364036359147,
                0.042669635963640505,
                0.042669635963640505,
                -0.02733036403635907,
                -0.02733036403635907,
                -0.007330364036359147,
                0.02266963596364093,
                0.02266963596364093,
                -0.0373303640363595,
                -0.007330364036359147
            ],
            [
                0.10774681955179444,
                0.11774681955179446,
                0.06774681955179457,
                0.0977468195517944,
                0.0977468195517944,
                0.027746819551794234,
                0.007746819551794218,
                0.06774681955179457,
                0.04774681955179456,
                0.08774681955179522,
                0.027746819551794234,
                0.04774681955179456,
                0.0977468195517944,
                0.007746819551794218,
                0.04774681955179456,
                0.017746819551794135,
                0.05774681955179406,
                0.08774681955179522,
                0.11774681955179446,
                0.08774681955179522,
                0.017746819551794135,
                0.04774681955179456,
                0.06774681955179457,
                0.07774681955179524,
                0.08774681955179522,
                0.11774681955179446,
                0.08913723529553894,
                -0.01086276470446129,
                -0.011373644941285557,
                0.11774681955179446,
                0.017746819551794135,
                0.09986702496452905,
                -0.010132975035470882,
                0.06458386140124212,
                0.006814433330116216,
                0.01098459758372846,
                0.06851358341998957,
                0.12763706776643735,
                0.159794118975111,
                0.2464615665421945,
                -0.0327730044107958,
                0.11156544498315624,
                0.0999333429221706,
                0.03657306989539785,
                0.13869181702988262,
                0.056367599852576604,
                0.10601783308050378,
                0.006017833080503276,
                0.05774681955179406,
                0.06774681955179457,
                0.017746819551794135,
                0.037746819551795076,
                0.007746819551794218,
                0.10774681955179444,
                0.037746819551795076,
                0.007746819551794218,
                0.05774681955179406,
                0.05774681955179406,
                0.10774681955179444,
                0.08774681955179522,
                0.017746819551794135,
                0.10774681955179444,
                -0.002253180448205559,
                0.07774681955179524,
                -0.002253180448205559,
                0.0977468195517944,
                0.017746819551794135,
                0.0977468195517944,
                0.0977468195517944,
                0.08774681955179522,
                0.007746819551794218,
                0.04774681955179456,
                0.007746819551794218,
                0.08774681955179522,
                0.11774681955179446,
                0.05774681955179406,
                0.07774681955179524,
                0.07774681955179524,
                0.017746819551794135,
                0.037746819551795076,
                0.037746819551795076,
                0.08774681955179522,
                0.04774681955179456,
                0.037746819551795076,
                0.06774681955179457,
                0.017746819551794135,
                0.007746819551794218,
                0.027746819551794234,
                -0.002253180448205559,
                0.07774681955179524,
                0.04774681955179456,
                0.06774681955179457,
                0.06774681955179457,
                -0.002253180448205559,
                0.0977468195517944,
                0.0977468195517944,
                0.005735407724700203,
                -0.020453488745896507,
                0.14453931602539663,
                0.16177226251007473,
                0.20719377828831817,
                0.06138423691429205,
                -0.011133577759285486,
                0.41587412855738376,
                0.09812705728296228,
                0.12789037908636383,
                -0.08279033236744283,
                -0.10087676888885508,
                0.2649934877968914,
                -0.029415859698357267,
                0.1583938766441983,
                -0.0064975755958391985,
                0.18747463920466073,
                -0.03585881163778535,
                0.08906144973473126,
                0.1430607025944116,
                -0.04822004468562715,
                0.02023555792411444,
                0.0214402153317914,
                0.0219667271588974,
                0.046553737043654474,
                -0.012087937566925762,
                0.00300280185787165,
                0.10430512981595512,
                0.07098270095710732,
                -0.03617776957588019,
                0.03963100587767113,
                0.07785454335080025,
                -0.23457168355343114,
                0.04014543473507258,
                0.0446084914539467,
                0.0837790436781869,
                0.16961302280205823,
                0.10112886928530633,
                -0.025538220185923038,
                0.017683584092594393,
                0.07351990138003574,
                -0.0884505323439539,
                0.03489143323769889,
                -0.07907958163870409,
                0.08269351227833235,
                -0.08261457753306997,
                0.09381823828322715,
                0.10461012417211006,
                -0.060456310146076594,
                0.0659546526504099,
                0.13120709300762273,
                -0.015261556067581053,
                0.068078399816002,
                0.039364738657680705,
                0.03040541871126626,
                -0.015126237637943208,
                0.11265866924370277,
                0.16448926079549725,
                0.10204969927703685,
                0.09071433525772102,
                0.009466386559262846,
                0.007221159068624131,
                -0.03542911418905117,
                0.17214640025351524,
                -0.049025868929565966,
                0.06972330616639918,
                -0.04160629870305073,
                -0.04537418851594807,
                0.13688406029877292,
                0.09733284107873903,
                0.23865110295232733,
                0.13096775778174966,
                0.03643445751028028,
                0.1901113438374673,
                0.09192132368306406,
                0.12821080320154288,
                0.015372682989734045,
                0.13549793591406137,
                -0.023221240593990056,
                0.02659032020590695,
                0.09735060905579447,
                0.03380191015164907,
                0.09508153315621365,
                0.012519534877735708,
                0.06676224423630547,
                0.1021117800258382,
                -0.11246654146049909,
                0.10806657960989598,
                -0.13482866627088527,
                0.13401478045825135,
                -0.06701257898122595,
                0.04377486390814108,
                0.08270421601344582,
                -0.023740887755698322,
                0.04837203989476595,
                0.05877486781840851,
                0.0529477341848365,
                0.05775506130047398,
                -0.14385867592746615,
                -0.010760258767088346,
                -0.10964065366159816,
                0.060411181850326935,
                -0.027645951468667284,
                0.21972382462430054,
                -0.002101005916692115,
                0.08381140948254683,
                0.04381140948254757,
                0.00027635014869146373,
                0.26008538739364345,
                0.05773441097686799,
                0.16123492249710297,
                0.016114386688626976,
                0.06910932399855044,
                0.040176933639334514,
                -0.023948688284511944,
                0.06969322823488795,
                -0.02887815837360223,
                0.057546823194672775,
                -0.06743167918807802,
                -0.049797900659807326,
                0.07106883327639223,
                -0.027412455867235147,
                0.05573218125075821,
                0.06990132181282746,
                0.09765040793853826,
                -0.05497576453346095,
                0.24175125570647363,
                0.07841903572541414,
                0.039137235295539065,
                0.07774681955179524,
                0.017746819551794135,
                -0.03086276470446152,
                -0.0208627647044614,
                -0.03086276470446152,
                0.06774681955179457,
                0.037746819551795076,
                0.0977468195517944,
                0.017746819551794135,
                0.017746819551794135,
                0.10774681955179444,
                0.007746819551794218,
                0.037746819551795076,
                0.07774681955179524,
                0.06774681955179457,
                0.027746819551794234,
                0.007746819551794218,
                0.06774681955179457,
                0.027746819551794234,
                0.0977468195517944,
                -0.0008627647044608247,
                0.10859738067304191,
                -0.002253180448205559,
                0.06774681955179457,
                0.027816840683712648,
                0.0585973806730411,
                0.04774681955179456,
                0.0977468195517944,
                0.017746819551794135,
                0.08774681955179522,
                -0.002253180448205559,
                0.07774681955179524,
                0.0977468195517944,
                0.04774681955179456,
                0.0977468195517944,
                0.037746819551795076,
                0.037746819551795076,
                0.10774681955179444,
                0.11774681955179446,
                0.0977468195517944,
                0.027746819551794234,
                0.11427292199017189,
                0.02354313232118143,
                0.22171720158128605,
                0.037746819551795076,
                0.017746819551794135,
                0.16910538674330688,
                0.19198211849734106,
                0.1926054345833835,
                0.04335000287178882,
                -0.017711375690307108,
                0.2164233396094176,
                0.1304540496242509,
                0.09254711970076024,
                0.022532334461219654,
                0.009274116320780408,
                0.1745539829976516,
                0.08478847992905271,
                0.021768702106995417,
                0.09832946020377807,
                0.10765070333639948,
                0.2121444134944193,
                -0.06766324558692498,
                0.06224884749331591,
                0.11159814226581732,
                0.159916677200578,
                0.1149067264956001,
                0.05772714036338911,
                0.047888063084174794,
                0.10961853213543399,
                0.2275667171292778,
                0.13738349339884398,
                0.18964398219464793,
                -0.07978444602668054,
                0.0769181607142457,
                0.2359705991946831,
                0.1288881141544451,
                -0.05564743480713743,
                0.005936589495852699,
                0.07349238200084394,
                0.06774681955179457,
                0.10774681955179444,
                0.04427292199017195,
                0.06427292199017216,
                0.04427292199017195,
                0.08774681955179522,
                0.07774681955179524,
                0.11774681955179446,
                0.017746819551794135,
                0.007746819551794218,
                0.027746819551794234,
                0.06774681955179457,
                0.07774681955179524,
                0.017746819551794135,
                0.027746819551794234,
                0.06774681955179457,
                0.027746819551794234,
                0.0977468195517944,
                0.007746819551794218,
                0.0977468195517944,
                0.01349238200084268,
                0.08349238200084368,
                0.0977468195517944,
                0.11774681955179446,
                0.10349238200084292,
                -0.006507617999157193,
                0.07774681955179524,
                0.10774681955179444,
                0.08774681955179522,
                0.04774681955179456,
                0.08774681955179522,
                0.027746819551794234,
                0.0977468195517944,
                0.04774681955179456,
                0.11774681955179446,
                -0.002253180448205559,
                0.06774681955179457,
                0.007746819551794218,
                0.08774681955179522,
                0.11774681955179446,
                0.05774681955179406,
                0.0977468195517944,
                0.027746819551794234,
                -0.002253180448205559,
                0.0977468195517944,
                0.04774681955179456,
                0.007746819551794218,
                0.07774681955179524,
                0.061073425576270136,
                0.007746819551794218,
                0.06774681955179457,
                0.037746819551795076,
                -0.002253180448205559,
                0.007746819551794218,
                -0.002253180448205559,
                0.037746819551795076,
                0.037746819551795076,
                0.05774681955179406,
                0.07774681955179524,
                0.0977468195517944,
                0.0977468195517944,
                -0.028926574423730013,
                0.031073425576270387,
                0.09947306823476437,
                0.16385445953784483,
                0.03894062167000931,
                0.11349238200084379,
                0.02681898802531877,
                0.08349238200084368,
                0.038238077069818834,
                0.030883875367407304,
                0.058497448901744825,
                0.03351745985491446,
                0.002275503161875714,
                -0.09527799470627199,
                -0.023637396137783928,
                0.10581600837205425,
                0.1485630017464664,
                0.08874518606244419,
                0.010591463546360959,
                0.2206106681290226,
                -0.11813288635340963,
                0.27593892074027593,
                -0.02143018947658773,
                0.09671454805217095,
                0.08091473082167158,
                0.03986201043480725,
                0.012972508688308227,
                0.07161791868734874,
                0.2795595890945976,
                -0.03671845735835094,
                -0.12065067817047384,
                0.04226869126010287,
                0.06530382224206091,
                -0.006324669638343231,
                -0.0089265744237297,
                -0.028926574423730013,
                0.07774681955179524,
                0.05774681955179406,
                0.0977468195517944,
                0.04774681955179456,
                0.007746819551794218,
                0.007746819551794218,
                0.027746819551794234,
                0.05774681955179406,
                0.08774681955179522,
                0.06774681955179457,
                -0.002253180448205559,
                0.11774681955179446,
                0.0010734255762695657,
                0.021073425576269927,
                0.03738152165097116,
                0.04738152165097154,
                0.017746819551794135,
                0.06774681955179457,
                0.10774681955179444,
                0.027746819551794234,
                0.037746819551795076,
                0.027746819551794234,
                -0.002253180448205559,
                -0.002253180448205559,
                0.0977468195517944,
                0.11774681955179446,
                -0.002253180448205559,
                0.007746819551794218,
                0.06738152165097154,
                0.2708720212097764,
                0.05631660371900554,
                0.14191747668006735,
                0.07697339700660903,
                0.31147101465907867,
                0.01588071390957207,
                0.12383700099980652,
                -0.17180303802330055,
                -0.2063239544241033,
                -0.0697102477900695,
                -0.034842378026710974,
                -0.2376855095590243,
                0.07979122590552366,
                0.05933356220176495,
                0.173071929230828,
                0.14412760477319886,
                0.11921622416711415,
                0.05906133979603983,
                -0.16259099432834412,
                0.09172901619516678,
                -0.008386504688710293,
                -0.045936071445293866,
                0.052077918063694106,
                -0.013624039516213939,
                0.0034531065268485614,
                -0.04473854757190866,
                0.09591806722453079,
                -0.0251393555563646,
                0.30265448178790727,
                -0.049528924720469485,
                0.12612983536448055,
                0.027583632621213747,
                -0.06846752365691,
                0.14972111707395747,
                0.02921781336650302,
                0.1838785419806401,
                0.1255889256467978,
                0.022673751767660552,
                -0.057877384082270014,
                0.03362900041680053,
                -0.11134126798767369,
                0.09164099101403124,
                0.1453245621935651,
                -0.055361240841218504,
                0.1445167917470032,
                0.19569251604304475,
                0.05444644797426038,
                -0.020249951772135292,
                -0.019765250926544714,
                0.0585630888235194,
                0.04229367087352569,
                0.1643384624525825,
                -0.052752413465021464,
                0.032333497340418356,
                0.03371914799841803,
                0.06140960450430343,
                0.08471357433529912,
                0.0757299280767764,
                0.07226160879321705,
                0.18827228022617307,
                0.04934694408789808,
                0.052884941964695245,
                0.09964374127417433,
                -0.01296090522080715,
                -0.0774447340239116,
                0.025909091735131385,
                0.009608877053186877,
                0.1486445185430562,
                0.033879750341682044,
                -0.08379237066803903,
                0.13803046160445281,
                0.041052534891156414,
                0.05742842496348581,
                -0.06506545199387578,
                0.03698101045627318,
                -0.04528391216605013,
                0.04904931460571073,
                0.035279715819386125,
                0.05428806625559436,
                0.19255670243864875,
                0.04013862737170073,
                -0.03929986928875323,
                -0.11770925015514523,
                0.09469315715684168,
                0.0775994067229218,
                0.04622401077235894,
                0.25295990099176874,
                -0.061460420774694456,
                0.15355271621437555,
                0.09188213015681315,
                0.19266858284648888,
                -0.01726616436592693,
                0.06463707913728332,
                0.013696608344868869,
                0.02241106925437254,
                0.11060519879420125,
                -0.11003835706280102,
                0.08783474881762078,
                -0.1081422319130248,
                0.10471610444915914,
                0.1557395834453797,
                0.02150133728585974,
                0.10329492498705027,
                0.07579598200964419,
                -0.0008300810616034852,
                0.07121797831541166,
                -0.018837682468597305,
                -0.04209079305250775,
                0.09629240968267934,
                -0.060428867881531886,
                0.13955271409091627,
                0.009179268640987117,
                0.0883034968394359,
                -0.01829713339918182,
                0.003557236118768587,
                0.024738249654924094,
                0.1102060583008411,
                -0.027599095401599053,
                0.07597721484729766,
                0.18268994503206615,
                0.08722644142960398,
                -0.02187548944934674,
                0.09068745100891859,
                0.1894724233569111,
                0.26213084606797493,
                0.047947657601204376,
                0.19093916205511552,
                0.17950231422449983,
                0.1011007373880795,
                0.0468237307360213,
                -0.06024673262400953,
                0.0612460323552633,
                0.03977554683709147,
                0.044628667677252015,
                0.04853938891534245,
                0.03201205740216476,
                -0.16841941674391914,
                0.0338632386677706,
                0.08374879512397522,
                0.017771943641683538,
                0.1252610637777091,
                0.08431512517173145,
                -0.04367655232159546,
                0.17188187952463627,
                -0.047222959782021,
                -0.0832649073662719,
                0.05579255563729281,
                -0.05887573798919013,
                -0.11751979173007226,
                -0.003410303604624616,
                0.03485170794693312,
                0.1939148195013924,
                0.051716844010614195,
                0.042918668982673956,
                -0.08164617411890637,
                0.08563249349448723,
                0.145629155667475,
                -0.07818718281571732,
                0.2546949848276926,
