{
    "layer1": {
        "weights": [
            [
                -0.0404378856100436,
                -0.0404378856100436,
                0.029562114389955926,
                -0.0004378856100439767,
                0.0395621143899564,
                -0.0404378856100436,
                0.029562114389955926,
                -0.0504378856100436,
                0.0595621143899564,
                0.029562114389955926,
                -0.020437885610044074,
                0.049562114389956405,
                0.0395621143899564,
                -0.060437885610043596,
                -0.0404378856100436,
                -0.0004378856100439767,
                0.029562114389955926,
                -0.010437885610043983,
                -0.0404378856100436,
                0.049562114389956405,
                0.029562114389955926,
                -0.060437885610043596,
                -0.0504378856100436,
                0.019562114389955927,
                0.0395621143899564,
                -0.0004378856100439767,
                -0.000517480307722555,
                -0.0605174803077222,
                -0.06049471570629062,
                -0.020437885610044074,
                -0.060437885610043596,
                0.01952264756919688,
                0.02952264756919688,
                0.029501146454731005,
                -0.05053186679645267,
                0.039514638126237046,
                0.018948610216361166,
                -0.031078053237422236,
                -0.010358835861121669,
                -0.06056767353545456,
                -0.05078775696930869,
                0.05980612737588289,
                -0.05660579300247378,
                -0.0005113804550846529,
                -0.030473382868260797,
                -0.010529693417997305,
                -0.0205140581208902,
                -0.0405140581208899,
                -0.0404378856100436,
                0.029562114389955926,
                -0.0504378856100436,
                -0.0004378856100439767,
                0.049562114389956405,
                0.0395621143899564,
                0.049562114389956405,
                -0.0404378856100436,
                -0.0004378856100439767,
                -0.0004378856100439767,
                0.049562114389956405,
                -0.0404378856100436,
                -0.0404378856100436,
                0.029562114389955926,
                -0.0504378856100436,
                -0.0404378856100436,
                -0.0404378856100436,
                0.019562114389955927,
                -0.010437885610043983,
                -0.030437885610044072,
                -0.0504378856100436,
                0.049562114389956405,
                0.0595621143899564,
                -0.0004378856100439767,
                0.029562114389955926,
                -0.0004378856100439767,
                -0.0504378856100436,
                0.049562114389956405,
                -0.0004378856100439767,
                0.029562114389955926,
                0.009562114389956017,
                0.029562114389955926,
                -0.030437885610044072,
                -0.010437885610043983,
                0.0395621143899564,
                0.009562114389956017,
                0.029562114389955926,
                0.029562114389955926,
                0.0595621143899564,
                -0.020437885610044074,
                0.009562114389956017,
                0.0395621143899564,
                0.019562114389955927,
                -0.010437885610043983,
                0.049562114389956405,
                0.029562114389955926,
                -0.0404378856100436,
                0.029562114389955926,
                -0.0011651943956151269,
                -0.017341696947579328,
                -0.006967103167597528,
                -0.050992940029142335,
                -0.031022923730109574,
                -0.02141124285714391,
                0.0495601974579615,
                -0.036660200083962924,
                -0.0011839265182736272,
                0.04224372263976078,
                0.03909199599612118,
                0.009009905287979358,
                -0.0007737800734631229,
                0.038777024285373704,
                0.028722297355128792,
                0.00914666548280717,
                -0.04114106306562065,
                0.02974773170002213,
                -0.02131336097851027,
                -0.02217102768189664,
                0.01178759445898729,
                0.058889444873660345,
                -0.00018917669422858363,
                -0.027144694271065847,
                -0.03691802519308328,
                0.04974479344555084,
                0.009471267565376243,
                -0.05024201962690273,
                0.04273535287929878,
                0.02224509609866237,
                0.05936363370936987,
                0.013048926669336184,
                -0.0004323876444829043,
                0.04003253597628674,
                0.00965614381709953,
                -0.060398501226700534,
                0.02979730899525082,
                0.02977481205185416,
                0.029549350645247607,
                -0.040629578826311886,
                -0.020280873960518617,
                -0.0103856328835617,
                0.04897758848137879,
                -0.0017511598213713032,
                0.039037345718518364,
                -0.04062298171203425,
                -0.029796684051177528,
                -0.01099857187658964,
                -0.030548241301292783,
                0.00976776183351279,
                -0.040456242386603336,
                -0.00026040248070719315,
                -0.040332505779343816,
                -0.00039871271378422797,
                -0.019995720460985727,
                -0.030625286067790945,
                -0.060559104015528616,
                -0.04049046324583184,
                -0.0005722487675924058,
                0.009370079591886795,
                -0.04025278041136068,
                0.009192104761855306,
                -0.00046958480353406697,
                0.022110808227814027,
                0.05115992616615315,
                -0.028911916329371335,
                -0.019168295306668557,
                0.030983840842952762,
                -0.01103998240695377,
                -0.06073914749918723,
                -0.039908654866761095,
                -0.05892937962263843,
                0.06108235775760921,
                0.03949837225709213,
                0.017636544462664033,
                0.018041369963946497,
                0.057907422848600176,
                -0.05230541338481336,
                0.057441426582380016,
                -0.05204362688992016,
                0.05454089797052568,
                0.028083087470893345,
                -0.002203262401051346,
                0.01884945245899874,
                0.06036328580859839,
                -0.021132335756839125,
                -0.05052167256335991,
                -0.04030266443420352,
                -0.0005367336886386284,
                -0.06003298738818877,
                0.049390293312137366,
                0.009508466148893792,
                -0.04089225287448419,
                0.03768537676350505,
                0.02171811692005206,
                0.0028425348576075716,
                -0.04027653816417588,
                -0.006822997632909275,
                -0.0609767734042992,
                -0.020608785005023243,
                -0.030914853073257895,
                -0.03142387163895361,
                0.028543147820895055,
                -0.0305802817621096,
                -0.060632742700938665,
                0.04876692954078529,
                0.05876692954078529,
                -0.04037638918749309,
                0.023357113981229444,
                -0.0066774914714658185,
                0.05289797481081856,
                -0.04050871552386222,
                -0.05083458490710066,
                0.033138490370092116,
                0.05342318579210683,
                0.019335669131018828,
                0.019375922921314303,
                0.052882741514738756,
                0.033261548680091006,
                0.05339207282471521,
                0.04947504165509075,
                -0.020503529908331684,
                -0.041142099664803755,
                -0.0010900233765487057,
                0.04877605851077489,
                0.019584616162976503,
                0.029875944402506308,
                0.018814798072476175,
                -0.02051748030772259,
                -0.010437885610043983,
                0.009562114389956017,
                0.01948251969227741,
                -0.000517480307722555,
                -0.0405174803077222,
                -0.0404378856100436,
                0.049562114389956405,
                0.009562114389956017,
                -0.010437885610043983,
                0.049562114389956405,
                -0.0404378856100436,
                -0.0404378856100436,
                -0.030437885610044072,
                0.019562114389955927,
                -0.0504378856100436,
                0.0395621143899564,
                -0.010437885610043983,
                0.009562114389956017,
                0.0595621143899564,
                0.0395621143899564,
                0.0494825196922778,
                -0.0504584130964874,
                0.019562114389955927,
                -0.0404378856100436,
                0.019553072476916712,
                -0.030458413096487686,
                0.049562114389956405,
                -0.030437885610044072,
                -0.010437885610043983,
                -0.060437885610043596,
                -0.030437885610044072,
                -0.0004378856100439767,
                0.0395621143899564,
                0.049562114389956405,
                -0.060437885610043596,
                0.009562114389956017,
                0.009562114389956017,
                -0.060437885610043596,
                0.019562114389955927,
                0.0395621143899564,
                0.029562114389955926,
                -0.05048426879664978,
                0.019475603326430245,
                -0.0004595771680857951,
                -0.010437885610043983,
                -0.0004378856100439767,
                -0.010354774208610619,
                -0.05130764537878644,
                -0.021303143845358398,
                -0.05050084400044439,
                -0.040597346087520414,
                -0.030815851105733236,
                -0.05111418832833534,
                -0.06119937129701353,
                -0.051033267150550767,
                0.009176869460144453,
                0.02867609419123008,
                0.013931857376010935,
                -0.05119516688829922,
                -0.0509107332842791,
                -0.04094889564731216,
                0.03884886882872806,
                0.008655600912229448,
                -0.05057667129530314,
                0.019459606349181854,
                -0.010100739890375904,
                0.029996428625510694,
                0.009820041033034648,
                0.044429440002271954,
                0.03452362252577723,
                -0.020249318797184244,
                -0.06012147249084613,
                -0.045356419588025866,
                0.06449290705373713,
                0.009689847117696307,
                0.05983656268625782,
                0.039749691887529165,
                -0.0007168592158825611,
                -0.0306458298809361,
                0.009527216776754272,
                -0.010437885610043983,
                0.019562114389955927,
                0.009515731203349894,
                -0.00048426879665010417,
                -0.030484268796650282,
                -0.0404378856100436,
                0.0595621143899564,
                -0.0504378856100436,
                -0.010437885610043983,
                0.0595621143899564,
                -0.010437885610043983,
                -0.0004378856100439767,
                0.009562114389956017,
                -0.0504378856100436,
                -0.0504378856100436,
                0.049562114389956405,
                0.049562114389956405,
                0.049562114389956405,
                -0.020437885610044074,
                0.0595621143899564,
                0.059527216776754585,
                0.03952721677675459,
                -0.0004378856100439767,
                -0.0504378856100436,
                -0.050472783223245415,
                0.009527216776754272,
                0.029562114389955926,
                -0.0004378856100439767,
                0.009562114389956017,
                -0.010437885610043983,
                -0.0404378856100436,
                0.049562114389956405,
                0.029562114389955926,
                0.049562114389956405,
                -0.0404378856100436,
                0.029562114389955926,
                0.009562114389956017,
                0.009562114389956017,
                -0.010437885610043983,
                -0.0404378856100436,
                -0.020437885610044074,
                0.009562114389956017,
                -0.030437885610044072,
                0.029562114389955926,
                0.0595621143899564,
                0.019562114389955927,
                -0.020437885610044074,
                0.049562114389956405,
                -0.010498386415416158,
                -0.030437885610044072,
                -0.0404378856100436,
                -0.0504378856100436,
                -0.0404378856100436,
                0.049562114389956405,
                -0.020437885610044074,
                0.049562114389956405,
                -0.020437885610044074,
                0.0595621143899564,
                0.0395621143899564,
                0.009562114389956017,
                0.019562114389955927,
                -0.02049838641541625,
                -0.060498386415415856,
                -0.0004941572788644654,
                -0.020569565360162335,
                -0.0103071522110014,
                0.059527216776754585,
                -0.00053328402861791,
                -0.00047278322324573353,
                0.01954349004610723,
                0.04961875243113109,
                0.009672700590227878,
                -0.0005767583489924113,
                0.04940027305655961,
                -0.050393206421783326,
                -0.020230377462909975,
                0.00958866072451535,
                -0.05039320434713796,
                -0.0008481500471454924,
                -0.014987074363532556,
                0.03533212864233124,
                0.034318540545188084,
                0.023910735684297243,
                0.04386385011157694,
                0.033899019191638964,
                0.029730200729637356,
                -0.020476134483501742,
                -0.0050217463882909425,
                0.0647653680474631,
                0.01911317485002858,
                -0.011043026886626632,
                -0.011104043505824062,
                0.004512780752599248,
                0.05924145644837738,
                0.009464285539805512,
                0.009501613584583842,
                -0.060498386415415856,
                -0.0004378856100439767,
                0.019562114389955927,
                -0.060437885610043596,
                -0.020437885610044074,
                -0.030437885610044072,
                -0.0404378856100436,
                -0.0004378856100439767,
                -0.020437885610044074,
                -0.0004378856100439767,
                -0.0004378856100439767,
                -0.0504378856100436,
                0.049562114389956405,
                0.02950161358458375,
                0.02950161358458375,
                0.039566295802092435,
                0.029566295802091812,
                0.049562114389956405,
                0.0395621143899564,
                -0.020437885610044074,
                -0.0004378856100439767,
                -0.010437885610043983,
                -0.0404378856100436,
                0.0395621143899564,
                -0.0004378856100439767,
                -0.030437885610044072,
                0.0595621143899564,
                -0.030437885610044072,
                0.0395621143899564,
                0.04956629580209244,
                -0.050326338176003294,
                0.008749311574738915,
                -0.0055394757730601,
                0.05464804289919528,
                0.044615807661959446,
                0.024071508881664712,
                0.06448678018981262,
                -0.06129203027977882,
                0.054125654100389185,
                -0.0007864991935162907,
                0.029319877960864854,
                0.05387516227366059,
                -0.04599473705077234,
                -0.02629586325074472,
                0.02927385035899906,
                -0.06087267277852344,
                0.004333743157104348,
                -0.02014987246180715,
                -0.011039875987513473,
                -0.040720225192244365,
                0.029488947714730974,
                -0.030235586728725738,
                -0.060443125033952494,
                0.02981168744145955,
                0.03918702201286896,
                -0.02108308867588663,
                0.03898619599863672,
                -0.030192430940521032,
                0.03982221209917243,
                0.020870161275320005,
                0.03918864462590567,
                -0.0609232549077647,
                -0.05073213319008952,
                -0.020261582008718144,
                -0.018647516057946036,
                0.002104379660077182,
                -0.05050434201440184,
                -0.026594617634864457,
                0.019494554990694846,
                -0.008634039438724195,
                -0.014548737819370836,
                0.03358855368745506,
                0.019733470130801577,
                0.029315858824497526,
                0.05336830353502037,
                -0.010243201754465766,
                0.057639404634012154,
                -0.03209168050306037,
                -0.019619607939900995,
                0.03947868254982289,
                -0.030773337027092913,
                0.01127822310203977,
                -0.028617096390489344,
                0.032763369706630734,
                0.059180170373702094,
                0.004986287779651213,
                -0.0391022113478496,
                0.047111917141956616,
                -0.04488484875594436,
                -0.04139783270847366,
                0.06024239843625279,
                0.054069252248535184,
                -0.028693385018842835,
                0.01958915917527721,
                0.06287079787433979,
                -0.03428368808244037,
                0.045849527924288494,
                0.009946302773500584,
                -0.060072495475691504,
                0.038653017824305455,
                -0.04057320192448462,
                0.028563807729195416,
                -0.02121795905262653,
                0.04842681943823705,
                0.028787697456851183,
                -0.031008401796599812,
                0.058675861537110546,
                1.448113963279249e-05,
                0.009467720430362996,
                0.02121854176751737,
                0.0012041813676276361,
                0.02723074124536395,
                0.05341107481367105,
                0.040861295255463906,
                -0.027174428594514067,
                0.03672082749599315,
                0.047083454584855994,
                0.0037874688415725196,
                0.04883067961350292,
                0.060670036601828174,
                -0.030655902038697946,
                0.041319771573508135,
                -0.020893214878668416,
                -0.020299975942445498,
                -0.00488471249977512,
                -0.0576702189172494,
                0.007981289016789945,
                -0.041506569192304874,
                0.01888584052970713,
                0.009435151030140565,
                -0.04144735418774234,
                0.03837096102579029,
                -0.020392308846242706,
                -0.05042083233380933,
                0.009243973308426164,
                -0.040726929577682425,
                -0.010775298270228906,
                -0.06075190612451207,
                0.04951556580028348,
                0.019229049950105426,
                0.009298371447421952,
                0.029238078567422374,
                -0.020727716030038975,
                -0.039040438406166784,
                -0.041208441676748,
                -0.040811995692377465,
                -0.040696186225256115,
                -0.020863510478901157,
                -0.020210616332346817,
                -0.04033359799663645,
                -0.011056774016731236,
                -0.030966998244099642,
                -0.03054235727192629,
                -0.03987712391529744,
                0.01933856430553937,
                0.029249640074644298,
                -0.05052228688448499,
                0.02908742609984839,
                0.019180652962491253,
                -0.05045614638183211,
                -0.04087855874709969,
                -0.04065079747467602,
                0.05946317715009023,
                -0.020113878438952397,
                -0.0185705507803526,
                0.05108495920489135,
                0.049273869583632834,
                -0.04665968675045682,
                -0.02436485939443558,
                -0.051993458302533116,
                0.049449604432925495,
                -0.020690293894616813,
                0.013607176990410579,
                0.043485395935947496,
                -0.020455275864343102,
                -0.025967660465526007,
                0.044839714538684475,
                0.04489969401149267,
                -0.0008258292253925245,
                -0.010991053664960053,
                0.009662984768490304,
                -0.040430772466161294,
                0.04904541690430965,
                0.028574256881416574,
                0.00908359019115677,
                0.05836051920830361,
                -0.01118442688503378,
                -0.021615114805382793,
                0.04869987232259461,
                0.01450443226743883,
                0.038968571936100205,
                -0.04049538228862016,
                -0.04049538228862016,
                0.0595621143899564,
                -0.0504378856100436,
                -0.0004378856100439767,
                -0.0504378856100436,
                0.009562114389956017,
                -0.0504378856100436,
                -0.030437885610044072,
                -0.0504378856100436,
                -0.010437885610043983,
                -0.0504378856100436,
                -0.0504378856100436,
                0.029562114389955926,
                -0.030434881483248476,
                0.04962240534971034,
                -0.030483363298427914,
                0.029516636701572084,
                -0.0004378856100439767,
                -0.020437885610044074,
                -0.0004378856100439767,
                0.009562114389956017,
                -0.030437885610044072,
                -0.020437885610044074,
                -0.060437885610043596,
                -0.060437885610043596,
                -0.020437885610044074,
                -0.0004378856100439767,
                0.029562114389955926,
                -0.030437885610044072,
                0.0395166367015727,
                -0.010483363298427719,
                -0.05059683519313556,
                -0.0603031251057227,
                0.0291204282754681,
                -0.01059683519313591,
                0.00940316480686409,
                0.008749845190768669,
                0.01866162743030958,
                0.03941909481885069,
                0.009728412496855214,
                0.018442158093563882,
                -0.041326767211290784,
                0.009545072892228968,
                0.019439501419663524,
                -0.01044778762545869,
                -0.0205848056229329,
                -0.019958803063990647,
                0.01009733217187573,
                0.01962532909012825,
                -0.0400865557932151,
                -0.010034280059558144,
                0.009484305428388434,
                -0.030454320986113823,
                0.029562114389955926,
                0.009484305428388434,
                0.019484305428388308,
                0.04954567901388677,
                0.029562114389955926,
                0.019532171986424107,
                0.02946587796680989,
                0.05973233001197901,
                -0.030136949857281162,
                0.02944864249524785,
                -0.020437885610044074,
                0.0395621143899564,
                0.009562114389956017,
                0.0395621143899564,
                0.0395621143899564,
                -0.0004378856100439767,
                -0.030437885610044072,
                0.009562114389956017,
                -0.0404378856100436,
                0.049562114389956405,
                -0.0404378856100436,
                -0.020437885610044074,
                -0.030437885610044072,
                0.029562114389955926,
                -0.0004378856100439767,
                0.019562114389955927,
                -0.020437885610044074,
                -0.0004378856100439767,
                0.0395621143899564,
                0.009562114389956017,
                0.049562114389956405,
                -0.0404378856100436,
                -0.010437885610043983,
                0.049562114389956405,
                -0.0404378856100436,
                -0.030437885610044072,
                0.0395621143899564,
                0.019562114389955927,
                0.029562114389955926,
                0.0395621143899564,
                -0.030437885610044072,
                0.029562114389955926,
                0.0395621143899564,
                0.0395621143899564,
                -0.0404378856100436,
                -0.0504378856100436,
                -0.0404378856100436,
                0.029562114389955926,
                -0.0504378856100436,
                0.009562114389956017,
                0.009562114389956017,
                0.049562114389956405,
                -0.010437885610043983,
                0.019562114389955927,
                0.019562114389955927,
                -0.030437885610044072,
                0.049562114389956405,
                -0.0004378856100439767,
                0.0395621143899564,
                0.0395621143899564,
                -0.060437885610043596,
                0.029562114389955926,
                -0.030437885610044072,
                0.0595621143899564,
                -0.0504378856100436,
                -0.020437885610044074,
                -0.060437885610043596,
                0.0395621143899564,
                0.0395621143899564,
                0.049562114389956405,
                -0.010437885610043983,
                -0.0504378856100436,
                0.019562114389955927,
                0.049562114389956405,
                -0.0003922543689589207,
                0.02960774563104091,
                0.01951320193560436,
                -0.03048679806439564,
                0.019665136462685136,
                0.019925202358595018,
                -0.04997175544495783,
                -0.0003656940836041415,
                0.01968825742848809,
                0.029986963973706704,
                -0.02040143429774466,
                -0.03026447754834826,
                -0.0005438425183625774,
                0.059375980845042635,
                0.059545679013886764,
                0.01950552969878265,
                0.019468729496055697,
                0.05946872949605618,
                0.05922906797434765,
                -0.05061712870429483,
                -0.0602154011808169,
                0.02942222562800425,
                -0.06020300901132391,
                0.02957407031154019,
                0.029473747923308525,
                0.039602500561692025,
                0.029024212683714083,
                -0.010411887091878787,
                0.0294289705500996,
                -0.010649656384707157,
                -0.05053127050394382,
                -0.030547705880014053,
                0.019562114389955927,
                0.019562114389955927,
                0.0395621143899564,
                0.029562114389955926,
                0.019562114389955927,
                0.049562114389956405,
                0.029562114389955926,
                0.029562114389955926,
                -0.0004378856100439767,
                -0.010437885610043983,
                0.029562114389955926,
                -0.030437885610044072,
                0.0595621143899564,
                -0.0504378856100436,
                -0.0404378856100436,
                0.0395621143899564,
                -0.0404378856100436,
                -0.0504378856100436,
                -0.010437885610043983,
                -0.0504378856100436,
                -0.010437885610043983,
                -0.0504378856100436,
                -0.030437885610044072,
                -0.0404378856100436,
                0.009562114389956017,
                0.019562114389955927,
                -0.060437885610043596,
                0.029562114389955926,
                0.029562114389955926,
                0.019562114389955927,
                -0.0504378856100436,
                -0.010437885610043983,
                0.009562114389956017,
                0.0595621143899564,
                0.0395621143899564,
                -0.0504378856100436,
                0.0595621143899564,
                -0.0004378856100439767,
                0.0595621143899564,
                -0.030437885610044072,
                0.029562114389955926,
                -0.010437885610043983,
                0.009562114389956017,
                -0.0404378856100436,
                -0.030437885610044072,
                -0.020437885610044074,
                0.049562114389956405,
                0.009562114389956017,
                -0.06049103241009772,
                -0.050592706926923664,
                -0.0007075225349130592,
                0.04950896758990228,
                0.009468729496055883,
                0.029468729496055696,
                0.029287244529544357,
                0.009252239371240756,
                -0.06007764310345437,
                -0.040603894460140864,
                0.009976112086483056,
                -0.02015817072419864,
                0.05941185650949178,
                -0.01031042857887713,
                -0.02037064696603004,
                0.019453861724332118,
                0.039350088819864265,
                -0.020557057762022365,
                0.049821614570027546,
                0.05967593934700108,
                0.009447531166922324,
                -0.020491032410098017,
                0.03946872949605618,
                -0.050443972283460224,
                0.029636115574391945,
                0.029468729496055696,
                -0.060531270503943815,
                -0.0005545940738307833,
                -0.0007396267417413117,
                -0.010214587757089883,
                -0.040531972072240324,
                -0.050894853630074254,
                0.00877435318731468,
                -0.041322903657903635,
                0.018643348634912155,
                0.008794635862804379,
                -0.010948871758995908,
                -0.0117073876335865,
                -0.001674819599807285,
                0.058863836773643624,
                -0.010387862442525651,
                0.04975746128470156,
                -0.050168336124339505,
                0.028814847333140083,
                -0.06024032123788554,
                0.009660667688963597,
                0.029312129044888058,
                -0.040324963446236164,
                -0.04013059315619603,
                0.039404304952701016,
                0.05933213833044749,
                -0.030959379337688702,
                0.003592112008767427,
                -0.013280111242437182,
                -0.047573569933844664,
                0.03220481225163658,
                0.06290176604611553,
                0.04901286746196922,
                -0.010974527218423286,
                0.0030450712125055777,
                -0.03063608530325132,
                -0.050519519156802896,
                0.00914394358238049,
                -0.05030156159071741,
                0.02916362233080657,
                -0.05003253096297438,
                0.0631750763328241,
                0.05406502495153401,
                0.05284192606684814,
                0.009555861602000141,
                -0.05085220773057208,
                -0.037609929643434896,
                0.03245113008637334,
                0.05950907163577573,
                0.03889706441089871,
                -0.0074998827145673925,
                -0.060576040330278844,
                -0.02029897110270776,
                -0.04056689125145404,
                -0.04037418693178134,
                0.039349325609193755,
                -0.06079266556094592,
                0.05953021386961825,
                -0.0003946515497279213,
                0.019845442266101708,
                0.04938757030089646,
                -0.04078185641403907,
                0.009528777207476738,
                -0.02111558787860959,
                -0.031011880365615505,
                0.009625445872575415,
                -0.030989956894367437,
                0.05826305757374242,
                0.00879355167517847,
                0.05875504011315291,
                0.04866988692652914,
                0.05864363618328603,
                0.018500570580763414,
                0.0586964963831771,
                0.008833298498541293,
                -0.0015022493400152332,
                0.019503351960292244,
                0.05858609668857002,
                0.038564810987952926,
                0.00961231171590645,
                0.03870974836238131,
                0.028586096688569235,
                -0.05044392646304868,
                -0.060507574021540764,
                -0.02011472247497022,
                0.02988093636582069,
                0.039859299830384776,
                -0.0007535347462728069,
                -0.020724174476601492,
                -0.04064548720411329,
                -0.020569422423256028,
                0.002709949446538587,
                0.05233960728071321,
                0.022403122092373055,
                -0.06090822064404703,
                -0.010687850462534574,
                0.0597092317896492,
                -0.01144648584112899,
                -0.03146116015486187,
                -0.02144378220078552,
                0.019291678580644244,
                0.03940017733149263,
                0.01857089211294803,
                0.009562114389956017,
                -0.0404378856100436,
                -0.0504378856100436,
                -0.010437885610043983,
                0.0395621143899564,
                -0.0004378856100439767,
                -0.0004378856100439767,
                0.019562114389955927,
                0.0595621143899564,
                0.019562114389955927,
                -0.0504378856100436,
                0.009562114389956017,
                0.0395621143899564,
                -0.030437885610044072,
                0.019562114389955927,
                0.029562114389955926,
                -0.030437885610044072,
                -0.030437885610044072,
                -0.0504378856100436,
                0.029562114389955926,
                0.0395621143899564,
                0.0395621143899564,
                0.049562114389956405,
                -0.010437885610043983,
                0.049562114389956405,
                -0.0004378856100439767,
                -0.0404378856100436,
                -0.030437885610044072,
                0.029562114389955926,
                -0.060437885610043596,
                0.019562114389955927,
                -0.0004378856100439767,
                0.0395621143899564,
                0.0595621143899564,
                0.049562114389956405,
                -0.030437885610044072,
                -0.010437885610043983,
                -0.010437885610043983,
                0.009562114389956017,
                0.0395621143899564,
                -0.010437885610043983,
                0.0395621143899564,
                0.0595621143899564,
                -0.0404378856100436,
                -0.020437885610044074,
                0.0395621143899564,
                -0.0404378856100436,
                0.0595621143899564,
                0.049528785736252974,
                -0.0504378856100436,
                0.00950393193410214,
                0.029407228617062985,
                0.019557111096453878,
                0.019150292449905983,
                -0.020572852940051494,
                -0.040665897401091416,
                -0.030489501010994884,
                0.019364703556129643,
                -0.010437885610043983,
                -0.0404378856100436,
                -0.010437885610043983,
                -0.040445699903349085,
                -0.010437885610043983,
                -0.030437885610044072,
                0.0395621143899564,
                -0.0004378856100439767,
                -0.020437885610044074,
                -0.060437885610043596,
                -0.0404378856100436,
                -0.0004378856100439767,
                -0.010437885610043983,
                0.0595621143899564,
                -0.020437885610044074,
                -0.0404378856100436,
                -0.010437885610043983,
                -0.0404378856100436,
                0.049562114389956405,
                0.029562114389955926,
                -0.020437885610044074,
                -0.0004378856100439767,
                -0.030437885610044072,
                -0.030437885610044072,
                0.049562114389956405,
                0.0395621143899564,
                0.049562114389956405,
                -0.060437885610043596,
                0.0595621143899564,
                -0.0404378856100436,
                -0.0504378856100436,
                -0.0504378856100436,
                -0.0504378856100436,
                -0.030437885610044072,
                0.009562114389956017,
                -0.020437885610044074,
                0.0395621143899564,
                -0.0504378856100436
            ],
            [
                -0.030320148678801253,
                0.019679851321198743,
                -0.01032014867880136,
                -0.00032014867880131813,
                -0.06032014867880121,
                0.05967985132119879,
                0.00967985132119864,
                -0.06032014867880121,
                -0.01032014867880136,
                0.019679851321198743,
                -0.030320148678801253,
                -0.06032014867880121,
                0.00967985132119864,
                -0.05032014867880121,
                0.049679851321198794,
                -0.04032014867880122,
                0.049679851321198794,
                -0.01032014867880136,
                0.00967985132119864,
                0.00967985132119864,
                0.049679851321198794,
                0.00967985132119864,
                -0.01032014867880136,
                0.00967985132119864,
                -0.05032014867880121,
                0.019679851321198743,
                0.061410496870219815,
                0.061410496870219815,
                0.030744870918296256,
                0.049679851321198794,
                0.039679851321198785,
                -0.01986935237727882,
                0.02013064762272118,
                -0.029478450801258837,
                -0.038434720410496136,
                -0.039287730024108104,
                0.012170800764695792,
                0.0326969593358695,
                -0.02801600989270949,
                0.016663830845095966,
                0.005843993053343314,
                0.01906947886016196,
                -0.02638444329411983,
                -0.0472966783433644,
                0.037020945437358,
                -0.0384401888306831,
                0.010852145875126624,
                -0.01914785412487329,
                0.029679851321198745,
                -0.05032014867880121,
                -0.00032014867880131813,
                -0.030320148678801253,
                -0.030320148678801253,
                -0.00032014867880131813,
                -0.030320148678801253,
                -0.020320148678801258,
                0.00967985132119864,
                0.019679851321198743,
                0.029679851321198745,
                0.019679851321198743,
                0.029679851321198745,
                0.00967985132119864,
                -0.030320148678801253,
                -0.04032014867880122,
                0.05967985132119879,
                0.019679851321198743,
                -0.020320148678801258,
                -0.020320148678801258,
                -0.04032014867880122,
                0.05967985132119879,
                -0.01032014867880136,
                -0.020320148678801258,
                -0.01032014867880136,
                -0.030320148678801253,
                0.029679851321198745,
                -0.020320148678801258,
                0.039679851321198785,
                -0.030320148678801253,
                0.019679851321198743,
                -0.01032014867880136,
                0.00967985132119864,
                0.00967985132119864,
                -0.04032014867880122,
                0.00967985132119864,
                0.019679851321198743,
                -0.01032014867880136,
                -0.01032014867880136,
                -0.020320148678801258,
                0.029679851321198745,
                0.05967985132119879,
                0.039679851321198785,
                0.019679851321198743,
                -0.05032014867880121,
                -0.00032014867880131813,
                0.029679851321198745,
                0.029679851321198745,
                0.011764327022029675,
                0.0384564189666213,
                0.036529182592618746,
                2.1863507292266656e-05,
                -0.03849069021697697,
                0.03087838261995393,
                0.02485543308240653,
                -0.018534574830324297,
                0.041401984632515175,
                0.03080816817728461,
                -0.038850995498369,
                -0.007307058166847693,
                0.018215148737023186,
                0.029331207098918403,
                -0.002569774377195062,
                -0.00041109157265916,
                0.01463334874297798,
                -0.009164185038115679,
                -0.045318460703132946,
                0.061104441534079075,
                0.05953190249369684,
                -0.029805495813115115,
                -0.011670283686300848,
                -0.008742420089286385,
                -0.05832171067212393,
                -0.01976307857647059,
                -0.02897050369268901,
                0.047523902126003686,
                -0.0024984812461871057,
                0.06795052357562527,
                0.0448738057241036,
                0.016167739814142417,
                -0.07058191972760364,
                -0.023387821608944287,
                0.05748657277252879,
                -0.03644137388926361,
                -0.04954917336375081,
                -0.0441970297755251,
                -0.07831779980019758,
                0.03100614475816043,
                0.03699843507893821,
                -0.00019782753295859176,
                -0.024235626868896916,
                0.09120172540785476,
                -0.02243054879316466,
                -0.02971978203664036,
                -0.07644967625412465,
                0.017357418700973036,
                -0.010224083096740501,
                -0.02342808581446165,
                0.010912768672302989,
                0.0458345627157635,
                0.0034193759449487877,
                0.0019892861005120716,
                -0.05783898176807915,
                -0.0015273320585381502,
                0.05861358419606074,
                -0.03253557185730056,
                0.011199688173780527,
                0.06228244155017135,
                -0.05308833354199058,
                0.029024807290993184,
                0.048988144669123136,
                -0.05666951370075428,
                -0.006645952069555358,
                -0.01803413598077445,
                -0.04309982065011951,
                -0.059789162110499484,
                0.06799060085120354,
                0.010701790215851796,
                0.024982148043854246,
                0.07356832302903228,
                0.024049822402230935,
                -0.05580065000311403,
                0.023828534047263407,
                0.04313551199596423,
                0.026126399085942626,
                -0.12780455235699742,
                -0.044358335370841044,
                0.03864815895491151,
                0.07010202011140439,
                0.028924872719720808,
                -0.07536498033360281,
                -0.016798158787028068,
                -0.0029593173996468373,
                0.05552265395549685,
                0.009434124436901755,
                0.02778766789032855,
                -0.0445986688516193,
                0.026979638758755316,
                0.011502786159666852,
                -0.04052750848552217,
                -0.041045491132833754,
                -0.08192776006483936,
                0.05279792596423639,
                -0.017094952358734122,
                -0.04008780970538311,
                0.0021725269677362853,
                0.07783614470611742,
                0.007660337857323723,
                -0.012553827939477593,
                -0.030715386251121225,
                -0.04092026638896877,
                0.022781254191943098,
                0.06949533968676494,
                0.04461912289189952,
                -0.035380877108100485,
                -0.016341737887584598,
                -0.05575202235709769,
                0.03893549572584459,
                0.04437518886230911,
                0.011715305729819664,
                0.04373525979322195,
                0.022990857794892124,
                0.05172604565314271,
                0.026260887079045458,
                -0.05772986145560271,
                0.021736633188950725,
                -0.0027598767292431534,
                0.04071965765732319,
                0.012994804926963107,
                0.061768423453440184,
                0.014882084935227495,
                0.06202561713412452,
                -0.022509735962235586,
                0.035603350644878094,
                0.040593942455623706,
                -0.00640702109741275,
                0.0014104968702198255,
                0.019679851321198743,
                -0.020320148678801258,
                -0.008589503129780204,
                -0.048589503129780186,
                0.011410496870219796,
                -0.01032014867880136,
                -0.020320148678801258,
                0.049679851321198794,
                -0.00032014867880131813,
                0.039679851321198785,
                -0.05032014867880121,
                0.05967985132119879,
                0.00967985132119864,
                0.05967985132119879,
                0.049679851321198794,
                0.049679851321198794,
                -0.04032014867880122,
                -0.04032014867880122,
                -0.06032014867880121,
                0.039679851321198785,
                0.061410496870219815,
                -0.05249281896774637,
                -0.06032014867880121,
                -0.020320148678801258,
                -0.02251946714784057,
                -0.06249281896774637,
                -0.020320148678801258,
                -0.05032014867880121,
                -0.00032014867880131813,
                -0.01032014867880136,
                -0.06032014867880121,
                -0.04032014867880122,
                0.05967985132119879,
                -0.01032014867880136,
                -0.05032014867880121,
                -0.05032014867880121,
                -0.00032014867880131813,
                -0.00032014867880131813,
                0.029679851321198745,
                0.05967985132119879,
                0.00967985132119864,
                -0.008789918375697169,
                0.05248993087180182,
                0.05207525530009668,
                -0.020320148678801258,
                -0.04032014867880122,
                0.037453017150018406,
                0.0166588188740195,
                0.0057565810383329455,
                -0.01227758751932531,
                0.044053583028376656,
                0.05881136724914809,
                0.0440093086260196,
                -0.04519706861501283,
                -0.0077100579194701565,
                0.05940628128084266,
                -0.04452752674020768,
                0.02806146946080273,
                0.08252726102087678,
                0.04479396737825385,
                0.0406437568123405,
                -0.007813986070424623,
                0.03661932866747799,
                -0.06384038662751931,
                0.054633432832954756,
                0.027691502541026043,
                -0.019129000250398397,
                0.009562616407472243,
                0.03497149749050133,
                -0.02809722429088042,
                0.049332807283253184,
                -0.02941299894346459,
                0.019387774286288784,
                0.04358010810620616,
                0.025734111982821672,
                -0.05861698564609599,
                0.006246160459977373,
                0.02348269842325176,
                -0.04809768227312752,
                0.041183433444208974,
                -0.020320148678801258,
                -0.020320148678801258,
                0.041210081624303174,
                0.041210081624303174,
                0.06121008162430318,
                -0.00032014867880131813,
                0.00967985132119864,
                0.039679851321198785,
                -0.05032014867880121,
                -0.06032014867880121,
                0.049679851321198794,
                -0.06032014867880121,
                0.019679851321198743,
                -0.06032014867880121,
                0.00967985132119864,
                -0.01032014867880136,
                -0.020320148678801258,
                -0.00032014867880131813,
                -0.05032014867880121,
                -0.030320148678801253,
                0.041183433444208974,
                0.06118343344420898,
                0.039679851321198785,
                -0.020320148678801258,
                0.041183433444208974,
                -0.0188165665557912,
                -0.030320148678801253,
                -0.04032014867880122,
                0.029679851321198745,
                -0.06032014867880121,
                -0.030320148678801253,
                -0.01032014867880136,
                -0.06032014867880121,
                -0.00032014867880131813,
                0.019679851321198743,
                -0.01032014867880136,
                0.05967985132119879,
                0.019679851321198743,
                0.029679851321198745,
                0.049679851321198794,
                -0.01032014867880136,
                0.029679851321198745,
                0.039679851321198785,
                0.029679851321198745,
                -0.030320148678801253,
                -0.04032014867880122,
                -0.030320148678801253,
                0.029679851321198745,
                0.000707779000639326,
                0.049679851321198794,
                0.039679851321198785,
                -0.06032014867880121,
                0.049679851321198794,
                -0.04032014867880122,
                -0.030320148678801253,
                -0.04032014867880122,
                0.049679851321198794,
                -0.00032014867880131813,
                -0.00032014867880131813,
                -0.020320148678801258,
                0.029679851321198745,
                -0.04929222099936037,
                -0.059292220999360365,
                -0.02858601695722608,
                -0.010319499293688954,
                -0.008356754716536787,
                0.05118343344420898,
                -0.0077886388763505985,
                0.041183433444208974,
                -0.03940763901651264,
                0.03174063158108488,
                -0.06067955424696667,
                -0.05867211217759338,
                -0.01815134653570334,
                0.04433376319305498,
                0.05962855270429158,
                0.009192576049736027,
                -0.03111025327525027,
                -0.03384033435776899,
                0.04098030401301424,
                0.03402305962161225,
                -0.006969892604128784,
                0.027767937378690998,
                0.03160644126437412,
                0.07188141835050992,
                -0.05284880016726981,
                -0.03593765046617845,
                0.05881854105695124,
                -0.04353867369260557,
                -0.011871768705797989,
                0.02264822146063222,
                0.04714429381696667,
                0.013486226032131992,
                -0.0355898907364813,
                -0.04755740031024251,
                0.06070777900063963,
                -0.059292220999360365,
                -0.00032014867880131813,
                -0.020320148678801258,
                0.019679851321198743,
                0.019679851321198743,
                0.029679851321198745,
                -0.030320148678801253,
                -0.00032014867880131813,
                0.019679851321198743,
                0.049679851321198794,
                -0.04032014867880122,
                0.049679851321198794,
                -0.06032014867880121,
                -0.009292220999360739,
                -0.0192922209993606,
                -0.032917193432681464,
                0.007082806567318441,
                -0.04032014867880122,
                -0.01032014867880136,
                0.00967985132119864,
                0.00967985132119864,
                0.039679851321198785,
                -0.01032014867880136,
                -0.020320148678801258,
                0.039679851321198785,
                0.05967985132119879,
                0.019679851321198743,
                -0.030320148678801253,
                -0.01032014867880136,
                0.017082806567318566,
                -0.04296616543040468,
                -0.015329396001370982,
                -0.014114095723722096,
                0.03722985962333818,
                -0.048413941349032444,
                0.046269415851202145,
                -0.04422265122628612,
                0.037931005879213,
                0.06609748889568469,
                -0.017098396804688994,
                -0.03785535543039256,
                0.050393360189096,
                -0.012046726762935642,
                -0.013786171385934883,
                -0.043278286329531596,
                0.02735368893248112,
                0.07300395861954301,
                -0.028496364678951835,
                0.012836735780163642,
                0.012428982922687955,
                -0.000462749058517251,
                -0.0595055979880597,
                -0.0361539441965556,
                0.02238631662518872,
                0.009759871801094732,
                -0.026847329862399773,
                -0.04862255820335109,
                0.013595738905785502,
                -0.06859384361637488,
                -0.02912840877549844,
                -0.05534196753789232,
                -0.016772959397692442,
                -0.04969907944268438,
                -0.030046263227203992,
                -0.0317998863362514,
                -0.08011810861544329,
                -0.051444988278184,
                -0.06491566878573746,
                0.018390841749497906,
                -0.07577796298899324,
                0.020106097310010305,
                -0.014745747610114686,
                -0.020531637324917314,
                -0.05809120929587234,
                -0.014651806893747,
                -0.06390528038057454,
                0.004933384362961881,
                0.024868373342733306,
                0.03459523107986595,
                0.0440034082772083,
                -0.0015534678243111094,
                0.02128498216177904,
                0.015828581940015275,
                -0.01628862361054376,
                -0.01995619678733747,
                -0.035713858139203414,
                -0.007163116571512015,
                -0.07219099529823021,
                0.004155094184157034,
                0.049289802379232625,
                -0.05648618837081822,
                -0.019821521560856606,
                -0.025253109967984532,
                0.0036262079795067706,
                0.07225602268522358,
                0.0644705912564295,
                -0.06635928627578021,
                -0.04776704259020542,
                0.047083540009066345,
                0.04789861185120208,
                -0.012130466092615607,
                -0.02374243246209397,
                -0.06251517011273992,
                0.07256113217715296,
                0.06350609351709853,
                0.06492533906595357,
                0.03750050454350442,
                0.0047744593980900965,
                0.028851516834260266,
                -0.030852969602531418,
                0.04791456903669129,
                -0.02316740924409374,
                0.026124789994243093,
                -0.04037241740710262,
                0.037080832084665165,
                -0.01691169299853134,
                0.019455889977109314,
                0.005156532248079606,
                -0.0402785878033074,
                0.05884924017553993,
                0.004776556226643912,
                -0.051997594890726195,
                -0.058901501261218674,
                -0.04320287732216774,
                0.059714074922028,
                0.02639841382892573,
                -0.07212426514842252,
                -0.012775689315569532,
                0.04801961280925181,
                0.024278161725151945,
                0.04624451989042891,
                0.06263888444612148,
                -0.04770971717691357,
                0.019178800819977096,
                -0.03533369033141241,
                0.021278190285372017,
                -0.0531930896830469,
                -0.014442603282442047,
                -0.04777629690428527,
                0.013670825103311569,
                -0.06141154550943336,
                -0.022212086541776935,
                -0.0814648772489603,
                -0.040542583273935326,
                0.02536733554132977,
                -0.02466166359899683,
                0.027168140247665798,
                0.0012341617732830072,
                0.05532986306039938,
                0.024836025254316694,
                0.004116651274706233,
                0.016758042720948482,
                0.009263915861665818,
                0.015757241256275263,
                -0.06432441705714824,
                -0.014031640402229003,
                0.01149213666878997,
                0.028906425251673168,
                -0.06613967857037857,
                0.04429067795474746,
                -0.054520473921475646,
                0.040122465312199866,
                0.04501350037268002,
                -0.048313366299812095,
                -0.04233830498392152,
                0.030136572043272608,
                0.014389378035846098,
                0.005246688056847415,
                -0.012365640002211785,
                -0.049406922563455344,
                0.03233390085289907,
                -0.005893246147424092,
                -0.030966663267022156,
                -0.03387084311412809,
                -0.03572446589782692,
                0.007501989917924621,
                -0.07704678778401725,
                -0.029802888386944157,
                -0.01473364992590719,
                0.020190272458246956,
                0.0340871727324019,
                -0.011431823157351733,
                -0.03999070788635009,
                -0.016289327687091543,
                -0.010461591524290405,
                -0.05729576746810468,
                -0.049169342365012726,
                0.010188194743486659,
                -0.017792270527692968,
                0.016072891569131158,
                -0.052393080050161835,
                -0.028425738941534984,
                0.011574261058465003,
                -0.020320148678801258,
                -0.04032014867880122,
                -0.00032014867880131813,
                0.019679851321198743,
                0.049679851321198794,
                0.029679851321198745,
                -0.00032014867880131813,
                0.029679851321198745,
                -0.01032014867880136,
                0.049679851321198794,
                0.05967985132119879,
                0.049679851321198794,
                0.0505463333790246,
                0.0005102535430431746,
                -0.02943329501559729,
                -0.05943329501559717,
                0.029679851321198745,
                0.039679851321198785,
                -0.00032014867880131813,
                -0.04032014867880122,
                -0.05032014867880121,
                -0.01032014867880136,
                0.039679851321198785,
                0.029679851321198745,
                -0.00032014867880131813,
                -0.020320148678801258,
                -0.030320148678801253,
                0.049679851321198794,
                0.05056670498440283,
                0.0005667049844026733,
                0.02159617771736977,
                0.048622419399853,
                -0.0008944238724575704,
                0.0015961777173697997,
                0.031596177717369785,
                -0.048992182648220715,
                -0.02368102309229935,
                0.03174496477462021,
                -0.011887939402645532,
                -0.07465906946593391,
                -0.004114815708728155,
                -0.03632865065793876,
                -0.06630788082741422,
                -0.010426052593271333,
                -0.003748448453887485,
                -0.06081712285694427,
                -0.026637272724714244,
                -0.040917153849663886,
                -0.009253580489950118,
                0.004351515070670329,
                -0.03850184381414638,
                -0.04997185436957957,
                0.05967985132119879,
                -0.02850184381414623,
                0.04149815618585362,
                -0.04997185436957957,
                -0.01032014867880136,
                0.020321856887513867,
                -0.02964613875407574,
                0.05640015593383797,
                -0.034812575316091526,
                0.060709324054165945,
                -0.030320148678801253,
                0.049679851321198794,
                -0.00032014867880131813,
                -0.020320148678801258,
                0.019679851321198743,
                -0.01032014867880136,
                -0.06032014867880121,
                -0.05032014867880121,
                0.049679851321198794,
                -0.04032014867880122,
                0.00967985132119864,
                -0.030320148678801253,
                0.00967985132119864,
                0.039679851321198785,
                -0.05032014867880121,
                0.05967985132119879,
                0.039679851321198785,
                0.00967985132119864,
                -0.020320148678801258,
                -0.020320148678801258,
                0.029679851321198745,
                0.00967985132119864,
                -0.01032014867880136,
                0.05967985132119879,
                0.049679851321198794,
                0.039679851321198785,
                -0.00032014867880131813,
                -0.01032014867880136,
                -0.04032014867880122,
                -0.05032014867880121,
                -0.00032014867880131813,
                0.029679851321198745,
                0.05967985132119879,
                -0.06032014867880121,
                -0.01032014867880136,
                0.029679851321198745,
                -0.00032014867880131813,
                -0.00032014867880131813,
                0.00967985132119864,
                -0.06032014867880121,
                -0.05032014867880121,
                -0.01032014867880136,
                0.049679851321198794,
                -0.04032014867880122,
                0.05967985132119879,
                -0.00032014867880131813,
                -0.00032014867880131813,
                -0.020320148678801258,
                0.039679851321198785,
                0.029679851321198745,
                -0.06032014867880121,
                -0.00032014867880131813,
                0.00967985132119864,
                -0.04032014867880122,
                -0.00032014867880131813,
                -0.030320148678801253,
                -0.00032014867880131813,
                -0.00032014867880131813,
                -0.01032014867880136,
                -0.05032014867880121,
                -0.04032014867880122,
                0.00967985132119864,
                0.00967985132119864,
                0.05967985132119879,
                0.048565845905208835,
                -0.021434154094791127,
                0.031153118589663353,
                0.04115311858966331,
                0.013572650231047223,
                -0.05472359251609482,
                -0.04120094548976426,
                0.010093584444129942,
                0.018860237977364528,
                0.012686519625788064,
                -0.032530375747554525,
                -0.059990428717046976,
                -0.02145511961396049,
                -0.014483826932960391,
                -0.04997185436957957,
                0.0300389328147043,
                0.0097128127417353,
                0.05971281274173556,
                -0.04983500153323695,
                -0.009453417881269249,
                -0.03963607701534174,
                -0.0632584152810949,
                -0.04827731156995971,
                0.02557374263930233,
                -0.04347267613197229,
                0.030483506991641027,
                -0.011706585660336092,
                -0.004012618845865026,
                -0.02889654639340905,
                0.06453387112424586,
                -0.06028718725826444,
                -0.019938892949042886,
                -0.06032014867880121,
                -0.06032014867880121,
                -0.05032014867880121,
                -0.020320148678801258,
                -0.00032014867880131813,
                -0.030320148678801253,
                -0.01032014867880136,
                -0.020320148678801258,
                0.049679851321198794,
                -0.00032014867880131813,
                0.049679851321198794,
                0.00967985132119864,
                -0.05032014867880121,
                -0.05032014867880121,
                0.05967985132119879,
                0.029679851321198745,
                -0.05032014867880121,
                0.019679851321198743,
                -0.00032014867880131813,
                0.00967985132119864,
                0.039679851321198785,
                0.049679851321198794,
                -0.05032014867880121,
                0.049679851321198794,
                -0.05032014867880121,
                -0.05032014867880121,
                0.039679851321198785,
                -0.030320148678801253,
                -0.04032014867880122,
                -0.00032014867880131813,
                0.039679851321198785,
                -0.06032014867880121,
                0.019679851321198743,
                0.039679851321198785,
                -0.030320148678801253,
                0.05967985132119879,
                -0.05032014867880121,
                -0.04032014867880122,
                -0.05032014867880121,
                0.049679851321198794,
                -0.020320148678801258,
                -0.030320148678801253,
                -0.030320148678801253,
                0.029679851321198745,
                0.019679851321198743,
                -0.06032014867880121,
                0.029679851321198745,
                -0.04032014867880122,
                -0.0403089356232525,
                0.06504439824778638,
                0.03153102753973221,
                -0.06030893562325249,
                -0.030287187258264694,
                -0.0202871872582647,
                -0.04133719166316077,
                0.05155277590472019,
                -0.044716158202794565,
                0.03207147991373088,
                0.006841395470800327,
                0.006467540952360853,
                -0.004169912852859892,
                0.05532510274774154,
                0.013028129484071838,
                0.05622174189753873,
                0.03162833948575426,
                0.06573257376400479,
                -0.08071603812399218,
                -0.0513359192229804,
                0.04502264988279872,
                0.0396910643767475,
                0.05971281274173556,
                -0.0017340457312647903,
                -0.008694377231560888,
                -0.05028718725826444,
                -0.010287187258264701,
                0.02075515929736915,
                0.05010967934244609,
                0.016699310381406443,
                -0.05129687375824307,
                0.10231485974786227,
                0.054888960035687356,
                0.051284109446152616,
                -0.03346739761146888,
                -0.01566846914942283,
                -0.011005360656654877,
                0.07410242083159828,
                0.0017916025301856374,
                0.015969159051449567,
                0.04788049420564178,
                -0.036617787163752843,
                -0.04942515104352053,
                0.0023566933905121074,
                0.029207433834200866,
                0.016037836765421684,
                0.047235459591227213,
                0.015021936233580339,
                -0.04791321499181753,
                -0.04768346277937814,
                -0.030957032739546357,
                0.06613536894139212,
                -0.038928908846778694,
                0.07898493033964508,
                -0.04975232277835675,
                0.028523195375779423,
                -0.06994396750762678,
                0.05011761012707962,
                -0.020387884533238407,
                -0.017098275386606666,
                -0.012869897935023241,
                -0.006543867610982535,
                -0.03869592788026389,
                -0.02417240496229975,
                0.014323221220214066,
                -0.07558054357866383,
                0.06757610313691179,
                -0.011275887433720828,
                -0.01971573354998954,
                -0.03760054896104156,
                -0.014042547400614612,
                -0.041320743318632135,
                -0.04641969039873178,
                -0.04756030104997011,
                -0.05731053547262211,
                -0.009227414025026892,
                0.024319991652666715,
                0.032053419857261095,
                -0.01308379542776634,
                -0.03089107556179369,
                -0.033516042054531237,
                0.05014650280895907,
                0.04145272528158008,
                0.029751618834313567,
                -0.0021782846009514136,
                -0.014517574719541933,
                -0.0061630478379152255,
                -0.011084866730349351,
                -0.03050956428037396,
                0.0021438866388288095,
                -0.022634337136279152,
                0.026933805031594895,
                -0.015263155767521642,
                -0.007924323815035314,
                0.02935458098156581,
                0.04933513038390247,
                0.051844556742400766,
                0.06802562401357733,
                -0.013585966316876833,
                -0.02744714116929793,
                0.056208504517368627,
                0.061304510635790906,
                -0.006885537970470788,
                -0.007874617960205043,
                0.05317957687473272,
                -0.05345021168217914,
                0.0331144620295293,
                -0.03525230828905806,
                -0.03467573518341008,
                0.04698237525016159,
                -0.01965049173711773,
                0.011864198416080645,
                0.017182911683620926,
                0.04555996162058809,
                -0.018404747167064705,
                0.0451883743156854,
                0.0300840212117471,
                -0.03439969604237276,
                -0.011003157145250375,
                0.04713009377068053,
                0.04374334835711325,
                -0.0008797655190520451,
                0.053781123802487646,
                -0.026041525765328002,
                0.053622409138099354,
                -0.014940401388988798,
                -0.03907662583852867,
                0.0034450587059148283,
                0.019679851321198743,
                0.039679851321198785,
                -0.05032014867880121,
                0.05967985132119879,
                -0.05032014867880121,
                0.019679851321198743,
                0.039679851321198785,
                -0.00032014867880131813,
                -0.030320148678801253,
                -0.01032014867880136,
                0.049679851321198794,
                0.029679851321198745,
                0.029679851321198745,
                -0.00032014867880131813,
                0.00967985132119864,
                -0.020320148678801258,
                0.029679851321198745,
                -0.020320148678801258,
                0.029679851321198745,
                0.049679851321198794,
                -0.01032014867880136,
                0.029679851321198745,
                -0.01032014867880136,
                0.00967985132119864,
                0.05967985132119879,
                0.029679851321198745,
                -0.030320148678801253,
                0.029679851321198745,
                -0.04032014867880122,
                0.019679851321198743,
                -0.04032014867880122,
                -0.030320148678801253,
                -0.030320148678801253,
                0.039679851321198785,
                -0.00032014867880131813,
                -0.04032014867880122,
                -0.030320148678801253,
                -0.05032014867880121,
                0.05967985132119879,
                -0.020320148678801258,
                -0.05032014867880121,
                -0.06032014867880121,
                0.049679851321198794,
                0.00967985132119864,
                0.049679851321198794,
                0.029679851321198745,
                0.019679851321198743,
                -0.05032014867880121,
                0.010665316931453638,
                -0.030320148678801253,
                -0.048778193896261056,
                -0.02517598871809871,
                0.03911476339104305,
                -0.004076425838201457,
                -0.03540884419644383,
                -0.016534935067231072,
                0.02105208829927167,
                0.03553594842100807,
                -0.05032014867880121,
                0.05967985132119879,
                0.029679851321198745,
                -0.020174539772109184,
                -0.030320148678801253,
                -0.05032014867880121,
                -0.05032014867880121,
                -0.00032014867880131813,
                0.019679851321198743,
                0.039679851321198785,
                0.049679851321198794,
                0.05967985132119879,
                -0.00032014867880131813,
                0.019679851321198743,
                0.049679851321198794,
                -0.06032014867880121,
                -0.04032014867880122,
                -0.05032014867880121,
                0.039679851321198785,
                0.019679851321198743,
                -0.06032014867880121,
                -0.04032014867880122,
                0.05967985132119879,
                0.05967985132119879,
                0.05967985132119879,
                -0.00032014867880131813,
                0.049679851321198794,
                -0.04032014867880122,
                0.019679851321198743,
                -0.01032014867880136,
                0.00967985132119864,
                -0.05032014867880121,
                -0.030320148678801253,
                0.039679851321198785,
                -0.04032014867880122,
                -0.020320148678801258,
                0.00967985132119864,
                0.049679851321198794
            ],
            [
                0.011713371233793714,
                0.0017133712337937753,
                -0.058286628766205606,
                0.03171337123379436,
                -0.038286628766205616,
                0.03171337123379436,
                -0.01828662876620627,
                -0.01828662876620627,
                -0.028286628766206266,
                -0.04828662876620561,
                -0.028286628766206266,
                -0.028286628766206266,
                0.061713371233794445,
                0.041713371233794386,
                0.011713371233793714,
                -0.01828662876620627,
                0.011713371233793714,
                0.02171337123379373,
                -0.01828662876620627,
                0.0017133712337937753,
                0.061713371233794445,
                -0.00828662876620622,
                -0.00828662876620622,
                0.02171337123379373,
                -0.04828662876620561,
                -0.00828662876620622,
                0.024208747711495972,
                0.014208747711495964,
                0.01628013268724199,
                0.0017133712337937753,
                0.011713371233793714,
                0.05793634073656241,
                -0.05206365926343759,
                -0.0037633912622738012,
                -0.03595730914317831,
                -0.022271233352991845,
                0.04153155692608088,
                -0.060572833164549464,
                -0.01233822643687033,
                0.0900667856250297,
                -0.008050087585519934,
                0.020188559358722945,
                0.07318787474018465,
                0.000384596712865177,
                0.03193923018224827,
                0.014202078343074544,
                0.034982523563469765,
                -0.005017476436530899,
                0.041713371233794386,
                0.011713371233793714,
                -0.028286628766206266,
                -0.058286628766205606,
                0.041713371233794386,
                -0.028286628766206266,
                0.03171337123379436,
                -0.01828662876620627,
                -0.038286628766205616,
                -0.01828662876620627,
                -0.04828662876620561,
                0.051713371233794395,
                0.011713371233793714,
                0.041713371233794386,
                -0.028286628766206266,
                -0.028286628766206266,
                0.061713371233794445,
                0.02171337123379373,
                0.02171337123379373,
                -0.058286628766205606,
                -0.04828662876620561,
                0.011713371233793714,
                0.03171337123379436,
                0.03171337123379436,
                -0.058286628766205606,
                -0.01828662876620627,
                -0.04828662876620561,
                -0.058286628766205606,
                0.02171337123379373,
                -0.01828662876620627,
                0.0017133712337937753,
                -0.01828662876620627,
                -0.01828662876620627,
                0.051713371233794395,
                0.0017133712337937753,
                0.041713371233794386,
                -0.01828662876620627,
                0.011713371233793714,
                -0.01828662876620627,
                0.051713371233794395,
                0.02171337123379373,
                -0.058286628766205606,
                -0.058286628766205606,
                0.051713371233794395,
                -0.00828662876620622,
                0.011713371233793714,
                0.03171337123379436,
                -0.028286628766206266,
                -0.06021310558554439,
                0.0004639453694352193,
                0.0776273248661435,
                -0.05031190784294902,
                0.04628665676389238,
                -0.06726163762603855,
                -0.022685511409679726,
                0.018991932038025246,
                0.014060213041741588,
                -0.04321509657609478,
                -0.07887374517744193,
                -0.02563779328495756,
                0.023157826854580045,
                0.022183985719901787,
                -0.035152191536388606,
                0.016592541450591084,
                0.003614766755555771,
                0.0004560332635884589,
                0.014981375188795804,
                -0.07571129573619464,
                -0.07206063018516815,
                -0.055135198908608914,
                -0.008759914085737685,
                0.002277563348921674,
                0.000837754591403922,
                0.056552192336033244,
                0.043812389047100636,
                0.030346124221740507,
                -0.028526993913776895,
                0.04087477216885455,
                -0.03423719994451813,
                -0.0022557759406887216,
                -0.009570788661201432,
                -0.02497609813984833,
                -0.001324157046487252,
                -0.013670251462647671,
                0.0571366827290673,
                0.06908570625695398,
                -0.05123913268753127,
                -0.057334395598099816,
                0.0410501672355533,
                -0.019036378035083283,
                0.02517195089490257,
                -0.0027484146104390155,
                0.011598230419360202,
                0.029757155834224423,
                0.03928650797815323,
                0.060056739206071304,
                0.01375790565384897,
                -0.008710705085855678,
                0.01249300215458915,
                0.03661723793253805,
                0.07698971730592045,
                0.026217924109148638,
                0.09310430807782855,
                -0.045448730304783254,
                0.0357956150410465,
                0.020096167105086677,
                -0.049499149344596406,
                -0.05932278783062037,
                -0.010047473684065694,
                -0.0467831114777078,
                -0.0698681118625283,
                0.10275583749423782,
                -0.04295268206109867,
                0.031009460670162182,
                -0.06044584740275651,
                -0.03061926729240425,
                -0.03985384437459783,
                0.04274849272321663,
                0.07783131463042259,
                0.019125732387651393,
                0.007762830035298555,
                0.05540058964394738,
                -0.047535688027485146,
                -0.04294111497120514,
                0.033224047576700916,
                -0.04840137907757659,
                -0.05280004506789276,
                0.002032077882025794,
                0.07469442168614047,
                0.02258095775998097,
                0.01794653211690839,
                0.07869296345484883,
                -0.011483860707574477,
                0.016912448182560238,
                -0.0017676358991350648,
                0.09170231444501116,
                -0.04892198750172751,
                0.09952536538066956,
                0.01679631835266444,
                0.009750056257102523,
                -0.07515747494499306,
                -0.0061137268968406615,
                0.05794737266044588,
                0.01537896014181622,
                0.09357649694447832,
                0.013724653440135666,
                0.012256858178749693,
                -0.04463012499790622,
                -0.08982976025678968,
                -0.044075203948211406,
                -0.08813899226638855,
                -0.048715602328953195,
                0.03751861777756713,
                0.0013083801809661243,
                -0.00869161981903395,
                0.014486271740503768,
                -0.03782344513629069,
                0.08105280414506269,
                -0.05409591562632766,
                0.030092879670848567,
                -0.022224428827957776,
                0.0165814956869973,
                -0.006631313286123049,
                -0.05610888963542006,
                -0.03768952990254432,
                -0.029562663124490324,
                -0.06328884366588089,
                0.03923110283034621,
                0.05418907799494168,
                -0.013639119486663234,
                -0.04620786087883129,
                -0.07025308061136433,
                0.03773726543836439,
                -0.033590145044786475,
                0.031133971207790143,
                -0.03545527524267259,
                0.0442087477114966,
                -0.01828662876620627,
                -0.01828662876620627,
                -0.005791252288504082,
                -0.0457912522885034,
                -0.005791252288504082,
                0.051713371233794395,
                -0.00828662876620622,
                0.041713371233794386,
                0.03171337123379436,
                -0.028286628766206266,
                -0.01828662876620627,
                0.041713371233794386,
                0.011713371233793714,
                0.03171337123379436,
                0.061713371233794445,
                -0.028286628766206266,
                0.061713371233794445,
                -0.058286628766205606,
                0.03171337123379436,
                0.051713371233794395,
                -0.05579125228850341,
                -0.048425506380164615,
                0.011713371233793714,
                0.051713371233794395,
                0.022275221627841846,
                -0.048425506380164615,
                0.011713371233793714,
                -0.00828662876620622,
                -0.01828662876620627,
                -0.04828662876620561,
                0.02171337123379373,
                0.051713371233794395,
                0.0017133712337937753,
                0.02171337123379373,
                -0.01828662876620627,
                -0.038286628766205616,
                0.051713371233794395,
                -0.00828662876620622,
                0.0017133712337937753,
                0.061713371233794445,
                0.041713371233794386,
                -0.011853467247118296,
                -0.025581060272183886,
                0.06286312526355028,
                0.061713371233794445,
                -0.058286628766205606,
                0.04370171216364986,
                0.011141749637794527,
                -0.049405125303970045,
                0.03265824216643055,
                0.056121572467210154,
                0.0421986391297585,
                -0.04205113416939281,
                0.02277625098301568,
                0.02246076377086237,
                0.003110171799698821,
                0.0507929564631179,
                -0.08282779900651176,
                -0.03009778597868162,
                -0.014351990472006953,
                -0.010925452191135906,
                -0.02487657310822703,
                -0.00892044716118386,
                -0.029571993790741744,
                0.04290118875502072,
                0.08626872443782194,
                0.022623967053501243,
                -0.017702778856360856,
                -0.03449772529671604,
                -0.03028192575109742,
                -0.02455501302054234,
                0.021363000979978772,
                -0.01673536031798938,
                0.02005970130014045,
                0.05544507557426614,
                -0.022466544705396625,
                -0.048718614854435814,
                0.0032689504706622744,
                -0.01181059668846333,
                -0.011152739239111482,
                -0.01828662876620627,
                -0.00828662876620622,
                0.008146532752881705,
                -0.04185346724711789,
                -0.011853467247118296,
                0.02171337123379373,
                -0.058286628766205606,
                0.011713371233793714,
                0.011713371233793714,
                0.011713371233793714,
                0.051713371233794395,
                -0.058286628766205606,
                -0.028286628766206266,
                0.03171337123379436,
                0.0017133712337937753,
                0.0017133712337937753,
                0.0017133712337937753,
                -0.04828662876620561,
                0.02171337123379373,
                -0.058286628766205606,
                -0.021152739239111446,
                -0.021152739239111446,
                -0.00828662876620622,
                -0.04828662876620561,
                -0.011152739239111482,
                -0.0011527392391114373,
                -0.038286628766205616,
                0.051713371233794395,
                -0.028286628766206266,
                0.041713371233794386,
                0.051713371233794395,
                -0.04828662876620561,
                -0.058286628766205606,
                0.03171337123379436,
                0.0017133712337937753,
                -0.04828662876620561,
                0.061713371233794445,
                0.03171337123379436,
                0.041713371233794386,
                0.011713371233793714,
                0.011713371233793714,
                -0.04828662876620561,
                0.03171337123379436,
                0.011713371233793714,
                -0.038286628766205616,
                -0.038286628766205616,
                0.02171337123379373,
                0.03171337123379436,
                0.046011821050657604,
                -0.04828662876620561,
                -0.01828662876620627,
                -0.058286628766205606,
                0.02171337123379373,
                -0.04828662876620561,
                0.061713371233794445,
                0.051713371233794395,
                0.0017133712337937753,
                0.02171337123379373,
                -0.028286628766206266,
                0.0017133712337937753,
                0.051713371233794395,
                -0.0539881789493424,
                -0.04398817894934239,
                -0.0631596470718129,
                0.032957947764878426,
                -0.03656714916719654,
                0.05884726076088908,
                0.013145710577751627,
                -0.031152739239111448,
                0.049924089131100545,
                -0.05857383869218841,
                -0.01456151675864676,
                0.002606978918268355,
                -0.009367135128244273,
                -0.03279168884861219,
                -0.03305456829942667,
                -0.0411287831827146,
                0.040349247010052325,
                -0.0032821514923508186,
                0.04575443353297643,
                0.06226909996464925,
                0.025316580178938928,
                0.08361057045513683,
                -0.08975669821606572,
                -0.04964031291850367,
                0.06553104425461571,
                -0.014179419873713196,
                0.01233207808373465,
                0.01596514842619258,
                0.011388230189719215,
                -0.055442745628378205,
                -0.03625298858761967,
                0.09230412334526897,
                -0.05810741366210252,
                0.014440228210197857,
                0.046011821050657604,
                -0.023988178949343172,
                -0.04828662876620561,
                -0.04828662876620561,
                0.041713371233794386,
                0.051713371233794395,
                -0.01828662876620627,
                0.02171337123379373,
                0.02171337123379373,
                -0.00828662876620622,
                -0.058286628766205606,
                -0.038286628766205616,
                0.0017133712337937753,
                0.03171337123379436,
                0.006011821050656812,
                -0.0639881789493443,
                -0.0052513544557615905,
                -0.0352513544557608,
                -0.01828662876620627,
                0.011713371233793714,
                -0.00828662876620622,
                0.051713371233794395,
                -0.058286628766205606,
                0.041713371233794386,
                0.041713371233794386,
                0.0017133712337937753,
                -0.01828662876620627,
                0.011713371233793714,
                0.051713371233794395,
                0.041713371233794386,
                -0.0352513544557608,
                0.0428924805684904,
                -0.012618390063763099,
                0.007263281459481714,
                0.02824694449032201,
                -0.05549504255779173,
                -0.02728379532189833,
                -0.04903423514667761,
                -0.05454395456754254,
                -0.06910163941385557,
                0.019381558194378787,
                -0.049093900272151964,
                -0.08105866097248604,
                0.014734060477061404,
                0.019938759867144194,
                -0.09564562603493698,
                -0.048938004311599365,
                -0.027555823945821296,
                -0.005529657455720569,
                -0.062293512637186334,
                -0.018093428926106443,
                0.023739215473545974,
                0.055008121123994655,
                0.048923269292428545,
                0.045235893819320826,
                -0.01929746914082465,
                -0.013424779790803395,
                0.04134283212044039,
                0.06635015408985025,
                0.017817038618031904,
                -0.017542886082990834,
                -0.02161221537972683,
                0.004149557099720869,
                0.01298198280836257,
                -0.04311823983654092,
                -0.024265990998503406,
                0.10359105248493485,
                0.04899675046390307,
                -0.0014882816064011534,
                -0.0333841553671947,
                -0.05434146062154172,
                -0.019711546161971755,
                -0.04290739472747719,
                -0.037006105821137766,
                -0.0064327430258429635,
                -0.004024072741351187,
                0.021978761944992504,
                -0.0332820321444626,
                0.0380667225854101,
                0.101577217213088,
                0.08815092783589605,
                0.03220339028282853,
                0.004186369615311306,
                0.05749019233026891,
                -0.05592365693856421,
                -0.06756897061152141,
                0.054837993975373624,
                -0.012339945405548104,
                -0.09744915923567352,
                8.118726299815934e-05,
                -0.010596713950333844,
                0.04203736263743358,
                0.026343563404085443,
                -0.03167984989044126,
                0.0574177549494283,
                0.010427564137271507,
                -0.01726208038760041,
                0.025779595513267774,
                -0.02961275683921447,
                0.056832713937544854,
                -0.04637036223029558,
                0.05132741321319231,
                -0.018752973144815076,
                0.04806453410620885,
                -0.09360400740198607,
                0.018512529521289553,
                -0.06466255752687614,
                -0.01837254465664507,
                -0.0022327172019349587,
                -0.0051545688535398464,
                0.013056342658624405,
                0.07303977147779714,
                0.07602013351545481,
                -0.021147165728084127,
                0.03346235280398052,
                0.04609755008758864,
                -0.030292584594299652,
                -0.08696982131591066,
                0.08761137366117476,
                0.06457522631306045,
                0.08393577373481056,
                0.08380313105800231,
                -0.07001625465118107,
                0.009683076860298189,
                0.060487282686749445,
                0.03468106775126367,
                -0.000256796609246447,
                0.004584286915367005,
                0.02465010060156333,
                -0.05297790491487155,
                0.010349557356481711,
                -0.06379109641863862,
                0.011625009056056344,
                0.06066814881088158,
                -0.03454614739849427,
                -0.06098969925909712,
                0.05616822552332686,
                -0.04995008099583665,
                -0.08586259245453173,
                -0.02629244058593136,
                0.0077646753673958,
                0.03620902297292062,
                0.023043058494708425,
                -0.04655089474271975,
                -0.015532513762659416,
                -0.03513412419653641,
                0.01982535243017423,
                0.021116962789182795,
                -0.07415386829045743,
                0.08374406095963682,
                -0.02445101132345776,
                -0.002099897678686823,
                -0.08335505169175234,
                0.023608395352194916,
                0.004194214836832997,
                0.052192929673567694,
                -0.033557260399660414,
                -0.05792492455701536,
                -0.02786178454711741,
                0.04723392707698444,
                0.06883011057885977,
                -0.059946285839262106,
                0.01082870118349056,
                -0.011118874256820498,
                0.024714814263837193,
                0.02128003366348653,
                0.01292569394098704,
                -0.05071752217446045,
                -0.039289505178700564,
                -0.06079313879830138,
                -0.02579690912926965,
                0.016469319978054696,
                -0.009736913742285365,
                -0.039638910121484794,
                -0.05500896352066829,
                -0.055269367155123525,
                -0.011077533097462905,
