{
    "layer1": {
        "weights": [
            [
                -0.031209503387668557,
                0.02879049661233144,
                -0.011209503387668508,
                -0.05120950338766828,
                0.02879049661233144,
                0.038790496612331714,
                -0.0012095033876684663,
                -0.011209503387668508,
                -0.031209503387668557,
                -0.04120950338766829,
                -0.0012095033876684663,
                0.038790496612331714,
                -0.011209503387668508,
                -0.02120950338766856,
                0.038790496612331714,
                -0.04120950338766829,
                -0.0012095033876684663,
                0.05879049661233172,
                -0.06120950338766828,
                -0.04120950338766829,
                -0.04120950338766829,
                -0.02120950338766856,
                0.038790496612331714,
                -0.05120950338766828,
                0.05879049661233172,
                0.04879049661233172,
                0.05349845861039266,
                0.003498458610392498,
                -0.03795387743141537,
                0.04879049661233172,
                0.038790496612331714,
                -0.060777113409736586,
                -0.02077711340973684,
                -0.03064111745522912,
                -0.05443955422713381,
                -0.047265621870169354,
                -0.05407117825371475,
                0.03805555745665205,
                0.03157159323166462,
                -0.027804096001528753,
                0.0179144433100183,
                -0.06081492288653063,
                -0.05999374196923491,
                0.031172049818576283,
                0.05471515193127485,
                -0.05454454578260343,
                -0.030613731325467478,
                0.009386268674532442,
                -0.031209503387668557,
                -0.031209503387668557,
                0.02879049661233144,
                0.05879049661233172,
                0.02879049661233144,
                -0.05120950338766828,
                -0.0012095033876684663,
                -0.05120950338766828,
                -0.04120950338766829,
                0.008790496612331493,
                0.02879049661233144,
                0.008790496612331493,
                -0.02120950338766856,
                -0.06120950338766828,
                0.038790496612331714,
                -0.06120950338766828,
                0.05879049661233172,
                -0.0012095033876684663,
                -0.06120950338766828,
                -0.04120950338766829,
                0.038790496612331714,
                -0.05120950338766828,
                -0.0012095033876684663,
                -0.02120950338766856,
                -0.031209503387668557,
                0.02879049661233144,
                0.01879049661233144,
                0.04879049661233172,
                -0.011209503387668508,
                0.02879049661233144,
                0.008790496612331493,
                -0.06120950338766828,
                0.02879049661233144,
                -0.02120950338766856,
                -0.02120950338766856,
                0.04879049661233172,
                0.008790496612331493,
                -0.05120950338766828,
                0.04879049661233172,
                -0.011209503387668508,
                0.02879049661233144,
                0.008790496612331493,
                -0.02120950338766856,
                0.02879049661233144,
                -0.0012095033876684663,
                -0.031209503387668557,
                -0.0012095033876684663,
                0.038790496612331714,
                0.013449222138337717,
                0.06545691570577887,
                -0.01926156071311288,
                0.027924016142241288,
                -0.053697759773732354,
                0.017088611227452095,
                0.027779001894516882,
                0.04029415164850592,
                0.046820423531992235,
                -0.025799484700365652,
                -0.030727384952343933,
                0.03397577228523648,
                -0.006209204505548396,
                0.004511865504995982,
                0.07163213243486526,
                -0.06767472684232351,
                -0.026178926760159187,
                -0.029795457407574458,
                0.08301277449190667,
                -0.015975435442605688,
                0.04779323748190033,
                0.019142976428013308,
                -0.05116755562511333,
                -0.033186833596582206,
                0.061760647404348175,
                -0.049366551678576225,
                -0.019293841604902443,
                -0.042902162513438785,
                0.009106865970340878,
                0.02295955245966433,
                0.0383535552811819,
                0.017976697216096398,
                0.05034535816995669,
                -0.037443554061144704,
                0.01402427924221786,
                -0.0035177926704372405,
                0.06693205743506808,
                -0.0003811920317575928,
                0.05490800403285255,
                0.05582479765565298,
                -0.045616729238421104,
                -0.033677548905794885,
                -0.09857659833189521,
                0.0221812054968121,
                -0.018062210953344673,
                0.11069365680160137,
                -0.04587556346861372,
                0.00013013956168981376,
                0.09415717201271823,
                0.07852165713342828,
                0.009053851102911206,
                -0.049046214259773735,
                -0.002327395594967761,
                -0.00012018564320215002,
                0.09624838324924591,
                0.06700249414759817,
                0.02219963246894946,
                -0.01650409884504159,
                -0.013903890632287924,
                0.031192646767162973,
                -0.03721819584623632,
                -0.011344303292552056,
                0.02385293888464194,
                -0.04966392538267268,
                -0.02523736990708152,
                0.011712022550893606,
                -0.013876502706952223,
                -0.011571643879322474,
                0.012821903251996933,
                0.0015594114534471489,
                -0.17416897397626344,
                0.11955335421243853,
                -0.004199957153287902,
                -0.08988023469060122,
                0.010406672078163244,
                0.19806546251417706,
                0.005039481849574352,
                -0.16152110320345003,
                -0.1664370061215874,
                -0.011396261470632522,
                0.03355847292309623,
                0.0960299899120216,
                -0.026462717412406207,
                -0.16860112997127594,
                -0.004844065428650138,
                -0.11068402817275894,
                0.03246230707846921,
                0.10845354006148676,
                0.17044190929359873,
                -0.02255983903758847,
                -0.022307423101858622,
                0.10265045016863021,
                0.010783156311991098,
                -0.03049486228284814,
                0.08240221099972929,
                0.1097720418068566,
                -0.12514953554267877,
                -0.1312686354431033,
                -0.009219298502816069,
                0.03648928238241912,
                0.0736160860729944,
                -0.027109574650515878,
                0.051893549590760826,
                0.06641764022254346,
                0.06886633483283353,
                -0.00020740151500687814,
                -0.020207401515006804,
                0.014882085408799501,
                -0.06825414351243851,
                -0.020684952846663614,
                0.005868532896171605,
                -0.08133212141455126,
                0.04046345910119541,
                -0.03132633180852034,
                -0.07412503410837085,
                -0.040049609482341694,
                -0.07020086217876594,
                0.023839471436345912,
                -0.032665461341059986,
                -0.005195707236925525,
                -0.021520661063136326,
                0.007037372897440381,
                -0.016665017576971752,
                0.06786496873933219,
                -0.034776524132530066,
                0.03067294063474522,
                0.0461170931831733,
                -0.042679183320391716,
                0.04349845861039265,
                0.02879049661233144,
                0.05879049661233172,
                -0.05650154138960734,
                0.05349845861039266,
                0.02349845861039245,
                -0.0012095033876684663,
                0.04879049661233172,
                -0.02120950338766856,
                0.04879049661233172,
                0.02879049661233144,
                -0.02120950338766856,
                0.038790496612331714,
                0.008790496612331493,
                -0.04120950338766829,
                -0.02120950338766856,
                0.008790496612331493,
                -0.06120950338766828,
                -0.031209503387668557,
                -0.04120950338766829,
                -0.04120950338766829,
                -0.01650154138960755,
                -0.006445454005925017,
                -0.06120950338766828,
                0.05879049661233172,
                -0.06650868275708506,
                -0.06644545400592479,
                -0.011209503387668508,
                0.02879049661233144,
                -0.06120950338766828,
                0.038790496612331714,
                0.02879049661233144,
                -0.031209503387668557,
                -0.011209503387668508,
                -0.04120950338766829,
                -0.05120950338766828,
                0.038790496612331714,
                -0.04120950338766829,
                0.038790496612331714,
                -0.02120950338766856,
                -0.02120950338766856,
                -0.04120950338766829,
                -0.020723081154387042,
                -0.03644750913425757,
                0.05336335622431887,
                -0.031209503387668557,
                -0.05120950338766828,
                -0.008159349936127446,
                -0.04784388795772407,
                0.05431371134732649,
                0.1260498656063563,
                0.08288896644421676,
                -0.04287674199184093,
                -0.13952485360944908,
                -0.06771373107190373,
                -0.028876186547591203,
                -0.010086666049465131,
                -0.022844604017596217,
                -0.0909059463134202,
                -0.04029437964005426,
                0.07297250039080384,
                0.09174742850360834,
                0.03279132076383438,
                0.06309626674024406,
                -0.015501350626327669,
                -0.04506992268205147,
                -0.0053439052930409625,
                0.003333474048798124,
                0.017567668743352232,
                0.0032022047051256312,
                -0.04220108614106089,
                -0.04447626773301383,
                -0.06551680426935054,
                -0.026167866854725802,
                0.00969183853190633,
                0.04592679425908926,
                -0.013624638346986503,
                -0.03439745041521219,
                0.019019833814500134,
                -0.01353380648374281,
                0.01921369009445278,
                0.04879049661233172,
                -0.06120950338766828,
                -0.030723081154387037,
                -0.000723081154386924,
                0.009276918845613059,
                -0.0012095033876684663,
                -0.05120950338766828,
                0.02879049661233144,
                -0.05120950338766828,
                0.04879049661233172,
                -0.05120950338766828,
                0.04879049661233172,
                0.01879049661233144,
                0.05879049661233172,
                -0.011209503387668508,
                -0.04120950338766829,
                -0.04120950338766829,
                -0.031209503387668557,
                0.02879049661233144,
                -0.031209503387668557,
                0.039213690094452934,
                0.05921369009445294,
                0.038790496612331714,
                0.038790496612331714,
                -0.010786309905547157,
                -0.010786309905547157,
                -0.05120950338766828,
                -0.04120950338766829,
                -0.031209503387668557,
                0.05879049661233172,
                0.038790496612331714,
                0.02879049661233144,
                0.02879049661233144,
                0.01879049661233144,
                -0.05120950338766828,
                0.02879049661233144,
                0.01879049661233144,
                -0.04120950338766829,
                0.008790496612331493,
                0.01879049661233144,
                -0.031209503387668557,
                -0.05120950338766828,
                -0.04120950338766829,
                -0.011209503387668508,
                -0.011209503387668508,
                0.04879049661233172,
                0.02879049661233144,
                0.05879049661233172,
                -0.05004609303919347,
                0.01879049661233144,
                0.04879049661233172,
                0.008790496612331493,
                -0.06120950338766828,
                0.04879049661233172,
                0.05879049661233172,
                0.02879049661233144,
                0.04879049661233172,
                -0.06120950338766828,
                -0.011209503387668508,
                -0.04120950338766829,
                -0.02120950338766856,
                -0.04004609303919347,
                0.009953906960806417,
                0.0002640113302410566,
                -0.09094227027036267,
                0.03968927148650989,
                -0.02078630990554722,
                -0.02962289955707221,
                0.009213690094452843,
                -0.031139316740043076,
                -0.06491142021047167,
                -0.0809570447788497,
                0.0019513687569701096,
                0.04419018965776456,
                0.05948148468674416,
                -0.026652561617189804,
                0.010942439623035167,
                -0.08003928627210913,
                0.002548241546400708,
                0.051486996047243355,
                0.027579717004454878,
                0.06579317560196912,
                -0.044149194195003155,
                -0.06063998480711748,
                -0.056648539088164744,
                -0.0631092540065666,
                -0.058227664454878036,
                -0.04233798635576917,
                0.01081723757961261,
                -0.06841503083047369,
                -0.04161195715394134,
                0.008294795730675588,
                -0.08402285555364389,
                0.05343961411501033,
                -0.016369685039857453,
                -0.010046093039193583,
                0.029953906960806433,
                0.05879049661233172,
                0.038790496612331714,
                -0.031209503387668557,
                -0.02120950338766856,
                -0.05120950338766828,
                -0.011209503387668508,
                0.01879049661233144,
                0.008790496612331493,
                -0.011209503387668508,
                -0.0012095033876684663,
                0.01879049661233144,
                -0.06120950338766828,
                0.029953906960806433,
                -0.04004609303919347,
                0.049915463307025475,
                -0.04008453669297441,
                0.008790496612331493,
                -0.011209503387668508,
                0.008790496612331493,
                -0.04120950338766829,
                0.02879049661233144,
                -0.04120950338766829,
                -0.04120950338766829,
                0.04879049661233172,
                0.01879049661233144,
                0.04879049661233172,
                0.038790496612331714,
                -0.02120950338766856,
                -0.060084536692974526,
                0.022022119852014677,
                0.017150461906456894,
                -0.05001384580012051,
                -0.01846958065367129,
                -0.03302697212656507,
                -0.08626608509301563,
                0.03250110813926524,
                -0.03075008575747287,
                -0.03550943292659161,
                -0.05050084895951635,
                0.0186782417021944,
                -0.003398725643762569,
                0.013258543809399687,
                -0.00849228456785274,
                0.029028766590137412,
                -0.03370341123814516,
                -0.0018370559956377343,
                -0.10775125102945984,
                0.11913582127374757,
                -0.009816877981360793,
                -0.10557446174421109,
                -0.0920848962069526,
                -0.06148320003643157,
                0.13365856881875893,
                0.12231331927802559,
                0.03289280537544815,
                0.06805403379899667,
                -0.009538730054237988,
                -0.05458467441890213,
                -0.07120434217126764,
                -0.05766381441867045,
                0.09733412560283948,
                0.019268888671564635,
                0.03576442126860537,
                -0.14229376574546665,
                -0.060849600143414305,
                0.021567935906339653,
                0.050245061418618765,
                0.04736190169351508,
                0.010105386950188592,
                0.010117206052229516,
                0.05933933854329864,
                -0.011145106687630694,
                0.03327524308272925,
                0.06495371987425189,
                0.03218531212696202,
                -0.016781211129429124,
                -0.039511645108485524,
                -0.04779726900014587,
                -0.1917240161019548,
                -0.04166901715766272,
                -0.03732792323888919,
                -0.10695632785198741,
                -0.008935406495661836,
                -0.0007497903399825094,
                0.035006398318638,
                0.07131219928787078,
                0.15990044780919452,
                0.05195276249160019,
                0.042205843829524754,
                0.02258192902354793,
                -0.04708256322750008,
                0.12126524733863259,
                0.06671706140650283,
                -0.1261333458745826,
                -0.09240451168432404,
                -0.0958844478983459,
                -0.05034272761127953,
                0.08172686617201384,
                -0.06249683613093426,
                -0.062093449796816975,
                0.0009702043252176326,
                -0.004728824263022437,
                0.04544271402473921,
                0.010726538071279256,
                0.007542343254288865,
                -0.10086307648395713,
                -0.021538427873461514,
                0.13070720109174574,
                0.04395585165654966,
                -0.051501592869124514,
                0.06523654549641046,
                -0.050273567633591344,
                -0.04332933308781729,
                0.012315868265598431,
                0.01153943924909533,
                0.1007324394371168,
                -0.02277434083970854,
                -0.03294747708297679,
                -0.08005364787957875,
                0.0014631600785979437,
                0.0980367391171046,
                0.00655596257807563,
                0.08506517239826378,
                0.003837737729833882,
                -0.06315133016433908,
                -0.0050446020783659635,
                -0.056062038652142286,
                -0.00707811669795331,
                0.0202811859842823,
                0.08222727724109312,
                -0.1095239689728846,
                0.01525648517836403,
                0.054114413253924354,
                -0.03713899458380375,
                -0.061892515961266416,
                0.13036302808242647,
                0.13630658799985668,
                -0.03720455952848955,
                0.11499219485823246,
                0.03779853776906856,
                -0.10526768076257234,
                -0.017164630701730407,
                -0.09284486215490147,
                0.09016387525659246,
                0.050018841422750704,
                -0.04850709275697298,
                -0.052703973262212524,
                0.043218264471540466,
                -0.02176720020104838,
                0.008926248785605544,
                -0.09646870242873648,
                -0.019821364257145434,
                -0.08827341391810388,
                -0.0682976815147354,
                -0.030458067161248818,
                -0.03626946525412803,
                -0.009728485023677616,
                -0.053256447821240505,
                0.013368365167889926,
                -0.06378388349007114,
                -0.05545562733106742,
                0.02180986254223257,
                -0.003830084735081376,
                -0.012483490638168766,
                -0.11477495411124161,
                0.08112252312486405,
                0.03630077829821605,
                -0.0296182133598238,
                0.04607728339531963,
                0.11553833041434608,
                -0.019976912401382947,
                0.01751736825819833,
                0.01267634747299127,
                0.06038679092984854,
                0.1049097031117013,
                0.02857846472229016,
                -0.014429389078563542,
                0.10009052088654657,
                0.02174511856750464,
                0.10441937232653647,
                0.03490609965045089,
                0.007498257194950323,
                -0.03346476569395516,
                0.002609984416016776,
                0.03550388354173417,
                -0.04484546306577353,
                0.04359721150608877,
                -0.07557004951289976,
                -0.03834466801250076,
                -0.0024549557438326972,
                -0.06023888483091693,
                -0.010238884830916702,
                0.04879049661233172,
                -0.031209503387668557,
                -0.06120950338766828,
                -0.05120950338766828,
                0.05879049661233172,
                0.01879049661233144,
                -0.06120950338766828,
                0.038790496612331714,
                -0.011209503387668508,
                0.01879049661233144,
                -0.031209503387668557,
                0.04879049661233172,
                -0.031402295179391734,
                -0.0020637499223742028,
                -0.06116454491989193,
                0.05883545508010807,
                -0.02120950338766856,
                -0.0012095033876684663,
                -0.05120950338766828,
                -0.02120950338766856,
                -0.02120950338766856,
                0.02879049661233144,
                0.05879049661233172,
                0.01879049661233144,
                -0.02120950338766856,
                0.01879049661233144,
                0.02879049661233144,
                -0.02120950338766856,
                -0.041164544919891924,
                -0.05116454491989193,
                -0.041923193565367736,
                -0.0003640492081034938,
                0.000659254342158403,
                0.008076806434632029,
                0.028076806434632028,
                -0.021927206217336983,
                -0.04425952190982666,
                -0.07258458926129747,
                -0.00026987077961315064,
                -0.0018786891019708309,
                0.051009811950157365,
                0.026817751215105365,
                -0.06438167398530625,
                -0.02152475838412274,
                0.07001176824637828,
                -0.004615189171552208,
                -0.027700166381816365,
                0.06969794110362569,
                -0.018804868686439005,
                -0.07808349642374933,
                0.05452414539885463,
                -0.010141060106191634,
                0.02879049661233144,
                0.004524145398854195,
                0.05452414539885463,
                -0.06014106010619149,
                -0.031209503387668557,
                0.06060680121831673,
                0.06359530657632632,
                -0.056138778419753496,
                -0.002756101053015462,
                0.03803184796685589,
                -0.011209503387668508,
                -0.04120950338766829,
                0.04879049661233172,
                0.008790496612331493,
                -0.031209503387668557,
                -0.011209503387668508,
                -0.011209503387668508,
                0.05879049661233172,
                -0.06120950338766828,
                -0.011209503387668508,
                -0.06120950338766828,
                -0.031209503387668557,
                -0.011209503387668508,
                -0.031209503387668557,
                -0.05120950338766828,
                0.05879049661233172,
                0.038790496612331714,
                -0.06120950338766828,
                0.05879049661233172,
                -0.0012095033876684663,
                0.01879049661233144,
                0.02879049661233144,
                0.05879049661233172,
                -0.05120950338766828,
                0.04879049661233172,
                0.04879049661233172,
                -0.0012095033876684663,
                -0.05120950338766828,
                -0.04120950338766829,
                0.02879049661233144,
                -0.011209503387668508,
                0.008790496612331493,
                0.008790496612331493,
                -0.06120950338766828,
                -0.0012095033876684663,
                0.008790496612331493,
                0.038790496612331714,
                0.01879049661233144,
                -0.04120950338766829,
                -0.02120950338766856,
                -0.011209503387668508,
                -0.04120950338766829,
                -0.06120950338766828,
                0.02879049661233144,
                -0.011209503387668508,
                0.04879049661233172,
                -0.04120950338766829,
                0.05879049661233172,
                0.038790496612331714,
                -0.031209503387668557,
                -0.02120950338766856,
                -0.031209503387668557,
                0.02879049661233144,
                0.04879049661233172,
                -0.06120950338766828,
                -0.0012095033876684663,
                -0.0012095033876684663,
                -0.031209503387668557,
                0.02879049661233144,
                -0.04120950338766829,
                0.01879049661233144,
                0.038790496612331714,
                0.05879049661233172,
                -0.011209503387668508,
                -0.05037523167587538,
                0.009624768324124565,
                0.032844149603101905,
                -0.047155850396897736,
                -0.024579569183539717,
                0.043342598660606246,
                -0.02160750148247531,
                -0.008095310458167885,
                0.06852438503556033,
                -0.03778897044352418,
                0.018950700953230454,
                0.04125718046575715,
                0.031134496801769107,
                0.010724838840322614,
                -0.020141060106191693,
                0.03545494259070458,
                0.01311525409106203,
                0.003115254091062099,
                0.07828359199414409,
                0.0826378990776594,
                -0.0040552480882504495,
                0.02605047123858246,
                -0.011940446749834426,
                0.11160945878247158,
                0.015839535375958256,
                -0.00524180316160216,
                0.050155010091162945,
                0.03698741587366461,
                -0.03726750601074816,
                0.04871848601026787,
                -0.0068847459089379495,
                -0.03581630262746089,
                0.008790496612331493,
                -0.02120950338766856,
                -0.0012095033876684663,
                0.04879049661233172,
                -0.0012095033876684663,
                0.01879049661233144,
                0.01879049661233144,
                0.038790496612331714,
                -0.0012095033876684663,
                0.02879049661233144,
                0.038790496612331714,
                0.05879049661233172,
                0.038790496612331714,
                0.05879049661233172,
                0.01879049661233144,
                -0.011209503387668508,
                0.008790496612331493,
                0.008790496612331493,
                -0.031209503387668557,
                -0.04120950338766829,
                -0.02120950338766856,
                0.05879049661233172,
                -0.04120950338766829,
                0.008790496612331493,
                0.04879049661233172,
                -0.011209503387668508,
                -0.031209503387668557,
                0.008790496612331493,
                -0.04120950338766829,
                -0.031209503387668557,
                -0.06120950338766828,
                -0.04120950338766829,
                0.038790496612331714,
                -0.02120950338766856,
                -0.04120950338766829,
                0.04879049661233172,
                -0.05120950338766828,
                0.05879049661233172,
                0.01879049661233144,
                -0.02120950338766856,
                0.04879049661233172,
                -0.02120950338766856,
                0.01879049661233144,
                -0.031209503387668557,
                -0.04120950338766829,
                -0.04120950338766829,
                -0.02120950338766856,
                0.02879049661233144,
                0.06467846382824889,
                0.010301989532451846,
                0.07333107100978713,
                -0.03532153617175085,
                0.01311525409106203,
                0.02311525409106189,
                0.04971734630195914,
                0.06176786127260031,
                -0.042925677233376106,
                0.07357412019787034,
                -0.05964430830171191,
                -0.03804875932939954,
                -0.08025654753295498,
                0.00373286549382476,
                0.09581221240338048,
                0.014894080492308753,
                -0.05688195078398981,
                -0.005264918993536666,
                -0.005516908831143919,
                0.0996520920928512,
                -0.05813480073036091,
                0.01467846382824897,
                -0.046884745908937674,
                0.015171281916816045,
                -0.0315782725558203,
                0.02311525409106189,
                0.003115254091062099,
                0.0416640507077753,
                0.10330686538042157,
                0.03985524107794241,
                -0.03905956790023933,
                0.05888621540915534,
                0.005620457459751971,
                -0.08376131527677616,
                -0.07962116638434223,
                0.04164862679890355,
                -0.005837329905678105,
                0.08099547049837019,
                -0.04299199005529811,
                -0.027493125118616877,
                0.11469996880998802,
                -0.012237047247972454,
                0.039986166359717544,
                0.1548089565419318,
                0.006305415900867899,
                -0.0439062130856361,
                0.0703039369387303,
                -0.014106810533682203,
                0.02089544286111711,
                -0.006751189716577505,
                0.03221159441735636,
                0.00447916628805177,
                -0.036225097341180186,
                0.0790796434846905,
                -0.0502343195122445,
                -0.15271981136968146,
                -0.1544537591159639,
                -0.036187835343640916,
                0.07942340258450287,
                -0.07227990421749954,
                0.10329648350276756,
                0.07417883656841291,
                -0.00604140640346511,
                0.011968526443608065,
                -0.029753661091370273,
                -0.03374873168201228,
                0.0804618489040049,
                0.020828316442288997,
                -0.08905485282804117,
                0.04318429058430536,
                0.015568178454573872,
                -0.034750610477852786,
                0.02959244159809857,
                0.049931745645577445,
                8.210077861930175e-05,
                -0.017003025829904046,
                0.06340433526094541,
                0.08058378858310038,
                0.06579232292060865,
                0.03932191092047683,
                0.04136331075911135,
                0.06486940869721554,
                0.08762974718783455,
                0.08457949166182331,
                -0.07122879284709595,
                -0.014610736386492386,
                0.01609618054977976,
                0.06966694544018612,
                -0.021543832601791827,
                -0.0861974649031002,
                0.012413556875266012,
                -0.001424037255970986,
                0.047649505211811244,
                0.018345544339200614,
                0.04022298022966284,
                0.03967565731015881,
                0.054197503334577846,
                0.016315558154884068,
                -0.04795339964558991,
                -0.04905927442486223,
                0.04398626972226758,
                -0.046899639408067705,
                0.0034072743757827114,
                -0.05981487263828553,
                0.04329347063624801,
                0.044667805651587324,
                -0.026592725624217408,
                -0.040135733157958535,
                0.07835852753421163,
                -0.09452862507999552,
                -0.046233149454653864,
                0.0017205987973526555,
                -0.00989054755668698,
                0.0781391181896812,
                0.07714660654983543,
                0.0503803368309121,
                0.035217554375018834,
                0.016644861867096426,
                -0.009902222155941508,
                0.0016983170559688647,
                0.030196344316755913,
                -0.03404084059067066,
                -0.01643296180922444,
                0.014886927911340697,
                -0.045245449773890646,
                -0.009598036296200872,
                -0.005696786571377731,
                0.04343466050554442,
                -0.0012095033876684663,
                -0.06120950338766828,
                -0.04120950338766829,
                -0.011209503387668508,
                -0.06120950338766828,
                0.008790496612331493,
                -0.04120950338766829,
                -0.011209503387668508,
                -0.0012095033876684663,
                -0.0012095033876684663,
                -0.05120950338766828,
                0.05879049661233172,
                -0.011209503387668508,
                -0.04120950338766829,
                0.02879049661233144,
                -0.02120950338766856,
                -0.06120950338766828,
                -0.0012095033876684663,
                -0.06120950338766828,
                -0.0012095033876684663,
                0.01879049661233144,
                -0.05120950338766828,
                -0.0012095033876684663,
                0.008790496612331493,
                0.038790496612331714,
                -0.05120950338766828,
                -0.011209503387668508,
                0.02879049661233144,
                0.04879049661233172,
                -0.0012095033876684663,
                0.01879049661233144,
                0.01879049661233144,
                0.008790496612331493,
                -0.06120950338766828,
                0.038790496612331714,
                0.038790496612331714,
                -0.05120950338766828,
                0.008790496612331493,
                0.01879049661233144,
                -0.05120950338766828,
                0.01879049661233144,
                -0.011209503387668508,
                0.01879049661233144,
                -0.05120950338766828,
                0.038790496612331714,
                0.038790496612331714,
                -0.05120950338766828,
                -0.02120950338766856,
                0.0005512303294764189,
                -0.011209503387668508,
                -0.053001873014358054,
                0.07209363065081252,
                -0.052228708736780406,
                0.09791024875273704,
                0.04391433032840187,
                0.02471462784481755,
                0.043143026290123725,
                -0.038412806767507336,
                0.02879049661233144,
                0.008790496612331493,
                -0.05120950338766828,
                0.039530995893050494,
                0.01879049661233144,
                0.008790496612331493,
                0.038790496612331714,
                0.038790496612331714,
                -0.0012095033876684663,
                0.02879049661233144,
                -0.011209503387668508,
                -0.0012095033876684663,
                0.02879049661233144,
                -0.05120950338766828,
                -0.06120950338766828,
                0.05879049661233172,
                -0.0012095033876684663,
                -0.06120950338766828,
                0.008790496612331493,
                -0.02120950338766856,
                0.05879049661233172,
                -0.0012095033876684663,
                0.05879049661233172,
                -0.031209503387668557,
                -0.031209503387668557,
                0.038790496612331714,
                0.008790496612331493,
                0.02879049661233144,
                -0.05120950338766828,
                -0.011209503387668508,
                -0.04120950338766829,
                -0.02120950338766856,
                -0.06120950338766828,
                0.04879049661233172,
                -0.02120950338766856,
                -0.04120950338766829,
                0.008790496612331493,
                0.04879049661233172
            ],
            [
                0.03977631381346161,
                -0.060223686186538394,
                -0.0002236861865385221,
                -0.030223686186538416,
                -0.020223686186538414,
                -0.030223686186538416,
                -0.04022368618653839,
                0.019776313813461587,
                0.049776313813461606,
                0.049776313813461606,
                0.049776313813461606,
                0.02977631381346158,
                -0.01022368618653849,
                0.049776313813461606,
                0.049776313813461606,
                -0.04022368618653839,
                -0.0002236861865385221,
                0.049776313813461606,
                0.00977631381346151,
                -0.060223686186538394,
                0.02977631381346158,
                0.02977631381346158,
                -0.060223686186538394,
                0.02977631381346158,
                -0.060223686186538394,
                -0.0002236861865385221,
                -0.021239611373185578,
                0.03876038862681437,
                0.04906827395053365,
                -0.030223686186538416,
                -0.0002236861865385221,
                0.05972736513737333,
                -0.0002726348626269129,
                -0.00034563366067855416,
                -0.04114975619942366,
                0.028859385965522146,
                -0.0011712965925187128,
                0.038733050352891187,
                -0.02465383197774665,
                -0.012768274627256432,
                -0.020737855615465046,
                -0.00522978637543178,
                -0.05251779894799279,
                0.03196913510308889,
                0.05916756220621185,
                -0.05178581043488922,
                -0.030985523753096315,
                0.04901447624690389,
                -0.060223686186538394,
                0.0597763138134616,
                -0.030223686186538416,
                0.0597763138134616,
                0.00977631381346151,
                -0.030223686186538416,
                -0.020223686186538414,
                0.00977631381346151,
                -0.020223686186538414,
                -0.030223686186538416,
                0.02977631381346158,
                0.0597763138134616,
                -0.0502236861865384,
                -0.0002236861865385221,
                -0.04022368618653839,
                -0.01022368618653849,
                0.0597763138134616,
                0.00977631381346151,
                0.02977631381346158,
                -0.030223686186538416,
                -0.0002236861865385221,
                -0.060223686186538394,
                0.019776313813461587,
                -0.01022368618653849,
                -0.060223686186538394,
                -0.0002236861865385221,
                -0.060223686186538394,
                -0.0502236861865384,
                -0.030223686186538416,
                -0.04022368618653839,
                0.0597763138134616,
                0.00977631381346151,
                -0.0502236861865384,
                -0.0002236861865385221,
                -0.0002236861865385221,
                -0.030223686186538416,
                0.0597763138134616,
                -0.01022368618653849,
                0.049776313813461606,
                0.019776313813461587,
                -0.0002236861865385221,
                0.019776313813461587,
                0.0597763138134616,
                0.019776313813461587,
                -0.030223686186538416,
                0.02977631381346158,
                -0.060223686186538394,
                0.03977631381346161,
                -0.02281967218871726,
                0.013953793257467685,
                0.005405277395382818,
                0.007198997925844611,
                -0.03269780101788907,
                -0.002810114008122805,
                -0.029647555932863855,
                -0.047650948618211716,
                -0.0550723711546002,
                -0.0012115006777910105,
                -0.018756025165600026,
                -0.026076831765040154,
                0.008606976437053595,
                -0.052342973221960444,
                -0.016845110669756858,
                -0.004910130855702926,
                -0.04655512917715958,
                -0.014757755821015643,
                0.061083231339270766,
                -0.009854726582123108,
                0.052648776890923135,
                0.027121748660615178,
                -0.060938511091399056,
                -0.06337843433234032,
                -0.054483282376959784,
                -0.051031562990648746,
                0.05895831413961763,
                0.027547297292896563,
                -0.05008292565116723,
                -0.0017500760396069802,
                0.05132360609838081,
                -0.013006068203142382,
                -0.044651810534415415,
                -0.060883367630780734,
                0.04686696645568851,
                0.005732500769286536,
                0.025939528465680702,
                -0.007460256629849694,
                0.03875367563352609,
                -0.03582687063471885,
                -0.051656833170838724,
                0.03813857468065322,
                -0.028958864769323762,
                0.0021992303348705327,
                -0.00970323074372274,
                0.026946855406115345,
                0.03407587345405024,
                0.03974167252734997,
                0.025984275937043808,
                -0.01213449916407141,
                -0.010783628020825558,
                -0.011430791232551786,
                0.06534577691289388,
                -0.000654163295324044,
                -0.0334659959900686,
                -0.025659475735654663,
                -0.009338022760959299,
                0.0016272428893813157,
                -0.006159680034171273,
                0.012057057565277422,
                -0.05714427791712509,
                0.014452631908245193,
                0.0212256717692095,
                -0.022646053003688337,
                -0.028958487976576634,
                -0.055452108026296784,
                0.05082169576007553,
                0.009989752964056927,
                -0.029019877045769308,
                0.09688535285789149,
                -0.016583294762758806,
                -0.02813490631374355,
                -0.04090585091136059,
                0.035585812617202645,
                -0.017142355013702957,
                -0.011857216643526357,
                0.03626422035614367,
                0.0375257363984985,
                -0.049851204346721786,
                -0.011866325177597567,
                0.04896934516264412,
                -0.04147263481143792,
                -0.005885340189389789,
                -0.004999694507279543,
                -0.07201877385598467,
                0.025299334671504862,
                -0.0411919305307056,
                -0.04852285480045427,
                -0.055409039836518056,
                -0.028683920053397417,
                -0.019226323740682782,
                -0.0640428699427944,
                -0.011728952837631899,
                -0.05350263978860566,
                0.01670276650841699,
                0.030780216026358092,
                -0.01398190542320821,
                0.03912763227698743,
                0.0008860241047199824,
                0.03446338189115177,
                -0.04065679871955255,
                0.04522122685026903,
                0.05373642525719701,
                -0.0512904958206077,
                -0.057914677743885354,
                0.031063832894142294,
                -0.03893616710585738,
                -0.012400152804196282,
                0.06853811772568337,
                0.011392693795664233,
                -0.04425607010253828,
                0.03769877137072658,
                0.05448563770010969,
                -0.0018384865230348915,
                -0.00361574510481952,
                -0.008290181033358397,
                -0.0034084166117324182,
                -0.03994365632146365,
                -0.0496927601647226,
                -0.02563235583875162,
                -0.04974881657148527,
                -0.024009437789622282,
                -0.051327198957104296,
                -0.009372653465556706,
                0.038592149919614134,
                0.023882958482775347,
                0.003132127410514818,
                -0.018919612388087936,
                0.03876038862681437,
                0.02977631381346158,
                -0.04022368618653839,
                -0.0012396113731857014,
                0.018760388626814423,
                -0.0012396113731857014,
                0.02977631381346158,
                -0.060223686186538394,
                -0.030223686186538416,
                0.03977631381346161,
                -0.04022368618653839,
                0.02977631381346158,
                -0.020223686186538414,
                0.019776313813461587,
                -0.030223686186538416,
                -0.060223686186538394,
                0.019776313813461587,
                -0.0002236861865385221,
                -0.0502236861865384,
                0.019776313813461587,
                0.019776313813461587,
                0.04876038862681438,
                -0.03852908646632522,
                0.03977631381346161,
                -0.04022368618653839,
                0.011503804509395955,
                0.0014709135336749338,
                -0.020223686186538414,
                -0.060223686186538394,
                0.03977631381346161,
                -0.030223686186538416,
                0.00977631381346151,
                0.03977631381346161,
                0.03977631381346161,
                -0.01022368618653849,
                -0.020223686186538414,
                0.00977631381346151,
                -0.04022368618653839,
                0.02977631381346158,
                -0.0502236861865384,
                0.02977631381346158,
                -0.020223686186538414,
                -0.030675739618337656,
                -0.011642716128896538,
                -0.045886065678501835,
                -0.01022368618653849,
                -0.0002236861865385221,
                -0.002801873496480035,
                0.04335542232866617,
                -0.016719084049411543,
                -0.025115016170855858,
                0.016930433822845033,
                0.01803903715475048,
                0.02334508486425261,
                -0.05730385820182803,
                -0.04922221247424298,
                0.01963332689530168,
                -0.007574211518086245,
                0.005939287618720349,
                -0.03861720823206344,
                0.06625308326979187,
                0.03021492349221002,
                -0.015364537019819826,
                0.033798948287477204,
                -0.06251500858916513,
                -0.04289554781193746,
                -0.0007449414018244516,
                0.010249161152612261,
                -0.018158382780204166,
                0.057826809842847327,
                -0.007187083079517393,
                -0.05792349471302487,
                0.023049539529437477,
                0.0470619407486252,
                -0.024972117505705917,
                -0.01134974480105491,
                -0.001291860566548603,
                -0.02507680378243203,
                -0.03409817979041998,
                0.03632169252733653,
                0.019357151357383216,
                0.019776313813461587,
                0.02977631381346158,
                0.029324260381662342,
                -0.0006757396183378087,
                -0.060675739618337866,
                -0.060223686186538394,
                0.03977631381346161,
                -0.04022368618653839,
                0.02977631381346158,
                0.00977631381346151,
                -0.0502236861865384,
                -0.04022368618653839,
                0.019776313813461587,
                0.03977631381346161,
                -0.0002236861865385221,
                -0.020223686186538414,
                -0.04022368618653839,
                0.00977631381346151,
                0.019776313813461587,
                -0.030223686186538416,
                -0.0006428486426168249,
                0.029357151357383218,
                0.0597763138134616,
                -0.01022368618653849,
                0.009357151357383199,
                0.05935715135738325,
                -0.030223686186538416,
                -0.030223686186538416,
                0.0597763138134616,
                -0.030223686186538416,
                0.0597763138134616,
                0.019776313813461587,
                0.02977631381346158,
                -0.0502236861865384,
                0.02977631381346158,
                -0.0002236861865385221,
                -0.060223686186538394,
                0.019776313813461587,
                -0.030223686186538416,
                -0.060223686186538394,
                -0.020223686186538414,
                -0.0002236861865385221,
                0.0597763138134616,
                -0.04022368618653839,
                -0.01022368618653849,
                0.03977631381346161,
                -0.04022368618653839,
                -0.060223686186538394,
                -0.02027599730658098,
                -0.01022368618653849,
                0.0597763138134616,
                0.03977631381346161,
                0.03977631381346161,
                0.0597763138134616,
                0.03977631381346161,
                -0.020223686186538414,
                0.049776313813461606,
                -0.0002236861865385221,
                0.00977631381346151,
                0.03977631381346161,
                0.02977631381346158,
                0.009724002693418872,
                -0.02027599730658098,
                -0.010655246848078882,
                -0.0039198608582061804,
                0.029546444636700284,
                0.029357151357383218,
                0.03930484023734062,
                -0.03064284864261678,
                0.020138271679209497,
                -0.04632427507469642,
                -0.010802129605419535,
                0.017039081517917363,
                -0.053420565621445794,
                -0.0032255794038722934,
                0.06902226913483964,
                0.016698200032817044,
                0.022197438743690137,
                0.0037427239881018546,
                -0.050645942637852,
                -0.043497041766524094,
                0.05195287746968578,
                0.06989743278211173,
                0.01585284854675772,
                0.03209420119071794,
                0.06571206281228566,
                -0.056121939196528435,
                0.02843431502282292,
                -0.013347053931815624,
                0.05860473799545307,
                0.03525260446691927,
                0.03159684646651141,
                -0.03049794510105954,
                0.028283451448440557,
                0.037715071975495285,
                0.029724002693419016,
                0.009724002693418872,
                -0.01022368618653849,
                -0.01022368618653849,
                -0.01022368618653849,
                0.0597763138134616,
                -0.04022368618653839,
                -0.0502236861865384,
                0.03977631381346161,
                -0.020223686186538414,
                0.019776313813461587,
                -0.020223686186538414,
                -0.030223686186538416,
                -0.04022368618653839,
                0.01972400269341902,
                -0.04027599730658103,
                -0.04751285305973755,
                0.05248714694026246,
                0.0597763138134616,
                0.00977631381346151,
                -0.020223686186538414,
                0.00977631381346151,
                -0.0502236861865384,
                0.049776313813461606,
                0.03977631381346161,
                0.03977631381346161,
                -0.020223686186538414,
                0.03977631381346161,
                0.049776313813461606,
                -0.0502236861865384,
                0.0024871469402624616,
                0.01663106772546569,
                0.04412002641146605,
                0.03336658216587334,
                -0.006984929722353804,
                0.04026829090049727,
                -0.056126982948918554,
                0.02085200919424018,
                0.0024073712548212463,
                -0.040185941724867044,
                0.04863599252882214,
                0.030834850337990893,
                -0.002205386921827347,
                0.03201749565153991,
                -0.0661154008796555,
                0.022272186138349553,
                0.02276048028560318,
                -0.025407644443565015,
                0.02283913541135486,
                0.020796652397392906,
                -0.018903552585546234,
                0.030703366848007452,
                0.03659540855967854,
                -0.03188600663608499,
                -0.030528304524284886,
                -0.06686962671388484,
                0.037794460456702726,
                -0.03314095125826508,
                -0.02664036841856016,
                0.020825737621674632,
                -0.03363778233883253,
                -0.024988516919974002,
                -0.01960836545796775,
                0.01414604731501694,
                0.0661771002127952,
                -0.060959876553090334,
                0.025725899127536124,
                0.057340394567772776,
                0.05202153413843046,
                -0.04094414000025333,
                -0.019333793439497808,
                -0.017662770768946835,
                -0.048831814570833486,
                0.06358521136807568,
                0.01937019544300658,
                -0.014262249903440617,
                -0.039875603394623704,
                -0.04672129034022018,
                0.01523096418984045,
                -0.03094861259809971,
                -0.049571370035814084,
                -0.02097758141319811,
                0.035247704330844364,
                -0.04416526862193228,
                0.07788709340582363,
                0.008880487460873887,
                -0.05183778037670472,
                0.038051557315686824,
                -0.06396645876365527,
                -0.01396002683929592,
                0.032075302194912246,
                0.005878838193148396,
                -0.03853677992615692,
                0.009795135615448678,
                -0.03403251502562959,
                -0.06326121299216386,
                0.023441958538938094,
                0.01587527037457683,
                2.045878555662207e-05,
                0.028717277740754717,
                -0.01062071181528616,
                0.03844417680075302,
                0.028863215183419704,
                -0.0153168298782977,
                0.06877196642940571,
                -0.019894322892328554,
                -0.027722761895028872,
                -0.0032640656080481878,
                -0.055864425377997386,
                0.11742005800251361,
                -0.05830072794494871,
                -0.00800091432080744,
                0.07591000548920164,
                -0.034040880419717576,
                0.038695149332700275,
                -0.03146479591069029,
                -0.036885105274427066,
                -0.027474328823035497,
                -0.01919108967798059,
                -0.003013665031085557,
                0.0527178213854671,
                -0.013148465669824732,
                -0.05467133258671674,
                -0.02979746375754117,
                -0.035968968957461996,
                0.021507264268203857,
                -0.026920663963999288,
                0.07339102595725107,
                -0.0021848570421606583,
                -0.03298522473886233,
                0.04784993925474631,
                0.02487068407705771,
                0.013460601866929487,
                -0.00817290591927847,
                -0.045281624060914696,
                -0.08116475616744889,
                0.03305835066844398,
                0.03239580737838796,
                -0.005171587013338391,
                0.029446926094372796,
                0.012361993369755861,
                -0.03164263808459507,
                -0.0023305218423494115,
                0.04781261853238108,
                -0.03795134036094383,
                -0.050118068666059945,
                -0.012627216412417111,
                0.00530572383217679,
                0.00046259759295336943,
                -0.02569279195949571,
                -0.020217205789702306,
                0.05137961983533734,
                -0.007257621705446672,
                0.049346831179220535,
                0.06751899716663402,
                0.006454706242593805,
                0.012409771411037804,
                -0.005825617863495762,
                0.034916399943617143,
                -0.014950598915666942,
                -0.0034657219482562888,
                -0.0020406962718117817,
                0.06337289470923914,
                -0.03839576893124426,
                0.005343550891115399,
                0.07847985631448536,
                0.002735637538790977,
                -0.014547768944439684,
                -0.022979631553829344,
                0.07530338282152461,
                -0.0014712999056374415,
                0.035228396352549096,
                0.046613591168000366,
                -0.04725277756464418,
                0.0014178668612090585,
                -0.05402838078530044,
                0.008642665013261861,
                0.024990679639843916,
                -0.05778064631907925,
                -0.05574694835265028,
                0.03642883297779573,
                0.04605979080433502,
                -0.03213579610121143,
                -0.07398561877572533,
                -0.03492853575547517,
                -0.010514761916467101,
                -0.030674872611042136,
                -0.03671743066212026,
                -0.059477155415855756,
                0.055920823616897306,
                0.040957755935499954,
                -0.0024201173574000903,
                -0.0502166154731692,
                0.029783384526830752,
                0.03977631381346161,
                0.02977631381346158,
                -0.030223686186538416,
                -0.030223686186538416,
                0.019776313813461587,
                0.00977631381346151,
                0.00977631381346151,
                -0.04022368618653839,
                -0.060223686186538394,
                -0.0002236861865385221,
                0.049776313813461606,
                -0.04022368618653839,
                -0.010164304353126614,
                -0.031090872274307225,
                0.04886898968432194,
                -0.021131010315678017,
                0.0597763138134616,
                -0.0502236861865384,
                -0.0002236861865385221,
                -0.060223686186538394,
                0.02977631381346158,
                -0.01022368618653849,
                -0.060223686186538394,
                0.02977631381346158,
                -0.0502236861865384,
                0.0597763138134616,
                0.019776313813461587,
                -0.060223686186538394,
                0.018868989684321984,
                0.008868989684321994,
                -0.031201429825693183,
                -0.018509755544078365,
                -0.04270308589499011,
                0.01879857017430682,
                0.028798570174306815,
                -0.04744992693753868,
                0.013695454325163186,
                -0.03773992791733091,
                0.0579872084585194,
                -0.07426238221895078,
                0.04945515296361363,
                0.028386415176039348,
                0.014725717836306851,
                0.058613825218138245,
                0.01263575411557328,
                -0.006432543086291931,
                0.05964103441225086,
                -0.02985771843288511,
                -0.033165428045812344,
                0.02086989978377875,
                0.049203523685466384,
                -0.030250461541425216,
                -0.060223686186538394,
                -0.000796476314533732,
                -0.04079647631453361,
                -0.010250461541425185,
                0.03977631381346161,
                -0.0302272653885743,
                -0.02025250048827564,
                -0.0176443754247062,
                0.02058228685244825,
                -0.060294105696553774,
                0.019776313813461587,
                -0.0002236861865385221,
                -0.030223686186538416,
                0.049776313813461606,
                0.00977631381346151,
                -0.04022368618653839,
                0.02977631381346158,
                -0.01022368618653849,
                -0.0502236861865384,
                0.02977631381346158,
                -0.0502236861865384,
                -0.04022368618653839,
                -0.04022368618653839,
                0.00977631381346151,
                -0.060223686186538394,
                -0.030223686186538416,
                0.03977631381346161,
                0.02977631381346158,
                -0.0502236861865384,
                0.019776313813461587,
                0.0597763138134616,
                0.0597763138134616,
                -0.060223686186538394,
                0.0597763138134616,
                -0.0502236861865384,
                0.049776313813461606,
                0.03977631381346161,
                0.03977631381346161,
                -0.0502236861865384,
                0.03977631381346161,
                0.0597763138134616,
                -0.0502236861865384,
                0.02977631381346158,
                0.00977631381346151,
                -0.020223686186538414,
                -0.0502236861865384,
                0.019776313813461587,
                -0.04022368618653839,
                0.0597763138134616,
                0.00977631381346151,
                0.0597763138134616,
                0.0597763138134616,
                0.00977631381346151,
                -0.030223686186538416,
                0.02977631381346158,
                -0.0502236861865384,
                -0.01022368618653849,
                0.019776313813461587,
                -0.0002236861865385221,
                0.019776313813461587,
                0.03977631381346161,
                0.00977631381346151,
                -0.020223686186538414,
                0.019776313813461587,
                -0.020223686186538414,
                0.0597763138134616,
                -0.0002236861865385221,
                0.00977631381346151,
                -0.020223686186538414,
                -0.030223686186538416,
                0.00977631381346151,
                0.019776313813461587,
                0.03977631381346161,
                0.02977631381346158,
                -0.030190885265892763,
                -0.06019088526589254,
                0.04717119187407406,
                0.03717119187407406,
                0.024685886133773777,
                0.06341018822184577,
                0.056103647247243746,
                -0.02882000957381529,
                -0.054466166509799734,
                -0.04646850479285218,
                0.011694875179938967,
                0.045400344929036156,
                -0.0338437773467116,
                -0.05290601913590893,
                0.009749538458574816,
                0.04873319092252665,
                -0.05319259797198585,
                0.006807402028013907,
                0.030522856077382695,
                0.03332810397500283,
                -0.019106295833287927,
                0.03530173342317246,
                -0.0364341116477445,
                0.026310909915686284,
                0.055810430496055184,
                0.0022622026153782844,
                -0.05785248461874046,
                -0.049287817574874326,
                -0.02059978233800298,
                -0.015163672719110536,
                0.006807402028013907,
                -0.0032193733268727374,
                -0.020223686186538414,
                -0.030223686186538416,
                -0.030223686186538416,
                -0.020223686186538414,
                -0.030223686186538416,
                0.0597763138134616,
                0.00977631381346151,
                -0.060223686186538394,
                0.019776313813461587,
                0.00977631381346151,
                -0.060223686186538394,
                0.019776313813461587,
                0.03977631381346161,
                -0.0002236861865385221,
                -0.04022368618653839,
                0.0597763138134616,
                -0.04022368618653839,
                0.00977631381346151,
                0.02977631381346158,
                -0.030223686186538416,
                0.03977631381346161,
                0.02977631381346158,
                -0.060223686186538394,
                -0.04022368618653839,
                -0.030223686186538416,
                -0.030223686186538416,
                0.019776313813461587,
                0.02977631381346158,
                0.03977631381346161,
                -0.020223686186538414,
                0.019776313813461587,
                0.00977631381346151,
                -0.020223686186538414,
                0.00977631381346151,
                -0.020223686186538414,
                0.00977631381346151,
                0.00977631381346151,
                0.049776313813461606,
                0.049776313813461606,
                0.03977631381346161,
                -0.030223686186538416,
                -0.01022368618653849,
                0.02977631381346158,
                -0.060223686186538394,
                0.03977631381346161,
                0.0597763138134616,
                -0.020223686186538414,
                0.049776313813461606,
                -0.04317184906969512,
                -0.020026019443270107,
                0.055505149450337916,
                -0.04317184906969512,
                0.006807402028013907,
                0.04680740202801416,
                -0.06551431225355117,
                -0.004515599451952694,
                -0.0023431138568025542,
                -0.026078731242416216,
                -0.0044198250738157795,
                0.07224278127262423,
                -0.04118563932823834,
                0.060570606291048275,
                0.0603748722730309,
                0.05917638349439498,
                0.03706273613302048,
                0.027524882788159743,
                -0.04865492848288004,
                -0.008884985153217466,
                0.019994729459020484,
                -0.013171849069695377,
                0.016807402028014146,
                0.004058343818557518,
                0.05411618424151273,
                0.04680740202801416,
                -0.06319259797198606,
                -0.05057300698311596,
                0.010383577303448882,
                -0.028378859930540058,
                -0.02622294277084459,
                -0.013033599486062263,
                -0.03281589931385118,
                -0.005624138686594122,
                0.0265865739181006,
                0.01642629201257038,
                0.060667089547096556,
                0.001939065867889342,
                0.056857715050732206,
                0.08290949674576618,
                -0.013064479339096146,
                0.06896156733000927,
                -0.05463878173156325,
                0.028865242883080833,
                0.0752349188398297,
                -0.02052813367292522,
                -0.010919013846567238,
                0.08381457514140868,
                0.02274501517995085,
                0.026178360297004398,
                -0.07823746787594278,
                0.03897424840343213,
                -0.04122446054870782,
                0.0074842656701054515,
                0.014091520758103727,
                0.010379044089287305,
                -0.019344528959597717,
                -0.023989782067251303,
                -0.07648239735566084,
                0.03705602143590638,
                -0.011607033158448129,
                -0.06149695548207005,
                -0.009534479331389963,
                -0.06566162021173004,
                0.015439442081698566,
                0.03493834967994313,
                -0.03510068700764574,
                -0.00697898375190386,
                0.021340334758351256,
                -0.06406185029325324,
                -0.011632365893942377,
                0.022698250118117866,
                -0.007011812517197819,
                0.04603736883450349,
                0.06347870707041744,
                -0.056281660761372976,
                -0.05363874388701932,
                0.04101888370208238,
                -0.05011032943882134,
                0.05627023353687708,
                0.015812293467013468,
                -0.035946203240383834,
                -0.03267712450747363,
                0.0022270553390641187,
                0.04167969289255995,
                0.04926962726280847,
                -0.027698817711573526,
                -0.032171724507640144,
                -0.04769827474552726,
                0.0411592988588795,
                -0.021194950176099597,
                -0.04207717386989002,
                0.03728040443397206,
                -0.012650775134748417,
                0.05411159533229194,
                0.036586015065433505,
                -0.022224077192047356,
                0.011429947120461975,
                -0.01500613499727731,
                0.003505328903924988,
                -0.024797278997052124,
                -0.050234269976970294,
                0.05789515271614364,
                0.017389746534535136,
                -0.03546954425210884,
                -0.027635829287906536,
                -0.0021048472838566374,
                0.05312472975028858,
                -0.01536034365683741,
                0.02308404396855853,
                0.057159011635658084,
                0.0015798305934835405,
                0.04907410896951742,
                0.0664961320826783,
                -0.008825862026063603,
                0.03914171517108166,
                -0.029953472345302636,
                0.05493950909486754,
                -0.03588558470454641,
                0.057148663937265066,
                0.049795356654274626,
                0.05842862454226004,
                0.047251426766773616,
                -0.03280473534051268,
                -0.052800899483560405,
                0.006677953671519022,
                0.02936029515281875,
                -0.0027447373762744362,
                -0.020223686186538414,
                0.019776313813461587,
                -0.0502236861865384,
                -0.0502236861865384,
                -0.030223686186538416,
                0.00977631381346151,
                0.019776313813461587,
                0.03977631381346161,
                -0.01022368618653849,
                -0.020223686186538414,
                0.02977631381346158,
                -0.020223686186538414,
                -0.030223686186538416,
                -0.0502236861865384,
                -0.04022368618653839,
                -0.020223686186538414,
                0.03977631381346161,
                0.03977631381346161,
                -0.01022368618653849,
                -0.0002236861865385221,
                0.049776313813461606,
                -0.01022368618653849,
                0.00977631381346151,
                -0.04022368618653839,
                -0.0002236861865385221,
                -0.01022368618653849,
                -0.0502236861865384,
                0.03977631381346161,
                0.02977631381346158,
                0.03977631381346161,
                -0.01022368618653849,
                0.019776313813461587,
                0.019776313813461587,
                0.049776313813461606,
                0.019776313813461587,
                0.00977631381346151,
                0.00977631381346151,
                0.00977631381346151,
                0.049776313813461606,
                0.03977631381346161,
                0.019776313813461587,
                -0.04022368618653839,
                -0.04022368618653839,
                0.019776313813461587,
                -0.04022368618653839,
                0.03977631381346161,
                0.03977631381346161,
                -0.020223686186538414,
                -0.05022892404402863,
                -0.030223686186538416,
                0.008841047147536736,
                -0.033600167094834196,
                -0.04501005400103022,
                -0.01911116574195232,
                0.004318814564166117,
                -0.05384240978841691,
                -0.0004067091453395444,
                0.02547342750299228,
                -0.030223686186538416,
                -0.04022368618653839,
                0.049776313813461606,
                -0.050370460740340794,
                -0.04022368618653839,
                -0.0002236861865385221,
                -0.0002236861865385221,
                -0.04022368618653839,
                0.019776313813461587,
                0.049776313813461606,
                0.00977631381346151,
                -0.060223686186538394,
                -0.060223686186538394,
                0.00977631381346151,
                0.0597763138134616,
                0.019776313813461587,
                0.03977631381346161,
                -0.0502236861865384,
                0.03977631381346161,
                0.019776313813461587,
                0.03977631381346161,
                -0.020223686186538414,
                -0.020223686186538414,
                -0.04022368618653839,
                -0.0502236861865384,
                -0.04022368618653839,
                0.02977631381346158,
                -0.04022368618653839,
                0.03977631381346161,
                0.019776313813461587,
                -0.0002236861865385221,
                -0.0002236861865385221,
                0.019776313813461587,
                0.019776313813461587,
                0.03977631381346161,
                0.0597763138134616,
                -0.030223686186538416,
                -0.04022368618653839
            ],
            [
                0.032577618376393724,
                0.012577618376393781,
                0.052577618376393714,
                -0.03742238162360638,
                0.032577618376393724,
                0.04257761837639372,
                0.02257761837639363,
                0.012577618376393781,
                0.012577618376393781,
                -0.02742238162360638,
                -0.0674223816236054,
                0.052577618376393714,
                -0.03742238162360638,
                -0.017422381623606365,
                -0.02742238162360638,
                0.0025776183763936973,
                0.052577618376393714,
                0.012577618376393781,
                -0.057422381623606286,
                -0.04742238162360628,
                -0.007422381623606268,
                -0.03742238162360638,
                0.02257761837639363,
                -0.057422381623606286,
                0.032577618376393724,
                0.02257761837639363,
                -0.05810914380637747,
                -0.06810914380637663,
                -0.006150169431914967,
                0.052577618376393714,
                0.012577618376393781,
                0.027219397010441897,
                0.027219397010441897,
                -0.055742080773076366,
                -0.010366706532961529,
                0.036061289013224945,
                -0.08013329168648892,
                -0.024162250861240662,
                -0.014814693071090899,
                0.04117070667140755,
                -0.021420847295816017,
                0.028032828215288127,
                0.0745985609736775,
                -0.012630571485794266,
                0.009559302024613468,
                -0.020638883269199652,
                0.011033142777815988,
                -0.06896685722218378,
                0.0025776183763936973,
                -0.02742238162360638,
                -0.04742238162360628,
                0.032577618376393724,
                -0.017422381623606365,
                0.04257761837639372,
                -0.02742238162360638,
                0.0025776183763936973,
                -0.007422381623606268,
                0.032577618376393724,
                0.012577618376393781,
                -0.057422381623606286,
                0.02257761837639363,
                -0.04742238162360628,
                0.04257761837639372,
                -0.02742238162360638,
                0.032577618376393724,
                -0.02742238162360638,
                0.02257761837639363,
                -0.03742238162360638,
                -0.017422381623606365,
                -0.0674223816236054,
                0.032577618376393724,
                -0.017422381623606365,
                -0.017422381623606365,
                -0.017422381623606365,
                -0.03742238162360638,
                0.012577618376393781,
                0.052577618376393714,
                0.04257761837639372,
                -0.04742238162360628,
                -0.03742238162360638,
                0.02257761837639363,
                -0.04742238162360628,
                0.052577618376393714,
                -0.03742238162360638,
                0.0025776183763936973,
                -0.007422381623606268,
                -0.007422381623606268,
                -0.057422381623606286,
                0.032577618376393724,
                0.02257761837639363,
                0.04257761837639372,
                0.0025776183763936973,
                -0.007422381623606268,
                -0.017422381623606365,
                -0.017422381623606365,
                -0.007422381623606268,
                0.031133545524323642,
                -0.01852078454568135,
                -0.004523731283673905,
                0.07097604572047268,
                -0.04935779503885077,
                0.021032157719620942,
                0.0010258635137995712,
                0.07071724215051872,
                0.012843120687546273,
                0.028547968933496908,
                -0.10287035997857555,
                -0.09148384781785297,
                -0.033602235822632893,
                0.017277796528156596,
                0.014882496658944682,
                -0.008795374097732614,
                -0.0035844721889188398,
                0.09677027232950046,
                -0.117470270944079,
                -0.0336027147074797,
                -0.11101156695477395,
                -0.05178351862645272,
                -0.02978600764839633,
                -0.0737729479186269,
                0.006121015218440658,
                0.015591494159343076,
                -0.06086279411375764,
                0.0515113663369413,
                0.04427266119629885,
                -0.07599177027739147,
                -0.04258053458338914,
                0.03388314988775108,
                0.037269729636691236,
                0.06485396098484533,
                -0.03502281310278606,
                -0.03742948859248663,
                0.1227559225244127,
                0.10492784739214987,
                -0.059076268244540035,
                -0.01340497447913431,
                0.10329738111190312,
                -0.012348679873710043,
                -0.002063249066912476,
                0.04105595505136107,
                -0.02294315406712469,
                -0.06318471387344532,
                0.11592476243084451,
                0.02744065924569247,
                0.0012539050477002231,
                -0.041674262047080565,
                -0.011924712876925564,
                0.002740240244274173,
                0.002289826408706621,
                -0.04649523693614835,
                0.12524596256455564,
                -0.0024283287326749025,
                0.022294118877841784,
                0.013026660185775358,
                -0.10079830799427703,
                -0.07464388384643392,
                0.05556836020440668,
                -0.014332906326577717,
                0.07842525538271776,
                0.143105235727115,
                -0.006633892337580757,
                0.03675306616493683,
                -0.03150896509826173,
                -0.057391040387571625,
                -0.0951025669246411,
                -0.07072351786433446,
                0.08810523189604941,
                0.0695358996148924,
                0.01818203361218971,
                -0.06558200536986956,
                -0.028651663480321776,
                0.03244972484167216,
                0.027987748004078477,
                0.026326115274884144,
                -0.07105463210365325,
                0.10989849937419865,
                0.0900402035608844,
                -0.05223538349507971,
                -0.013517832502423914,
                0.058119680433172956,
                -0.021887755439943247,
                0.06729313231585188,
                -0.05209318147413872,
                0.00458291119340679,
                0.022556282215171076,
                0.0908715698636438,
                -0.013624974954776036,
                0.05897285812632611,
                -0.07970194169987169,
                -0.05769947854508489,
                0.11355512363202004,
                -0.013458279262638043,
                0.11086187383155245,
                -0.014890390426285326,
                -0.07501630020856785,
                -0.020260250036091266,
                -0.1363870523374695,
                -0.04380711862925785,
                -0.09054023347894508,
                -0.060357576305721326,
                -0.11120760842723387,
                -0.09926900467059278,
                -0.019269004670592404,
                -0.05053814850636505,
                0.003102673534865595,
                -0.000431843928499356,
                -0.0057515811606850915,
                0.004025022598291164,
                -0.06985963078022908,
                0.0329920882575319,
                0.09698404367902388,
                -0.049181755487044926,
                -0.023437284921240156,
                -0.012537628934896005,
                0.005556283853014807,
                0.04371911189623973,
                -0.028665576528112562,
                0.009052450496853479,
                -0.08243447669619962,
                0.01652972286980698,
                -0.030054579660828525,
                -0.026589927668593496,
                -0.0016404609936241203,
                0.010409625882493728,
                -0.05810914380637747,
                -0.02742238162360638,
                0.032577618376393724,
                -0.04810914380637743,
                0.001890856193622329,
                -0.02810914380637771,
                0.02257761837639363,
                -0.04742238162360628,
                -0.017422381623606365,
                -0.02742238162360638,
                0.02257761837639363,
                0.02257761837639363,
                0.032577618376393724,
                -0.0674223816236054,
                -0.007422381623606268,
                -0.04742238162360628,
                -0.057422381623606286,
                -0.007422381623606268,
                -0.0674223816236054,
                -0.007422381623606268,
                -0.057422381623606286,
                -0.02810914380637771,
                0.034812074259807334,
                -0.057422381623606286,
                -0.007422381623606268,
                0.04590177121438338,
                -0.05518792574019268,
                0.052577618376393714,
                -0.0674223816236054,
                -0.017422381623606365,
                -0.02742238162360638,
                -0.017422381623606365,
                -0.017422381623606365,
                -0.007422381623606268,
                -0.03742238162360638,
                -0.017422381623606365,
                0.052577618376393714,
                -0.057422381623606286,
                -0.04742238162360628,
                -0.03742238162360638,
                -0.02742238162360638,
                -0.03742238162360638,
                -0.05126466526109365,
                -0.07659320607791222,
                -0.005789007165360815,
                -0.02742238162360638,
                -0.04742238162360628,
                0.0512705791844385,
                -0.018736297450554967,
                -0.022414875095084833,
                -0.026322943847661547,
                -0.0531612861834124,
                -0.024361153224043253,
                0.00589063391061511,
                -0.11529097157143144,
                -0.1205932705719616,
                0.06321041805275034,
                0.04190039080861226,
                -0.06369316882216,
                -0.09397505095103134,
                0.03179876319152086,
                0.04092037672880728,
                0.0058202716091168725,
                -0.01756673211734751,
                -0.03297007210186416,
                0.04010380638321523,
                0.04296561109289889,
                0.11264161225883289,
                0.012990440125819498,
                0.016163786285094645,
                0.006499157410191295,
                0.08755486650104811,
                0.12147737409983426,
                0.03756230879312657,
                -0.014830331884459758,
                -0.027316317453522632,
                -0.002199014551646288,
                0.04938369905673031,
                -0.0992184411977668,
                -0.047469443353783544,
                -0.030174968306517645,
                -0.0674223816236054,
                -0.017422381623606365,
                0.008735334738906616,
                0.018735334738906526,
                0.048735334738906344,
                -0.007422381623606268,
                0.052577618376393714,
                0.0025776183763936973,
                -0.017422381623606365,
                -0.017422381623606365,
                -0.0674223816236054,
                0.04257761837639372,
                0.012577618376393781,
                0.04257761837639372,
                0.032577618376393724,
                0.012577618376393781,
                0.04257761837639372,
                -0.02742238162360638,
                0.052577618376393714,
                0.052577618376393714,
                0.04982503169348239,
                0.019825031693482358,
                0.012577618376393781,
                0.032577618376393724,
                -0.030174968306517645,
                -0.030174968306517645,
                -0.057422381623606286,
                -0.007422381623606268,
                0.032577618376393724,
                0.04257761837639372,
                -0.057422381623606286,
                -0.03742238162360638,
                0.0025776183763936973,
                -0.017422381623606365,
                -0.0674223816236054,
                -0.03742238162360638,
                0.02257761837639363,
                0.02257761837639363,
                -0.057422381623606286,
                0.0025776183763936973,
                0.0025776183763936973,
                0.052577618376393714,
                -0.0674223816236054,
                -0.04742238162360628,
                0.012577618376393781,
                0.032577618376393724,
                -0.04742238162360628,
                -0.03742238162360638,
                -0.07268601959840978,
                0.012577618376393781,
                0.02257761837639363,
                -0.03742238162360638,
                0.052577618376393714,
                -0.057422381623606286,
                0.0025776183763936973,
                -0.017422381623606365,
                -0.057422381623606286,
                0.04257761837639372,
                0.04257761837639372,
                -0.007422381623606268,
                -0.007422381623606268,
                -0.03268601959841092,
                -0.052686019598410745,
                -0.05051893186612854,
                -0.014639984924732452,
                -0.006491424997411225,
                -0.01017496830651746,
                -0.005438606281322072,
                -0.01017496830651746,
                0.05198413984702085,
                -0.031708882909041114,
                0.0038389137051615826,
                -0.04854305909088356,
                -0.05178916475759778,
                -0.010387669537790857,
                -0.018002735070014188,
                -0.029892562810972686,
                0.0163649769158037,
                0.019814552710806482,
                0.0012319871671026656,
                -0.03209570988360255,
                -0.03580849138375749,
                0.0983011199242781,
                -0.06589018218970974,
                0.030403001606032716,
                5.533186742111675e-05,
                -0.010416302202622477,
                -0.03500740370882723,
                -0.05178621480951321,
                -0.009297753784921712,
                -0.018478730451050692,
                -0.047194984339391365,
                0.0248834527961551,
                0.03303315238681329,
                -0.005825778016696274,
                0.017313980401589126,
                -0.0626860195984108,
                0.032577618376393724,
                0.012577618376393781,
                -0.02742238162360638,
                -0.017422381623606365,
                -0.02742238162360638,
                0.0025776183763936973,
                0.032577618376393724,
                -0.0674223816236054,
                -0.03742238162360638,
                -0.02742238162360638,
                0.02257761837639363,
                0.0025776183763936973,
                -0.02268601959841084,
                -0.0026860195984107,
                -0.052310144274213856,
                -0.052310144274213856,
                0.04257761837639372,
                -0.007422381623606268,
                -0.04742238162360628,
                0.052577618376393714,
                -0.017422381623606365,
                0.02257761837639363,
                0.0025776183763936973,
                -0.007422381623606268,
                -0.017422381623606365,
                0.012577618376393781,
                0.032577618376393724,
                0.04257761837639372,
                0.017689855725786078,
                -0.018118895919169428,
                -0.08255513911391325,
                -0.00819078536626529,
                0.06750682076910096,
                0.08236962232460848,
                0.03853640871873997,
                -0.008056652526221165,
                -0.04347454198396786,
                -0.0706779473809897,
                -0.01994460194768373,
                0.022974579320472872,
                0.017219092503257434,
                0.09364662087748225,
                0.047950665282224976,
                -0.07357386841637191,
                -0.01178589323960618,
                0.06613193110391773,
                0.07672433871798963,
                -0.016551702471057677,
                0.003826512563007976,
                -0.0718819584858362,
                0.15526045115726228,
                -0.014432833746012926,
                0.08143844249070298,
                1.2330870111385204e-05,
                -0.03586143718504154,
                -0.11307583663805419,
                0.061898888827117776,
                0.11874434351412085,
                -0.11458953587129808,
                -0.0559695143886378,
                0.048994714040431736,
                -0.05535523394248308,
                0.008099408972472931,
                -0.03239803436368232,
                0.1635601773314604,
                -0.013500536778605613,
                0.06409661722832626,
                0.048462660753482704,
                0.05116666507620037,
                0.011800530299451016,
                0.05848479544700089,
                0.046351047235479156,
                -0.036495084335040964,
                -0.002618087250683357,
                0.044120998491027075,
                -0.003133255195825706,
                -0.022297381168656462,
                0.04225660093278918,
                0.05500436638290553,
                -0.13655790554357902,
                0.08789727357461358,
                0.0403259566316049,
                -0.0015312964115374863,
                -0.012928217321451073,
                0.03649067917117847,
                -0.04850613598729278,
                0.030347994464163475,
                -0.00033892704580152657,
                -0.10104339133787553,
                -0.0031042032971455606,
                0.01233974482175852,
                -0.004773855319581153,
                -0.026449690093916095,
                -0.16461801571483206,
                -0.0491761739439544,
                -0.0031345161600285706,
                0.08798485371013631,
                0.11347773740872236,
                -0.09467153496582247,
                0.07191998772085097,
                0.0669260693237498,
                0.001758793498434172,
                -0.05393475311129266,
                0.08341936401201579,
                -0.04562824074429127,
                -0.060957393798780166,
                0.09420788736706054,
                0.08148986127434583,
                0.006777907700302319,
                0.0145739412146166,
                -0.07612951856475371,
                -0.019037655631023612,
                0.02469996613999793,
                0.05126599152618919,
                -0.05246459852649649,
                -0.05337396756848612,
                -0.025029708541276872,
                0.017261199589465127,
                -0.03600771126644956,
                0.02716897557820544,
                0.009016401351648117,
                -0.030180641428596465,
                0.0025370589317672007,
                0.007296005077261856,
                0.06582130951465621,
                0.009705810124075112,
                0.046298798789660034,
                -0.10605591701245397,
                -0.01684072793936984,
                -0.016775996886991485,
                -0.07607648465171274,
                0.03127354569717166,
                0.027761068120987373,
                -0.04250712127839526,
                0.007928525201080365,
                -0.081333518322116,
                -0.04634588979429487,
                0.052745819873428815,
                -0.11321351126249542,
                0.02123881006370047,
                0.08380953984591004,
                0.06635591194315799,
                6.424262467936669e-05,
                -0.03866182711266776,
                -0.011098261745035677,
                -0.04128390725257578,
                -0.05914952722063007,
                -0.00716261917899245,
                0.10493293334308927,
                -0.03344846007315549,
                -0.05528673879282565,
                0.04685898675543883,
                0.11621421463470338,
                0.0029948162960937584,
                -0.016785362606326695,
                0.02487304640867677,
                0.0298509968636005,
                -0.017819803242655714,
                -0.04240805210336594,
                -0.06735367756609713,
                0.03882686203532359,
                -0.010964519220854925,
                0.04640801995199056,
                -0.0014462905073144483,
                -0.03919048580772865,
                -0.036818331170984646,
                -0.10131197239801502,
                -0.0967443409098938,
                0.07782690248132083,
                -0.047684676945976306,
                -0.04779734010236632,
                -0.02229511177371463,
                -0.09316496019885095,
                -0.027157452816003392,
                -0.044531161097560404,
                -0.06859579254596095,
                -0.03849587409119708,
                -0.04695772283811583,
                -0.04866502475838077,
