{
    "layer1": {
        "weights": [
            [
                0.03980392848052012,
                0.049803928480520114,
                0.05980392848052011,
                0.03980392848052012,
                0.03980392848052012,
                -0.030196071519479725,
                -0.05019607151947989,
                0.05980392848052011,
                0.029803928480520315,
                0.049803928480520114,
                -0.04019607151947988,
                0.009803928480520276,
                0.049803928480520114,
                -0.060196071519479886,
                -0.02019607151947968,
                -0.05019607151947989,
                0.01980392848052032,
                -0.060196071519479886,
                0.009803928480520276,
                0.05980392848052011,
                -0.04019607151947988,
                -0.05019607151947989,
                -0.060196071519479886,
                0.01980392848052032,
                -0.02019607151947968,
                0.05980392848052011,
                0.0005134502084927699,
                -0.049486549791507295,
                0.03893339307813419,
                -0.010196071519479724,
                0.01980392848052032,
                0.05515325844086691,
                0.025153258440867042,
                0.026021471994634296,
                -0.013471016859943931,
                0.025954234792155403,
                0.03439443021715037,
                -0.05229497728613228,
                0.0687034400290893,
                -0.0015014623505242906,
                -0.04869308262247526,
                -0.006724395387321154,
                -0.06616288194780738,
                -0.11073012785756696,
                0.027311205526479476,
                0.06644676074925214,
                -0.003957797231942765,
                0.03604220276805711,
                -0.05019607151947989,
                -0.010196071519479724,
                0.049803928480520114,
                0.049803928480520114,
                -0.010196071519479724,
                -0.060196071519479886,
                -0.05019607151947989,
                0.05980392848052011,
                0.009803928480520276,
                0.029803928480520315,
                -0.05019607151947989,
                -0.010196071519479724,
                -0.060196071519479886,
                -0.02019607151947968,
                0.029803928480520315,
                0.009803928480520276,
                -0.05019607151947989,
                0.029803928480520315,
                0.029803928480520315,
                -0.00019607151947963826,
                0.009803928480520276,
                -0.010196071519479724,
                0.049803928480520114,
                -0.010196071519479724,
                -0.02019607151947968,
                0.03980392848052012,
                0.01980392848052032,
                -0.010196071519479724,
                -0.04019607151947988,
                -0.030196071519479725,
                0.009803928480520276,
                -0.060196071519479886,
                0.029803928480520315,
                -0.05019607151947989,
                -0.00019607151947963826,
                -0.04019607151947988,
                -0.010196071519479724,
                -0.02019607151947968,
                0.05980392848052011,
                -0.02019607151947968,
                0.03980392848052012,
                0.049803928480520114,
                0.049803928480520114,
                -0.04019607151947988,
                0.009803928480520276,
                -0.04019607151947988,
                -0.030196071519479725,
                -0.02019607151947968,
                -0.04450362805578718,
                0.037253327086877286,
                -0.03951988188053549,
                0.010030998479859487,
                0.005073963461157538,
                0.05539526075449061,
                0.09117688146476578,
                0.01413907153011016,
                -0.018772893856541472,
                0.009251289344877468,
                0.05990344108018149,
                -0.055724845481351135,
                -0.05437776776579316,
                0.025800227465104485,
                0.06188201383904623,
                0.09232464122356589,
                -0.04174390906820909,
                -0.05168612296867424,
                -0.08746246143174527,
                -0.08556601363500566,
                0.001792262832119683,
                -0.01299022914986518,
                -0.03488957846871424,
                0.04034330226331598,
                0.031009179818780718,
                -0.04395246849772437,
                0.06609331614584214,
                0.01737148629003476,
                -0.05214591153543256,
                0.006835291654035972,
                -0.003864984046777343,
                -0.08220337162167837,
                -0.02244654659805171,
                0.022962462394703002,
                -0.04320685450206261,
                -0.049344763517055336,
                -0.11280151666673398,
                -0.05665573027238696,
                0.008063253241890488,
                -0.009185159202903146,
                -0.015723442449009552,
                0.04391977439140643,
                -0.017938765972907857,
                0.028901172913049222,
                -0.052540456781517225,
                -0.12819965605201716,
                -0.029365479456020176,
                -0.0803006528767843,
                -0.013593114427993828,
                -0.10213145036031145,
                -0.027551118344542967,
                -0.07247510754883058,
                -0.025332384708514115,
                -0.041481683754549255,
                -0.08774619354771807,
                -0.13220579227023962,
                0.02987985924626083,
                0.11906658850671949,
                0.061872033101118495,
                -0.07959857230241607,
                0.11334295822309984,
                0.04065978478703444,
                0.05974030862755342,
                0.06838423647209274,
                0.025239243172012208,
                0.14327977361155006,
                0.22460307997373602,
                0.06603184684283897,
                0.004895376760527343,
                0.1870204128134911,
                0.23793039268511665,
                -0.016250942620514654,
                -0.35582449233605723,
                -0.011568152984860535,
                0.15086054619785574,
                -0.23118641258502587,
                0.07638686620868725,
                -0.03463708562403634,
                -0.012283457139461038,
                -0.014054356129660167,
                -0.06274214018594246,
                -0.010526578685511146,
                -0.06968501510726362,
                -0.06717799348223268,
                0.03200530490224917,
                0.015378225882194741,
                -0.04927302331982202,
                -0.05222566531359967,
                -0.015217906813678713,
                -0.01488385108525092,
                -0.05405363996004194,
                0.01370997657426492,
                -0.03012628764375562,
                0.05047912660021127,
                0.03553474795095109,
                0.007383300966370329,
                -0.023894110721475736,
                -0.035399969077254026,
                -0.1010414903876295,
                -0.048725270764512274,
                -0.04854316791498543,
                -0.03059458484639245,
                -0.05041438609424608,
                -0.020216666436718645,
                -0.023453314254527558,
                -0.0009136273188944193,
                -0.0009136273188944193,
                -0.0781218593744299,
                -0.005321731902213658,
                -0.14202441851914266,
                0.06905727006674858,
                0.008644268756660484,
                0.03846226173710912,
                -0.03494832202674206,
                -0.11031600473717172,
                -0.046993044432780524,
                -0.0755488450829037,
                -0.02226161879743429,
                0.04132778766093292,
                -0.09883117466769158,
                -0.044656382256830184,
                -0.017711372732428215,
                0.017854137174162017,
                0.047705143791094785,
                -0.04205442830723275,
                -0.03735285058357835,
                -0.005629136907171086,
                -0.05170788636079522,
                0.020513450208492528,
                0.03980392848052012,
                -0.00019607151947963826,
                0.030513450208492655,
                0.010513450208492751,
                0.0005134502084927699,
                0.05980392848052011,
                0.05980392848052011,
                0.01980392848052032,
                0.01980392848052032,
                0.03980392848052012,
                -0.04019607151947988,
                -0.02019607151947968,
                0.05980392848052011,
                -0.04019607151947988,
                -0.060196071519479886,
                -0.05019607151947989,
                -0.05019607151947989,
                0.029803928480520315,
                -0.010196071519479724,
                0.049803928480520114,
                0.0705134502084927,
                0.0207542747267759,
                0.01980392848052032,
                -0.00019607151947963826,
                0.06034688540278674,
                -0.0492457252732238,
                0.049803928480520114,
                -0.05019607151947989,
                -0.05019607151947989,
                -0.05019607151947989,
                -0.02019607151947968,
                0.009803928480520276,
                -0.02019607151947968,
                0.049803928480520114,
                -0.05019607151947989,
                0.029803928480520315,
                -0.05019607151947989,
                0.01980392848052032,
                -0.04019607151947988,
                0.05980392848052011,
                -0.030196071519479725,
                0.00023067192433222263,
                -0.04440913630804236,
                -0.02656196386931343,
                -0.02019607151947968,
                0.049803928480520114,
                0.02128402487063245,
                -0.04902619380822997,
                0.02855128863491045,
                -0.06890439952459522,
                -0.0748488098689187,
                0.00065882236536269,
                0.13995457909747047,
                0.18599528238312432,
                0.0018121254796376065,
                -0.0529778696177587,
                0.09165260628981642,
                0.08557350574157523,
                -0.1158997669623655,
                -0.03327961766863573,
                -0.11694348832412992,
                -0.053290068637871946,
                -0.020560766578827296,
                0.059999041226533226,
                -0.042254912409045615,
                -0.08809159003004378,
                -0.015840620238189905,
                -0.07178381869171835,
                0.022546982396633657,
                0.040136746665476786,
                -0.07971042850002973,
                -0.06896958941796218,
                -0.029745007753599697,
                0.025779856958300047,
                -0.03742300149222824,
                -0.005529723816622899,
                -0.05820093475817108,
                0.03912661003970977,
                -0.010995777082669847,
                -0.0001767173996571824,
                0.01980392848052032,
                0.049803928480520114,
                0.04023067192433191,
                0.0602306719243319,
                0.00023067192433222263,
                -0.010196071519479724,
                0.049803928480520114,
                0.049803928480520114,
                0.049803928480520114,
                0.05980392848052011,
                -0.010196071519479724,
                0.029803928480520315,
                -0.00019607151947963826,
                -0.00019607151947963826,
                -0.030196071519479725,
                -0.04019607151947988,
                0.029803928480520315,
                -0.060196071519479886,
                0.01980392848052032,
                -0.060196071519479886,
                0.03982328260034245,
                0.03982328260034245,
                0.01980392848052032,
                -0.02019607151947968,
                -0.030176717399657247,
                -0.04017671739965755,
                0.05980392848052011,
                -0.02019607151947968,
                0.029803928480520315,
                0.01980392848052032,
                0.05980392848052011,
                0.05980392848052011,
                -0.00019607151947963826,
                -0.05019607151947989,
                -0.02019607151947968,
                0.05980392848052011,
                -0.05019607151947989,
                0.03980392848052012,
                -0.02019607151947968,
                -0.010196071519479724,
                -0.02019607151947968,
                0.01980392848052032,
                0.01980392848052032,
                -0.010196071519479724,
                0.049803928480520114,
                -0.02019607151947968,
                0.03980392848052012,
                -0.04019607151947988,
                -0.005134797551429276,
                0.03980392848052012,
                -0.030196071519479725,
                0.049803928480520114,
                -0.02019607151947968,
                0.05980392848052011,
                0.029803928480520315,
                0.01980392848052032,
                0.049803928480520114,
                -0.030196071519479725,
                -0.05019607151947989,
                0.009803928480520276,
                0.029803928480520315,
                -0.005134797551429276,
                0.054865202448570564,
                -0.06015105181323496,
                -0.01907625301372543,
                -0.052993501422098424,
                -0.06017671739965754,
                -0.05511544343160705,
                0.03982328260034245,
                0.04978010295469787,
                0.051110976441175515,
                0.029464031252766577,
                -0.06006741937850623,
                -0.002250628701349006,
                0.04672280468323247,
                0.004826835227798628,
                -0.03260969392899574,
                -0.04633679447717499,
                0.09767284934222674,
                0.1430353496104495,
                -0.05770854431200102,
                -0.13681079837534943,
                0.04168563501887461,
                0.02270721043395621,
                0.14327190505250534,
                -0.17364998121209965,
                -0.2111447374077294,
                0.022995710036044042,
                -0.016939982532397823,
                -0.009983820350118862,
                0.007007474538935618,
                -0.05130146913518572,
                0.029339299821082177,
                0.07491022616992252,
                0.03662595656325707,
                0.054865202448570564,
                0.024865202448570628,
                0.03980392848052012,
                0.049803928480520114,
                -0.00019607151947963826,
                0.009803928480520276,
                0.05980392848052011,
                0.01980392848052032,
                -0.060196071519479886,
                -0.00019607151947963826,
                0.049803928480520114,
                0.009803928480520276,
                -0.030196071519479725,
                -0.060196071519479886,
                -0.04513479755142944,
                -0.025134797551429368,
                -0.06489233016107585,
                0.005107669838924774,
                -0.030196071519479725,
                -0.00019607151947963826,
                0.05980392848052011,
                0.049803928480520114,
                -0.04019607151947988,
                -0.060196071519479886,
                0.01980392848052032,
                0.049803928480520114,
                -0.04019607151947988,
                0.009803928480520276,
                0.05980392848052011,
                0.03980392848052012,
                -0.024892330161075463,
                -0.017272562831500568,
                0.09449359834277594,
                -0.0050672605697069635,
                0.007593626173066787,
                -0.08395570013503276,
                0.02495992816422339,
                0.0032702789089894494,
                0.03954587287891245,
                0.10021144493508101,
                -0.1195353204130138,
                -0.06944334970500385,
                0.2016224618850508,
                0.1509782735834889,
                0.22198456054486007,
                -0.1476134945638492,
                -0.01774953232651693,
                0.16462010683614253,
                -0.015104991936009997,
                -0.115781557812091,
                -0.14722415099109534,
                -0.0021098328212441706,
                0.06817898574906793,
                0.10927691769942897,
                -0.1940255495919598,
                -0.025916842362669612,
                0.18480518560341863,
                -0.004404701092521969,
                -0.0029346991747115627,
                0.025563648483858347,
                -0.016068318381280755,
                -0.07401944305013984,
                -0.041964855884495174,
                0.13355549082482,
                -0.071210314359691,
                -0.11480761028580506,
                -0.16220939431677675,
                -0.06827343123262772,
                -0.02235512668086754,
                0.08888027793146813,
                0.02492783773044354,
                -0.11252721565258178,
                0.16188170689540798,
                0.06371134900624088,
                0.02680526710110184,
                0.02387482080319549,
                -0.09259402959112237,
                0.07741233208641352,
                -0.02709399023598967,
                -0.15801911284890974,
                0.0257163307728315,
                -0.028133637791623922,
                -0.1658829282475792,
                0.08999198945349735,
                -0.03707957532070298,
                0.01896395753443109,
                0.025797502913340483,
                0.029758568457919393,
                -0.02294256097070035,
                0.11488812308567083,
                0.1526990191028789,
                0.0161916925053113,
                -0.06482347381792794,
                -0.06333455801500047,
                -0.02337446409726,
                0.03403478798927296,
                0.0393453094406684,
                0.15116708026470044,
                0.06668655481120304,
                0.025899240377322465,
                0.03227828869599217,
                -0.02241115090271778,
                0.08883156280300296,
                0.15047923401247704,
                -0.12719003885977267,
                -0.2578313376879945,
                0.06148828930449835,
                0.1684322364993743,
                -0.021268489079763045,
                -0.23376740638902832,
                -0.04213339664476173,
                0.22722729885863505,
                0.047146680698307304,
                0.020650744958760802,
                -0.18650397003372204,
                -0.23984007948357972,
                0.02390286312034789,
                -0.04165837321582416,
                -0.07529767767501168,
                0.03167848431280136,
                0.20100105990202077,
                -0.04803962311710876,
                -0.06640071484256237,
                0.09543227966750123,
                -0.1515439797401433,
                -0.10568484745131193,
                0.1158137559428638,
                0.018752550678683574,
                0.13385457025671052,
                -0.006131801783725679,
                -0.04626990977500445,
                0.15519089966618743,
                0.04442400650812447,
                -0.042390495507512865,
                -0.09269841448560556,
                0.01286748197108512,
                0.022233639208015434,
                0.05260831324400561,
                -0.020501530144555774,
                -0.04245021493976776,
                0.013460055882919165,
                0.03456392581731124,
                0.05436831981385628,
                -0.03962649886583565,
                0.06698353673122631,
                0.056795685311385055,
                0.04995262026545013,
                -0.0019130938779420383,
                0.07464634199317467,
                -0.04120408646767693,
                0.03515524998603324,
                -0.0037578415208337304,
                0.014670753677706263,
                0.008354456252228073,
                -0.016169959385073006,
                -0.03743483590586603,
                -0.03289640897080029,
                -0.044025873359457554,
                -0.08082731363198793,
                -0.015490121480962878,
                -0.06354776124084731,
                0.015364575928293175,
                0.037390886054772615,
                0.025951875376846806,
                0.05746576383226671,
                -0.018159036328293972,
                0.10203824909572459,
                0.12301690025818582,
                0.07375189779700597,
                -0.05080734266572866,
                -0.12285127224327527,
                0.13057428557950265,
                -0.04595668912821483,
                -0.0613012855827114,
                -0.0062951353721740705,
                -0.055409808262611535,
                0.13197764477307244,
                -0.14488457608131314,
                -0.0058909861967112575,
                0.20486467235346667,
                0.20867799679008261,
                0.11731325772595198,
                -0.08073343328588173,
                0.03308527180639951,
                0.015074519462103848,
                -0.02207594106754448,
                0.07106176076582561,
                0.0710518555109646,
                0.03532639205395201,
                0.04930462336401152,
                0.025478932462099455,
                -0.038526280656940325,
                -0.03337417959599932,
                -0.013374179595999316,
                -0.060196071519479886,
                0.03980392848052012,
                -0.010196071519479724,
                0.009803928480520276,
                -0.030196071519479725,
                0.029803928480520315,
                0.009803928480520276,
                -0.00019607151947963826,
                -0.010196071519479724,
                0.049803928480520114,
                -0.010196071519479724,
                -0.030196071519479725,
                -0.04843545356404989,
                -0.010903192899157269,
                0.06372402733053828,
                -0.0062759726694613365,
                0.05980392848052011,
                -0.02019607151947968,
                0.029803928480520315,
                -0.010196071519479724,
                0.01980392848052032,
                -0.00019607151947963826,
                -0.02019607151947968,
                0.03980392848052012,
                -0.010196071519479724,
                -0.02019607151947968,
                -0.00019607151947963826,
                -0.04019607151947988,
                0.003724027330538656,
                -0.016275972669461427,
                -0.006957875581771794,
                0.04550742761344933,
                0.07492357945350307,
                0.003042124418228154,
                0.07304212441822877,
                -0.027225477815299555,
                0.0543740564316279,
                0.031679654866261224,
                -0.04836467328608491,
                0.049820958965725505,
                0.09479464806134781,
                0.024647212298958363,
                0.09357921188880214,
                0.039521867390527946,
                0.14431452544582185,
                0.040500627717443366,
                -0.04417464680868622,
                0.015411220270433904,
                -0.0898160123903765,
                -0.06124779457866552,
                0.025285103529483557,
                -0.017899362316573433,
                -0.030196071519479725,
                -0.05471489647051671,
                0.06528510352948304,
                -0.047899362316573636,
                -0.010196071519479724,
                -0.0001247120644142986,
                0.028351457509411194,
                0.03326413072634379,
                -0.04702936104544277,
                0.06912202556821037,
                0.01980392848052032,
                -0.00019607151947963826,
                -0.05019607151947989,
                0.009803928480520276,
                0.029803928480520315,
                0.009803928480520276,
                0.029803928480520315,
                -0.02019607151947968,
                -0.02019607151947968,
                -0.060196071519479886,
                0.009803928480520276,
                -0.010196071519479724,
                -0.010196071519479724,
                -0.05019607151947989,
                -0.00019607151947963826,
                0.009803928480520276,
                -0.060196071519479886,
                -0.030196071519479725,
                -0.05019607151947989,
                -0.02019607151947968,
                -0.030196071519479725,
                -0.04019607151947988,
                -0.00019607151947963826,
                0.01980392848052032,
                -0.04019607151947988,
                -0.030196071519479725,
                -0.05019607151947989,
                0.03980392848052012,
                -0.010196071519479724,
                -0.010196071519479724,
                -0.060196071519479886,
                -0.010196071519479724,
                -0.00019607151947963826,
                -0.030196071519479725,
                -0.02019607151947968,
                -0.02019607151947968,
                0.05980392848052011,
                0.05980392848052011,
                0.009803928480520276,
                0.049803928480520114,
                -0.060196071519479886,
                -0.05019607151947989,
                0.029803928480520315,
                0.03980392848052012,
                0.009803928480520276,
                0.05980392848052011,
                0.01980392848052032,
                0.01980392848052032,
                0.03980392848052012,
                -0.05019607151947989,
                -0.05019607151947989,
                0.029803928480520315,
                0.009803928480520276,
                -0.00019607151947963826,
                0.01980392848052032,
                -0.010196071519479724,
                -0.00019607151947963826,
                0.029803928480520315,
                -0.030196071519479725,
                0.01980392848052032,
                -0.02019607151947968,
                0.049803928480520114,
                0.03980392848052012,
                -0.030196071519479725,
                -0.0439975675386745,
                -0.003997567538674677,
                -0.030769335316943716,
                0.01923066468305612,
                -0.058135152906548054,
                -0.06022367314007869,
                0.01449016893161833,
                -0.07450929369292433,
                0.030055371278229694,
                -0.07032790769980078,
                0.07715327779261269,
                0.0465281359532088,
                0.045807903419061484,
                0.015467131709824488,
                0.032100637683426615,
                0.03693871394930908,
                0.032867900716422004,
                -0.047132099283578206,
                0.09618257479907516,
                -0.032221596023470085,
                0.0869017274328111,
                0.14991511237740365,
                0.04212339304801052,
                0.015623779435642488,
                0.028787060903788766,
                0.03444579453976916,
                0.21460691478687494,
                0.04081095716228632,
                -0.010160137365785492,
                -0.016719392003056315,
                0.06286790071642152,
                -0.03483539008067194,
                0.049803928480520114,
                -0.030196071519479725,
                0.01980392848052032,
                -0.010196071519479724,
                -0.010196071519479724,
                -0.00019607151947963826,
                0.03980392848052012,
                -0.05019607151947989,
                -0.02019607151947968,
                0.049803928480520114,
                0.029803928480520315,
                -0.02019607151947968,
                -0.030196071519479725,
                -0.05019607151947989,
                -0.05019607151947989,
                -0.060196071519479886,
                0.049803928480520114,
                -0.010196071519479724,
                -0.060196071519479886,
                -0.030196071519479725,
                0.049803928480520114,
                -0.02019607151947968,
                -0.060196071519479886,
                -0.02019607151947968,
                0.009803928480520276,
                0.029803928480520315,
                -0.04019607151947988,
                0.009803928480520276,
                -0.060196071519479886,
                0.01980392848052032,
                0.01980392848052032,
                -0.010196071519479724,
                -0.02019607151947968,
                -0.060196071519479886,
                0.01980392848052032,
                0.01980392848052032,
                -0.05019607151947989,
                -0.04019607151947988,
                -0.030196071519479725,
                -0.02019607151947968,
                -0.060196071519479886,
                0.01980392848052032,
                0.009803928480520276,
                -0.05019607151947989,
                0.01980392848052032,
                -0.00019607151947963826,
                0.049803928480520114,
                0.03980392848052012,
                0.024776880767029604,
                -0.03302681767661911,
                0.08097043869220662,
                0.06477688076702898,
                0.06286790071642152,
                0.032867900716422004,
                0.0337612731028141,
                0.07906145864159875,
                0.05195796699942158,
                0.043666962217635816,
                -0.025133013452238534,
                0.040042769875638616,
                -0.012882416193438294,
                -0.01476267801664482,
                0.051516421677888655,
                -0.0003383764814158754,
                0.07467060407060494,
                0.05739719462902364,
                0.01611461901593113,
                0.0636290844719804,
                -0.0011178376260110516,
                0.024776880767029604,
                -0.017132099283578204,
                0.009910892159654629,
                -0.05649539244759819,
                0.0028679007164217436,
                0.02286790071642174,
                -0.04245684656869159,
                0.06865028996066097,
                0.07520990250273303,
                0.03440207415697998,
                0.1012446059536222,
                -0.1672212614362848,
                -0.014891092593329857,
                0.09046372304207848,
                -0.0022111657985987715,
                -0.11068594923351659,
                0.004625478395091889,
                0.031002624588704324,
                -0.036303210519684846,
                0.029967625983939827,
                0.09046405839718778,
                -0.05682221310301743,
                -0.01572716694171816,
                -0.14824245390960297,
                0.03402391016684498,
                0.058846888971734006,
                -0.10335248586376469,
                -0.08833679760909191,
                -0.14391992135327564,
                -0.07847446051533188,
                0.07680861306431605,
                -0.07378974755587996,
                0.07453693663331776,
                -0.1825546840748424,
                -0.06805773838423346,
                -0.01363598196006088,
                0.16010660741353291,
                -0.013337132767408404,
                -0.058214075440630106,
                -0.0623785561131968,
                -0.0054752501663267355,
                -0.01636773670063393,
                -0.041267128691784796,
                -0.0636687281480018,
                0.014505491444304757,
                0.00922619998910754,
                -0.07417552427843027,
                0.06268943943086085,
                0.02705200260260143,
                -0.0607751471563949,
                0.09540281380667653,
                -0.08703700842365676,
                -0.214037666117891,
                0.05051776225894008,
                -0.027687658213007164,
                0.017249995130625854,
                -0.04548583578096739,
                -0.05711696166074022,
                -0.05659622764194199,
                0.058111883870491765,
                0.11279622711987243,
                -0.04343780696570834,
                -0.07949252006052039,
                -0.08281423315382558,
                -0.0413762889909331,
                0.09587700139901228,
                0.029187711203144766,
                0.00861993959256834,
                -0.009768366490564758,
                -0.021792386631736667,
                -0.0504590977827526,
                -0.01093018476078057,
                -0.030718634479536714,
                -0.02850338509178206,
                -0.041149431261081455,
                -0.09010164556736754,
                0.0019963765895488796,
                -6.189079633868373e-05,
                0.04034844997382463,
                0.07885685708331279,
                -0.02094421003586154,
                0.010189878893447317,
                0.05703978776277285,
                -0.01824686816900252,
                -0.01866061626188283,
                0.06018987889344714,
                -0.055342928404801664,
                0.025245976393624837,
                0.01727487270892101,
                -0.004448408833571471,
                -0.09538953978746964,
                0.03012717427746993,
                0.004091231261501937,
                0.025440693585474045,
                -0.031073219686318956,
                -0.03058650108559277,
                -0.101420350736186,
                0.06743883421791609,
                0.0517051124539585,
                -0.07696645771095545,
                -0.02474217901515486,
                -0.04968643716890297,
                0.03036467620888171,
                -0.019738276955345246,
                0.0355015898760913,
                -0.054381947568438636,
                -0.039789390333130066,
                -0.060196071519479886,
                0.029803928480520315,
                0.01980392848052032,
                -0.030196071519479725,
                -0.04019607151947988,
                0.05980392848052011,
                0.049803928480520114,
                0.01980392848052032,
                -0.02019607151947968,
                -0.00019607151947963826,
                0.05980392848052011,
                0.009803928480520276,
                0.01980392848052032,
                -0.030196071519479725,
                -0.04019607151947988,
                0.01980392848052032,
                -0.02019607151947968,
                -0.010196071519479724,
                0.05980392848052011,
                0.029803928480520315,
                0.029803928480520315,
                -0.02019607151947968,
                -0.04019607151947988,
                -0.010196071519479724,
                0.009803928480520276,
                0.009803928480520276,
                -0.010196071519479724,
                -0.04019607151947988,
                0.01980392848052032,
                -0.010196071519479724,
                0.009803928480520276,
                0.009803928480520276,
                0.009803928480520276,
                0.049803928480520114,
                -0.04019607151947988,
                -0.05019607151947989,
                0.05980392848052011,
                0.01980392848052032,
                -0.04019607151947988,
                -0.030196071519479725,
                -0.05019607151947989,
                -0.030196071519479725,
                -0.030196071519479725,
                -0.030196071519479725,
                0.049803928480520114,
                -0.060196071519479886,
                -0.05019607151947989,
                0.029803928480520315,
                -0.037321241313091766,
                -0.060196071519479886,
                -0.020199094554585403,
                0.04176096423189296,
                0.02964642139380204,
                0.05288554609067421,
                0.05538493273223819,
                0.07612195798171296,
                0.030114869770979272,
                0.048439992406852574,
                -0.05019607151947989,
                -0.04019607151947988,
                -0.00019607151947963826,
                0.0216893446461722,
                -0.010196071519479724,
                0.05980392848052011,
                0.049803928480520114,
                -0.00019607151947963826,
                -0.02019607151947968,
                0.01980392848052032,
                -0.010196071519479724,
                -0.04019607151947988,
                -0.060196071519479886,
                -0.02019607151947968,
                0.029803928480520315,
                0.01980392848052032,
                0.029803928480520315,
                -0.02019607151947968,
                0.029803928480520315,
                -0.02019607151947968,
                0.049803928480520114,
                0.03980392848052012,
                0.01980392848052032,
                -0.030196071519479725,
                0.029803928480520315,
                0.009803928480520276,
                0.01980392848052032,
                -0.02019607151947968,
                0.049803928480520114,
                -0.060196071519479886,
                0.05980392848052011,
                0.009803928480520276,
                -0.02019607151947968,
                -0.00019607151947963826,
                -0.010196071519479724,
                0.049803928480520114,
                -0.00019607151947963826,
                -0.060196071519479886
            ],
            [
                0.03202717566738427,
                0.012027175667384345,
                0.012027175667384345,
                0.03202717566738427,
                0.0020271756673843734,
                0.0020271756673843734,
                -0.027972824332615775,
                0.04202717566738425,
                0.062027175667384256,
                0.012027175667384345,
                -0.03797282433261575,
                0.05202717566738426,
                0.062027175667384256,
                -0.05797282433261574,
                0.03202717566738427,
                0.02202717566738422,
                -0.047972824332615745,
                0.02202717566738422,
                -0.05797282433261574,
                -0.01797282433261578,
                -0.03797282433261575,
                0.012027175667384345,
                0.04202717566738425,
                0.012027175667384345,
                0.0020271756673843734,
                0.03202717566738427,
                0.050174562499476195,
                0.03017456249947613,
                -0.011925734392297872,
                -0.047972824332615745,
                -0.01797282433261578,
                0.055736039368931754,
                -0.014263960631068098,
                0.037833184270804496,
                -0.019790119738040925,
                -0.02300763562190366,
                0.06004151748503239,
                -0.01763554305242915,
                0.056287204549310556,
                0.03000995083717682,
                0.036539611345165667,
                0.04852985586678987,
                -0.037398561679653344,
                0.04140503479744073,
                -0.018375687802845275,
                0.04993018193907861,
                0.06905125479980898,
                -0.040948745200191344,
                0.012027175667384345,
                -0.01797282433261578,
                -0.047972824332615745,
                0.02202717566738422,
                -0.047972824332615745,
                0.05202717566738426,
                -0.027972824332615775,
                0.05202717566738426,
                0.02202717566738422,
                0.03202717566738427,
                -0.05797282433261574,
                -0.007972824332615655,
                -0.007972824332615655,
                -0.01797282433261578,
                0.012027175667384345,
                -0.05797282433261574,
                0.0020271756673843734,
                -0.05797282433261574,
                0.0020271756673843734,
                0.02202717566738422,
                -0.01797282433261578,
                0.04202717566738425,
                -0.01797282433261578,
                0.04202717566738425,
                0.05202717566738426,
                0.05202717566738426,
                -0.047972824332615745,
                0.012027175667384345,
                -0.01797282433261578,
                -0.047972824332615745,
                -0.027972824332615775,
                -0.027972824332615775,
                0.03202717566738427,
                0.0020271756673843734,
                -0.01797282433261578,
                -0.03797282433261575,
                0.05202717566738426,
                -0.01797282433261578,
                -0.03797282433261575,
                -0.027972824332615775,
                -0.007972824332615655,
                0.04202717566738425,
                -0.05797282433261574,
                -0.05797282433261574,
                -0.027972824332615775,
                -0.03797282433261575,
                -0.01797282433261578,
                -0.047972824332615745,
                0.04864535112218852,
                0.04603605522510268,
                -0.01842210185414374,
                -0.0055012835159821225,
                0.053304502911530986,
                -0.048964839262800715,
                0.05583728872841546,
                -0.008697275039346678,
                0.09964275476291636,
                0.1924277488203944,
                0.0495694699387386,
                0.05937437586857989,
                -0.01898064334146507,
                0.1211624387544263,
                0.08289316962141384,
                -0.03124552933565394,
                -0.06583203989941938,
                -0.017132503632636208,
                0.07235416998296938,
                0.054602471585203795,
                0.04264475629434807,
                0.012468575245651231,
                -0.02418826815955981,
                -0.031445413395051976,
                0.027345119369456123,
                0.04672019988587975,
                -0.00029994114680730196,
                0.007417393070236412,
                0.013068549928210119,
                0.07597390165357856,
                0.041667482541260584,
                -0.019121037660892213,
                0.00857773877735511,
                -0.09157018642763336,
                -0.0793049025427698,
                -0.0011507270575431385,
                -0.03932187687331064,
                0.04000584851300531,
                -0.049268998045962305,
                -0.030805301460791804,
                0.020369672858250146,
                0.012018044378679095,
                -0.024785093250891267,
                -0.016287086429660903,
                -0.02997702683044865,
                -0.0009234170814895326,
                -0.025089843535078094,
                -0.0778503535161995,
                -0.06890092129291212,
                0.0040564499073564705,
                -0.09162567775134796,
                -0.07118188661245557,
                -0.0850569452250989,
                -0.11686737153384341,
                -0.13449029325605716,
                0.02704336756779735,
                0.11612613662301852,
                0.027903301237441936,
                -0.0339261253175619,
                0.12554186211912619,
                -0.09040651003125698,
                -0.07608107275180478,
                0.014261005644603711,
                0.04596486840331186,
                0.14518339176318557,
                -0.05954833174304279,
                -0.17321955394520797,
                -0.014603918447219442,
                0.16727206846977727,
                0.09839100823503048,
                0.00086293094747216,
                -0.10784148606754917,
                0.03797579888939148,
                0.16491103520267528,
                0.03599658351947318,
                0.05690390745388432,
                -0.06042097915514396,
                -0.08194095978392611,
                -0.0373709234341076,
                0.10104988443770645,
                0.14248329203425153,
                0.18683804072225754,
                -0.07542960772693892,
                -0.0643359638131241,
                -0.05047583802257263,
                0.04144079131911178,
                0.1099506802139812,
                0.025750914097332718,
                -0.17471745881393838,
                -0.062038316022868856,
                0.05853799983924791,
                -0.09557033999822222,
                -0.05774235691161179,
                -0.14648166926044381,
                0.14032876424476862,
                -0.005981779883800629,
                0.042579811801017435,
                -0.09203862129060128,
                -0.025959230033707946,
                0.0839651630952066,
                -0.03614755925874129,
                0.08834023187131046,
                0.0674493023503786,
                -0.031498363107676126,
                -0.006941169266109532,
                0.06329592857065351,
                -0.006704071429346526,
                -0.0685725936671066,
                0.0001608301930563576,
                -0.013574225381143638,
                0.039692325334356446,
                -0.002943216095349465,
                0.09055286689593374,
                -0.006114648674259842,
                -0.015006376378681578,
                -0.01976565226628872,
                0.06756952700933752,
                -0.06089076803982431,
                0.033840041162173415,
                -0.03698747717701005,
                -0.053955931682913495,
                0.00045432527241439134,
                0.0779678507837564,
                -0.002169839359488747,
                -0.03173951140247129,
                0.029289139364430537,
                -0.06082770933749921,
                -0.011156496931432206,
                0.050174562499476195,
                -0.03797282433261575,
                0.012027175667384345,
                0.04017456249947627,
                -0.02982543750052396,
                -0.00982543750052366,
                0.03202717566738427,
                -0.027972824332615775,
                0.02202717566738422,
                -0.05797282433261574,
                0.04202717566738425,
                -0.047972824332615745,
                -0.01797282433261578,
                -0.027972824332615775,
                0.012027175667384345,
                0.04202717566738425,
                0.04202717566738425,
                0.02202717566738422,
                0.05202717566738426,
                0.012027175667384345,
                -0.047972824332615745,
                -0.02982543750052396,
                0.020696347023740888,
                -0.03797282433261575,
                0.03202717566738427,
                0.05954910699524851,
                -0.05930365297625893,
                0.05202717566738426,
                0.04202717566738425,
                0.0020271756673843734,
                0.0020271756673843734,
                -0.03797282433261575,
                0.03202717566738427,
                0.04202717566738425,
                0.0020271756673843734,
                0.03202717566738427,
                -0.047972824332615745,
                -0.007972824332615655,
                -0.027972824332615775,
                0.0020271756673843734,
                -0.03797282433261575,
                0.04202717566738425,
                0.06397787720276535,
                -0.05158359966668939,
                -0.02815020324042793,
                0.012027175667384345,
                0.0020271756673843734,
                0.027976804335077814,
                -0.021769766992187016,
                -0.038505877578030825,
                -0.08944826253625811,
                -0.04741363556561733,
                0.06263880241604554,
                0.05369807848848348,
                0.017447279751293853,
                0.051842345356230134,
                0.024677960838173033,
                0.017983689500801564,
                -0.0381362380050208,
                -0.02131844525310282,
                -0.016463924532082966,
                -0.08040328491264855,
                -0.004302130520951174,
                -0.04618874716555726,
                0.023482735345268978,
                0.03330460496853707,
                -0.12606246531314613,
                -0.11351991991613487,
                0.030081070978772592,
                -0.0675402740196117,
                -0.08180378948646641,
                0.0421203281132693,
                0.018049280093069022,
                0.006793406209986013,
                0.004014308395348915,
                0.07289657547992921,
                -0.03857459281006346,
                -0.07996201222822706,
                0.03333285075333406,
                0.06949020924373736,
                -0.01716936282572626,
                -0.03797282433261575,
                -0.03797282433261575,
                -0.026022122797233895,
                0.04397787720276619,
                0.053977877202766186,
                -0.047972824332615745,
                0.012027175667384345,
                0.04202717566738425,
                0.04202717566738425,
                -0.03797282433261575,
                -0.01797282433261578,
                -0.047972824332615745,
                -0.027972824332615775,
                0.02202717566738422,
                -0.01797282433261578,
                0.0020271756673843734,
                -0.01797282433261578,
                -0.03797282433261575,
                0.02202717566738422,
                -0.05797282433261574,
                -0.007169362825726318,
                0.03283063717427363,
                -0.05797282433261574,
                0.03202717566738427,
                -0.007169362825726318,
                0.0028306371742738397,
                -0.007972824332615655,
                -0.047972824332615745,
                0.062027175667384256,
                0.0020271756673843734,
                0.012027175667384345,
                -0.01797282433261578,
                -0.03797282433261575,
                -0.01797282433261578,
                -0.01797282433261578,
                -0.027972824332615775,
                0.062027175667384256,
                0.03202717566738427,
                -0.01797282433261578,
                0.062027175667384256,
                -0.03797282433261575,
                -0.007972824332615655,
                0.062027175667384256,
                0.03202717566738427,
                -0.03797282433261575,
                0.04202717566738425,
                0.012027175667384345,
                -0.027972824332615775,
                0.027039516924626417,
                -0.007972824332615655,
                0.03202717566738427,
                0.04202717566738425,
                -0.027972824332615775,
                0.02202717566738422,
                -0.007972824332615655,
                -0.03797282433261575,
                -0.05797282433261574,
                0.03202717566738427,
                -0.03797282433261575,
                0.062027175667384256,
                -0.027972824332615775,
                0.04703951692462647,
                0.06703951692462691,
                0.01315867115134187,
                0.012127860450163787,
                0.029509191983609098,
                -0.03716936282572639,
                0.067842978431516,
                0.042830637174273614,
                0.053089061552928946,
                -0.050554441903812794,
                -0.011599176908006041,
                0.027507909349358407,
                -0.01243107042795213,
                -0.016083126653356088,
                -0.04183474145549754,
                0.06878403786027144,
                0.028751420844111045,
                0.010107526287782997,
                -0.06490077986546237,
                -0.04070147037916559,
                -0.023532940369139495,
                -0.04203543321762373,
                0.09757465663464243,
                0.04939083245520361,
                0.021988318952950035,
                0.008856083545175558,
                -0.02685962490513688,
                0.024096194535979925,
                -0.02859580762975781,
                0.02186421905358159,
                0.0255812278902139,
                -0.03736102986214467,
                -0.029882296163277138,
                0.023075555772292547,
                0.04703951692462647,
                0.01703951692462631,
                0.012027175667384345,
                0.0020271756673843734,
                -0.01797282433261578,
                -0.007972824332615655,
                -0.05797282433261574,
                -0.047972824332615745,
                -0.03797282433261575,
                0.02202717566738422,
                0.0020271756673843734,
                0.012027175667384345,
                -0.01797282433261578,
                -0.027972824332615775,
                -0.05296048307537352,
                0.06703951692462691,
                0.05084933194032297,
                0.0008493319403228074,
                -0.03797282433261575,
                -0.007972824332615655,
                -0.007972824332615655,
                -0.007972824332615655,
                -0.027972824332615775,
                -0.01797282433261578,
                -0.047972824332615745,
                -0.03797282433261575,
                -0.03797282433261575,
                0.062027175667384256,
                0.05202717566738426,
                -0.03797282433261575,
                -0.049150668059677036,
                -0.001054166092927948,
                0.009925690201035725,
                -0.029031444778208612,
                -0.027219354130379986,
                0.007060549687854002,
                -0.05874587547526545,
                -0.056650915621693006,
                0.0621583629343786,
                0.044922505446658344,
                -0.06864080242983354,
                0.022956779283278012,
                -0.046428357602586685,
                -0.023403365728808526,
                -0.05509033016228264,
                -0.04517039308569708,
                -0.03540647152000026,
                0.03907317500358966,
                -0.008245263750866122,
                -0.025236055827753796,
                0.09016192647678126,
                0.08139011803345868,
                0.0039317081350053315,
                0.06178805861396839,
                -0.15235020293739307,
                -0.15162655688276255,
                -0.03774506853383445,
                0.06135133059509512,
                -0.08726014050625625,
                -0.18267576071529606,
                0.0988132992917068,
                0.047148827084643026,
                0.014935435122084728,
                -0.05029771316597508,
                0.05135760185180772,
                0.0382886095763924,
                -0.04297180660825649,
                0.006671402553793834,
                -0.056754830655505,
                -0.035093464778141716,
                -0.020072926586958733,
                -0.13136711217453698,
                -0.0336398492453107,
                -0.14198662155340075,
                -0.06609581372375305,
                -0.029490156137544108,
                -0.05881978318827678,
                0.05982367327994825,
                -0.007196018834078735,
                0.1304936354530351,
                0.07185499094355835,
                0.1780108270793211,
                -0.013535315408843583,
                -0.08523477914228433,
                -0.0235305354790577,
                -0.1302730592019105,
                -0.06553597126704651,
                0.04674766627267399,
                -0.022028377013044144,
                -0.05579222416054995,
                -0.029376277787174703,
                -0.01624198634959932,
                -0.016441411003765533,
                -0.08603134249609751,
                0.06203678150322857,
                0.12453959057048616,
                0.0029750303362414,
                0.08501402464907944,
                0.0009425146576838204,
                -0.15861231104648343,
                -0.016035733222595296,
                -0.1680982939362118,
                -0.11415788280727408,
                0.09223537661876234,
                -0.014096950818342375,
                -0.18979659766757837,
                0.09084334900091762,
                0.11533577134909716,
                0.12296606884562095,
                -0.022757834836995807,
                0.05770959432856602,
                0.2494191068154111,
                0.03343590687726367,
                0.043874442186667764,
                -0.04865207348606239,
                -0.14059388194852834,
                -0.10264684503820813,
                -0.17795045708722051,
                -0.04499293566836455,
                -0.0721150503652475,
                -0.006292268465682831,
                0.03703718456832621,
                0.028615044232922486,
                -0.006050394146271282,
                0.005198708761160706,
                0.08373298841935242,
                0.12535740961787872,
                0.021839116199359212,
                0.11673355522897427,
                0.08941975752503262,
                -0.09043683156044315,
                -0.073766756376429,
                0.1326612061557724,
                -0.04262650224925684,
                -0.07193859448879489,
                0.12229643493035339,
                0.10672694873540706,
                -0.10767335083556592,
                -0.05481095557241232,
                0.11338925139423067,
                -0.08351106890728009,
                -0.06546629400288896,
                0.06107501191051248,
                -0.03810977382767256,
                0.03352039251984857,
                -0.11067230063816484,
                -0.040498638180604896,
                -0.08961652357705852,
                0.0627429320674868,
                -0.08690586645935292,
                0.029239247248023455,
                0.07437491052633695,
                0.02980405489308324,
                -0.022634007925671416,
                -0.044025107037064186,
                0.023030378360955717,
                -0.006762883503877294,
                0.02357969200044513,
                0.00402463701832955,
                0.03597538984028614,
                -0.008684914523485169,
                0.09026770758057863,
                0.032614276326765265,
                -0.026750485959312852,
                -0.05667086266637481,
                -0.0591862536516625,
                0.09099338560141126,
                -0.0797652328633888,
                -0.06547598159314524,
                -0.07441068276635157,
                -0.05555274018460369,
                -0.16540096394356615,
                0.033047886676236364,
                0.037973565244929584,
                -0.030652807766887464,
                -0.06691142692211645,
                -0.03057090619670404,
                0.008793840720064772,
                -0.014615346237290421,
                0.027540634592730394,
                -0.015205915166589559,
                -0.11130053043678878,
                -0.08694464050007464,
                -0.09661215134702358,
                -0.026390548916004872,
                0.06521622404623667,
                0.02634250874936463,
                -0.04579207865379586,
                0.055251675655786,
                0.04246732424242559,
                0.014203044248697878,
                -0.033719428229192085,
                -0.020307962611639245,
                -0.050307962611638966,
                0.062027175667384256,
                0.05202717566738426,
                -0.01797282433261578,
                -0.01797282433261578,
                0.012027175667384345,
                -0.03797282433261575,
                0.04202717566738425,
                -0.03797282433261575,
                0.02202717566738422,
                -0.05797282433261574,
                0.03202717566738427,
                -0.03797282433261575,
                -0.045320303868881244,
                -0.009770390044150541,
                0.03343669095883337,
                0.04343669095883353,
                -0.05797282433261574,
                0.012027175667384345,
                0.012027175667384345,
                -0.03797282433261575,
                -0.01797282433261578,
                -0.05797282433261574,
                0.062027175667384256,
                -0.047972824332615745,
                0.04202717566738425,
                0.0020271756673843734,
                -0.05797282433261574,
                -0.027972824332615775,
                -0.006563309041166709,
                -0.03656330904116647,
                -0.0355589414917788,
                0.08073747746748784,
                0.04058575714863104,
                0.054441058508221195,
                0.024441058508220922,
                -0.002691232852281033,
                0.016611206594473266,
                0.018946355986034093,
                -0.08476644936667475,
                0.09577438335461834,
                0.00961300262759819,
                -0.00037102244311388325,
                0.009047815256307235,
                -0.08092255013977222,
                -0.028571099832935182,
                -0.08467913437946006,
                -0.11682082973644896,
                -0.0583507407534593,
                0.019789396130842952,
                0.016354534811320258,
                0.009383214305602338,
                -0.01626857476754685,
                0.04202717566738425,
                0.009383214305602338,
                -0.0006167856943977951,
                -0.03626857476754672,
                -0.03797282433261575,
                -0.044895918104841566,
                0.051743662278845026,
                0.045202637688731256,
                0.034130256191984516,
                -0.03696845678322811,
                0.062027175667384256,
                0.012027175667384345,
                0.062027175667384256,
                -0.047972824332615745,
                0.012027175667384345,
                -0.03797282433261575,
                -0.047972824332615745,
                0.062027175667384256,
                -0.047972824332615745,
                -0.05797282433261574,
                0.012027175667384345,
                0.0020271756673843734,
                -0.05797282433261574,
                -0.05797282433261574,
                -0.01797282433261578,
                -0.007972824332615655,
                0.062027175667384256,
                0.03202717566738427,
                0.04202717566738425,
                0.062027175667384256,
                0.04202717566738425,
                0.012027175667384345,
                0.012027175667384345,
                -0.01797282433261578,
                -0.007972824332615655,
                0.0020271756673843734,
                -0.007972824332615655,
                -0.047972824332615745,
                0.03202717566738427,
                0.062027175667384256,
                -0.007972824332615655,
                0.02202717566738422,
                -0.007972824332615655,
                -0.03797282433261575,
                0.04202717566738425,
                0.04202717566738425,
                0.012027175667384345,
                0.04202717566738425,
                -0.007972824332615655,
                0.03202717566738427,
                0.0020271756673843734,
                0.04202717566738425,
                -0.03797282433261575,
                0.04202717566738425,
                0.04202717566738425,
                -0.047972824332615745,
                0.012027175667384345,
                0.04202717566738425,
                0.02202717566738422,
                -0.05797282433261574,
                -0.05797282433261574,
                0.02202717566738422,
                0.062027175667384256,
                0.062027175667384256,
                -0.007972824332615655,
                -0.027972824332615775,
                0.02202717566738422,
                -0.027972824332615775,
                0.03202717566738427,
                -0.05797282433261574,
                -0.01797282433261578,
                -0.007972824332615655,
                -0.007972824332615655,
                -0.01797282433261578,
                0.012010636679112334,
                0.02201063667911228,
                0.0203171321048845,
                -0.009682867895115329,
                -0.013301540023828275,
                -0.07966058971684317,
                -0.06239620190487837,
                0.04681361471212755,
                0.06238521286083368,
                -0.04271696359654892,
                -0.028588355349872734,
                0.0027338981021355568,
                0.06710872293757424,
                0.07235134737124896,
                0.013731425232453347,
                0.013802291437979387,
                -0.011695838595704043,
                0.06830416140429592,
                0.03857761539608046,
                0.04335213774136395,
                0.032173832693526284,
                -0.048813811734205285,
                0.011959298272222576,
                0.08084209582427208,
                0.11900149312992922,
                0.05097967610060008,
                0.030366711000794012,
                0.16284044072973655,
                -0.0024958674007285334,
                -0.032348999842647747,
                -0.021695838595704,
                -0.029991589030635125,
                0.062027175667384256,
                -0.047972824332615745,
                0.05202717566738426,
                0.04202717566738425,
                0.03202717566738427,
                0.04202717566738425,
                -0.047972824332615745,
                0.0020271756673843734,
                -0.03797282433261575,
                0.03202717566738427,
                -0.007972824332615655,
                -0.047972824332615745,
                -0.047972824332615745,
                -0.047972824332615745,
                0.02202717566738422,
                -0.007972824332615655,
                -0.03797282433261575,
                0.02202717566738422,
                -0.047972824332615745,
                0.04202717566738425,
                -0.007972824332615655,
                0.0020271756673843734,
                -0.05797282433261574,
                0.05202717566738426,
                0.02202717566738422,
                -0.027972824332615775,
                0.012027175667384345,
                -0.027972824332615775,
                -0.03797282433261575,
                -0.007972824332615655,
                -0.03797282433261575,
                -0.047972824332615745,
                -0.047972824332615745,
                0.05202717566738426,
                -0.05797282433261574,
                0.03202717566738427,
                0.0020271756673843734,
                -0.007972824332615655,
                -0.03797282433261575,
                -0.01797282433261578,
                0.02202717566738422,
                0.05202717566738426,
                0.04202717566738425,
                0.04202717566738425,
                0.062027175667384256,
                0.03202717566738427,
                0.05202717566738426,
                -0.01797282433261578,
                0.024607319800161894,
                0.018373084877657327,
                -0.026061239176139422,
                0.014607319800162024,
                0.028304161404295997,
                0.018304161404296044,
                -0.032606958079503354,
                0.027635602427994746,
                0.022486165587584837,
                0.009180240722308323,
                -0.030090262810215523,
                -0.12002948044373568,
                -0.03560247416026466,
                0.030909811873494918,
                0.08846646388615234,
                0.015005688073307766,
                0.007772007207242705,
                -0.10996676065844123,
                0.09897820699038898,
                0.09293167378896998,
                -0.015323756726476777,
                0.014607319800162024,
                -0.0016958385957039465,
                -0.0004729566714130326,
                -0.02208960570647942,
                -0.05169583859570407,
                0.018304161404296044,
                -0.0042001169657976374,
                0.19140982006172275,
                0.13111493165157975,
                -0.08903454589874597,
                -0.03480322301247601,
                -0.029165259407422504,
                0.008011388038501346,
                0.1600107653436759,
                -0.00020011130008032755,
                -0.04955577313660978,
                -0.029065711102993084,
                0.04768367065865083,
                0.11311302778593268,
                -0.20430691054409633,
                -0.1820200224342789,
                0.045516389744778375,
                0.07034417792604823,
                0.08742538322145567,
                -0.0883525464826482,
                -0.12801159458200864,
                -0.036184815372995505,
                -0.04505820339873584,
                -0.00898549995251719,
                0.1005066926223462,
                0.09101613702042177,
                -0.03821800480594686,
                -0.03889999588187704,
                -0.027622274397609316,
                0.043043126127456074,
                -0.2324001941791408,
                -0.08965535366223769,
                0.061510803993707966,
                0.022125722663081597,
                0.1510017023282098,
                -0.08015478723576451,
                -0.09328108529877076,
                -0.07918889544217789,
                0.02892851773666188,
                -0.05758368499126858,
                -0.058473601450129545,
                -0.1253206773363668,
                -0.019420284174891306,
                -0.08966408234223366,
                -0.014367999399036303,
                -0.0699752638837648,
                -0.09406722605796668,
                -0.10073176082383606,
                -0.08398881503083969,
                -0.06923972170289736,
                -0.08485747816975696,
                -0.10632468703346967,
                -0.026618757752985427,
                -0.12085875336295059,
                -0.05039794993925598,
                -0.08495198279706989,
                -0.011903660320203681,
                -0.0639854152494347,
                -0.02547425177140967,
                0.04688716186084694,
                -0.03550902942319457,
                0.029240901740659846,
                0.03132173240304759,
                0.1054159570590707,
                -0.033035491999318656,
                -0.010723740598574777,
                -0.04384690255289973,
                -0.036305343558883194,
                -0.07534021607696587,
                -0.030824362149793907,
                0.0012596684210780932,
                0.018355725772161484,
                0.10385626312579388,
                0.06901707396429689,
                0.08896288088211197,
                0.008803327593909187,
                -0.005139205050867506,
                0.06979431162542295,
                -0.05345440777972446,
                0.013247824065460947,
                0.07486079494913198,
                0.0033805401571247577,
                0.12974629993925377,
                0.08970773244384024,
                -0.014751430937585679,
                0.01867240143105304,
                0.03794190999357159,
                0.06115459486651261,
                0.1141606375081747,
                -0.07631690238609747,
                0.009237946417195787,
                -0.03830309755832544,
                0.11400224616459806,
                0.011538372681665262,
                0.047592173673034255,
                -0.06255773368427037,
                -0.012423365669978157,
                0.008225438383405706,
                -0.0032723304684793572,
                -0.013446454856061961,
                -0.03398477617686247,
                0.07607886547813636,
                0.05202717566738426,
                -0.01797282433261578,
                -0.007972824332615655,
                0.03202717566738427,
                0.0020271756673843734,
                0.012027175667384345,
                0.04202717566738425,
                0.0020271756673843734,
                -0.027972824332615775,
                -0.01797282433261578,
                0.0020271756673843734,
                0.0020271756673843734,
                -0.027972824332615775,
                -0.05797282433261574,
                0.05202717566738426,
                -0.05797282433261574,
                0.03202717566738427,
                -0.007972824332615655,
                -0.01797282433261578,
                -0.007972824332615655,
                0.062027175667384256,
                -0.047972824332615745,
                0.05202717566738426,
                0.0020271756673843734,
                -0.01797282433261578,
                -0.05797282433261574,
                0.062027175667384256,
                0.012027175667384345,
                0.05202717566738426,
                -0.05797282433261574,
                0.03202717566738427,
                0.04202717566738425,
                0.05202717566738426,
                0.062027175667384256,
                -0.027972824332615775,
                0.0020271756673843734,
                -0.01797282433261578,
                0.02202717566738422,
                -0.047972824332615745,
                0.05202717566738426,
                0.04202717566738425,
                0.03202717566738427,
                0.04202717566738425,
                0.05202717566738426,
                -0.01797282433261578,
                0.0020271756673843734,
                -0.03797282433261575,
                0.012027175667384345,
                0.06377593085266521,
                0.05202717566738426,
                -0.021147839714613533,
                0.06043110676809098,
                0.02751227199253773,
                0.053511726560150026,
                0.09208794550475918,
                0.0033642590982611623,
                -0.05103798741205068,
                0.05336470181868609,
                0.03202717566738427,
                0.012027175667384345,
                0.03202717566738427,
                0.01309274088960574,
                0.05202717566738426,
                0.05202717566738426,
                0.012027175667384345,
                0.0020271756673843734,
                0.012027175667384345,
                -0.007972824332615655,
                0.0020271756673843734,
                0.04202717566738425,
                -0.05797282433261574,
                -0.03797282433261575,
                0.012027175667384345,
                0.062027175667384256,
                0.05202717566738426,
                -0.05797282433261574,
                -0.01797282433261578,
                0.012027175667384345,
                -0.027972824332615775,
                -0.03797282433261575,
                0.05202717566738426,
                -0.047972824332615745,
                0.02202717566738422,
                0.012027175667384345,
                0.03202717566738427,
                -0.03797282433261575,
                0.03202717566738427,
                0.04202717566738425,
                0.04202717566738425,
                0.0020271756673843734,
                0.012027175667384345,
                0.012027175667384345,
                0.02202717566738422,
                0.0020271756673843734,
                -0.047972824332615745,
                0.04202717566738425
            ],
            [
                0.059452287672627356,
                -0.0305477123273722,
                -0.010547712327372456,
                0.009452287672627544,
                0.019452287672627796,
                -0.050547712327372644,
                0.009452287672627544,
                -0.0005477123273723525,
                0.04945228767262736,
                0.019452287672627796,
                0.029452287672627798,
                -0.040547712327372636,
                -0.020547712327372205,
                -0.020547712327372205,
                -0.050547712327372644,
                -0.010547712327372456,
                -0.020547712327372205,
                -0.0005477123273723525,
                -0.0005477123273723525,
                0.019452287672627796,
                -0.06054771232737264,
                -0.0005477123273723525,
                0.04945228767262736,
                -0.0305477123273722,
                -0.040547712327372636,
                -0.020547712327372205,
                0.037467893818462175,
                0.027467893818462485,
                0.02804374593568907,
                0.009452287672627544,
                0.029452287672627798,
                -0.011432568987791799,
                0.03856743101220808,
                0.007987297619615872,
                -0.0033745066491579784,
                0.028043666541636893,
                -0.013327200572613789,
                -0.06424728502062056,
                0.0387924751261444,
                0.032020432803772876,
                -0.03423817311244935,
                -0.03148000961319301,
                -0.046548349440852746,
                0.017278845632493007,
                0.008579086841700204,
                -0.01328105881032168,
                -0.01233328352580824,
                0.0276667164741918,
                -0.040547712327372636,
                -0.040547712327372636,
                -0.0005477123273723525,
                0.009452287672627544,
                0.04945228767262736,
                -0.0005477123273723525,
                0.029452287672627798,
                -0.040547712327372636,
                -0.010547712327372456,
                0.059452287672627356,
                0.019452287672627796,
                -0.020547712327372205,
                0.009452287672627544,
                -0.0005477123273723525,
                -0.06054771232737264,
                0.029452287672627798,
                -0.0305477123273722,
                -0.020547712327372205,
                -0.040547712327372636,
                0.009452287672627544,
                -0.0305477123273722,
                -0.0305477123273722,
                -0.0305477123273722,
                0.029452287672627798,
                -0.050547712327372644,
                -0.0305477123273722,
                -0.020547712327372205,
                0.039452287672627366,
                -0.020547712327372205,
                0.039452287672627366,
                -0.050547712327372644,
                0.04945228767262736,
                0.009452287672627544,
                -0.040547712327372636,
                0.029452287672627798,
                -0.050547712327372644,
                0.059452287672627356,
                -0.010547712327372456,
                -0.0005477123273723525,
                0.04945228767262736,
                -0.040547712327372636,
                -0.050547712327372644,
                0.029452287672627798,
                0.04945228767262736,
                -0.040547712327372636,
                -0.040547712327372636,
                0.039452287672627366,
                -0.010547712327372456,
                -0.0014759661205383217,
                -0.03919181262702638,
                -0.017614557877407618,
                -0.04664306308135032,
                -0.026348765238127955,
                -0.051361956322941334,
                0.003811733038439194,
                0.04912775976031857,
                0.04274621502344369,
                -0.0071175730202366885,
                -0.008568362502181041,
                -0.05939234223229644,
                0.04776304649465706,
                -0.013141864200030422,
                -0.05139388163058601,
                0.023848739252568075,
                0.03643655841291378,
                -0.03952360071635996,
                -0.0701626935172785,
                -0.04785719709900431,
                0.0007630921989123164,
                0.059476531259848774,
                0.04107156088057252,
                -0.02282179159383763,
                -0.04277433657506295,
                -0.021940884922807987,
                0.027293017719724564,
                0.018603629336690537,
                0.06219785652870455,
                -0.06137356772745665,
                0.04326434245704766,
                0.012531575034913459,
                0.014718953826842074,
                0.028496945127399934,
                -0.05010828329207506,
                -0.02041124371892765,
                -0.032275953382158225,
                -0.04317092932164611,
                0.02532695715802993,
                0.026589090527906496,
                0.05415583752111161,
                0.051999400130103464,
                0.01931023489101627,
                -0.04757994947688698,
                0.008528599797964689,
                -0.027756126695035358,
                -0.007814615036539104,
                0.04862046036513291,
                0.025129916688812547,
                -0.050919828729293404,
                0.04171870462676823,
                -0.049500106765415934,
                -0.005825031630030148,
                0.010835708948894197,
                0.007221838182217074,
                0.05865900240687489,
                -0.0236941656972067,
                0.05010874988356672,
                0.05285568883860518,
                0.039468901606884835,
                0.047965175497967305,
                0.04801862428865671,
                -0.03807140258002417,
                0.04874163960534871,
                -0.04294144333953022,
                -0.046171355454533596,
                -0.03828128026909965,
                0.027849519160870445,
                0.04286433770588907,
                0.016588057502046474,
                0.03907768692018928,
                -0.035043805713175356,
                0.05566477176396824,
                -0.05204887985960934,
                0.001865039778597964,
                0.015444947968996042,
                0.054022716546706866,
                -0.04927314358111468,
                0.003987554537411077,
                0.03584768804956335,
                0.04312910942510866,
                -0.052914879206387044,
                -0.03117997290366696,
                -0.002844732762096436,
                -0.04990604483135651,
                -0.05099350336677318,
                -0.028223077629245367,
                -0.024848259567135097,
                -0.04786188459302473,
                -0.027330177757243317,
                -0.05042235157129633,
                -0.018335102795891733,
                0.04298743776556572,
                -0.043643975906418,
                0.05678605291133495,
                -0.021245454665352794,
                0.05588498667870151,
                -0.05041150754297943,
                0.029124431816365197,
                0.03552004828014956,
                -0.008190446327906036,
                0.008366841831797919,
                -0.024227366699850893,
                0.04452223668216632,
                0.01291401272095989,
                0.032834225015711316,
                -0.03716577498428872,
                0.0044443231462402465,
                0.04032174229067716,
                -0.04058370308403568,
                0.028476802100378593,
                0.0011113775043174285,
                0.01095228673999217,
                0.006189798067880753,
                0.05617377414774897,
                -0.043718498676314436,
                0.0026428680067842624,
                0.03166550105293775,
                0.04178479074419052,
                0.01568211080323964,
                0.037283601493754426,
                -0.043240554447094924,
                0.053728443858531184,
                -0.014525586667314763,
                0.0322085280986583,
                0.02056403715753808,
                -0.028361506122636895,
                -0.05636957817178567,
                0.007467893818462371,
                -0.06054771232737264,
                -0.0005477123273723525,
                0.04746789381846217,
                -0.032532106181537415,
                0.037467893818462175,
                -0.010547712327372456,
                0.039452287672627366,
                0.029452287672627798,
                -0.050547712327372644,
                0.019452287672627796,
                0.009452287672627544,
                -0.020547712327372205,
                -0.010547712327372456,
                -0.040547712327372636,
                -0.020547712327372205,
                -0.040547712327372636,
                -0.0005477123273723525,
                -0.050547712327372644,
                0.009452287672627544,
                -0.06054771232737264,
                0.027467893818462485,
                -0.050849708881696404,
                -0.010547712327372456,
                -0.050547712327372644,
                -0.020573281794330205,
                -0.0008497088816961683,
                -0.0005477123273723525,
                -0.040547712327372636,
                0.019452287672627796,
                0.029452287672627798,
                -0.050547712327372644,
                -0.0305477123273722,
                -0.020547712327372205,
                0.04945228767262736,
                -0.050547712327372644,
                -0.010547712327372456,
                0.009452287672627544,
                -0.010547712327372456,
                0.029452287672627798,
                0.059452287672627356,
                -0.050547712327372644,
                0.018865830508608496,
                -0.032233706685137434,
                -0.008442807788880706,
                -0.0305477123273722,
                -0.050547712327372644,
                -0.01563170419708067,
                -0.01546111077431682,
                -0.055992962140004994,
                0.03979788662748155,
                -0.0036902405940873995,
                0.02733817947786656,
                0.025692317344748715,
                0.0251194762926631,
                -0.0034258498604406488,
                -0.053892048573908,
                0.025028075365929586,
                0.010544860043012878,
                0.01733624706780758,
                -0.04005440371240292,
                -0.03784482279043052,
                0.03728845618636025,
                -0.011125860581058543,
                -0.03135345038984789,
                -0.031406032753547225,
                0.05193281342528207,
                0.0350681154151556,
                -0.02097046250313914,
                0.008260463776286104,
                -0.0029815838318489932,
                -0.0007248736176836958,
                0.04344956250490435,
                0.030847578544018366,
                -0.024626131114396575,
                -0.03372208505176451,
                0.03940332643415817,
                0.0550383221596773,
                -0.026397122496181195,
                0.045111936632004815,
                0.029142257595974313,
                0.04945228767262736,
                0.009452287672627544,
                -0.031134169491391507,
                -0.021134169491391505,
                -0.021134169491391505,
                0.029452287672627798,
                0.019452287672627796,
                -0.040547712327372636,
                -0.050547712327372644,
                -0.0305477123273722,
                -0.0005477123273723525,
                -0.050547712327372644,
                0.039452287672627366,
                -0.06054771232737264,
                0.04945228767262736,
                0.039452287672627366,
                -0.010547712327372456,
                0.009452287672627544,
                -0.010547712327372456,
                -0.020547712327372205,
                -0.04085774240402618,
                -0.02085774240402569,
                0.019452287672627796,
                -0.020547712327372205,
                -0.04085774240402618,
                -0.04085774240402618,
                -0.010547712327372456,
                0.039452287672627366,
                0.029452287672627798,
                0.029452287672627798,
                -0.020547712327372205,
                0.04945228767262736,
                0.009452287672627544,
                0.029452287672627798,
                0.009452287672627544,
                0.029452287672627798,
                -0.06054771232737264,
                0.039452287672627366,
                -0.0305477123273722,
                0.059452287672627356,
                -0.010547712327372456,
                -0.0005477123273723525,
                -0.010547712327372456,
                -0.020547712327372205,
                -0.06054771232737264,
                0.059452287672627356,
                0.039452287672627366,
                -0.040547712327372636,
                0.007975206285578669,
                -0.010547712327372456,
                0.04945228767262736,
                0.04945228767262736,
                -0.040547712327372636,
                -0.0005477123273723525,
                -0.020547712327372205,
                -0.0005477123273723525,
                -0.040547712327372636,
                -0.050547712327372644,
                -0.010547712327372456,
                0.04945228767262736,
                -0.010547712327372456,
                0.04797520628557831,
                -0.012024793714421332,
                0.04875019282568734,
                0.03917777318691894,
                0.022175134449618248,
                -0.030857742404025685,
                0.017665176208925285,
                0.01914225759597431,
                -0.0405827567899229,
                0.040790350316342434,
                -0.0072400785130797484,
                0.0069086844133712895,
                -0.02431901317422245,
                -0.059947628108665,
                -0.02180321963292922,
                0.01415168170132,
                -0.023237640816739572,
                0.049649136326802866,
                0.00866645771076487,
                0.02667198638178959,
                -0.021262549954900876,
                0.055437441037138824,
                -0.03237594988694096,
                0.0288267970384317,
                0.008911671875193072,
                -0.05262934691274279,
                0.06146680269465879,
                -0.0030679597419991183,
                0.056315895239008124,
                0.019809070460562374,
                -0.04123980953964284,
                0.03712011497115545,
                0.03132422004806823,
                -0.06472741380660987,
                -0.03202479371442112,
                0.04797520628557831,
                0.039452287672627366,
                0.029452287672627798,
                -0.050547712327372644,
                -0.06054771232737264,
                0.039452287672627366,
                -0.0005477123273723525,
                -0.06054771232737264,
                0.04945228767262736,
                -0.050547712327372644,
                -0.0305477123273722,
                0.009452287672627544,
                0.029452287672627798,
                0.017975206285578763,
                0.04797520628557831,
                -0.060894056488823824,
                0.03910594351117617,
                0.04945228767262736,
                0.059452287672627356,
                -0.010547712327372456,
                -0.0305477123273722,
                -0.050547712327372644,
                -0.010547712327372456,
                0.039452287672627366,
                0.019452287672627796,
                -0.010547712327372456,
                -0.050547712327372644,
                -0.0005477123273723525,
                -0.0305477123273722,
                0.009105943511176566,
                -0.036100025600810846,
                -0.04384306707888,
                0.03586050323084119,
                -0.011099128142097951,
                0.04132387747821818,
                -0.028511838189426705,
                0.011282625628707584,
                -0.02973573681665082,
                -0.030147504564262868,
                0.05512580535587787,
                -0.02342454705347212,
                -0.014995196129046958,
                -0.03981454057604757,
                -0.05504353913821296,
                -0.05186521204666365,
                -0.0051291578957501985,
                -0.040443138325470585,
                0.04057070001808144,
                -0.00756194580810635,
                0.05684594014080235,
                -0.06102569010563939,
                0.05109284607540732,
                -0.047817787794759536,
                0.0767240513430135,
                -0.02902682999819526,
                0.04237038626200598,
                0.025565033138525782,
                -0.055253615797115865,
                -0.02122985517833475,
                -0.08006468439774864,
                -0.022742407231340855,
                -0.04890446949352363,
                -0.04964691720374166,
                -0.0030465259519966256,
                -0.040919727963543914,
                0.03580088481910158,
                -0.00723007877133125,
                -0.06308338766555092,
                -0.028366550550172325,
                -0.02851306003037782,
                -0.036334569211843366,
                0.06360457157873675,
                -0.0063948105918191,
                -0.05903297982988834,
                -0.04862673549794955,
                -0.021608769447622557,
                0.03050947130399018,
                0.047039617437883485,
                0.03475436757849114,
                0.019344390344225953,
                -0.01647759415296214,
                -0.023739169017198913,
                -0.00010254474228862558,
                0.01916866035326358,
                -0.05881461486939329,
                0.047108837270375375,
                0.023150960635324735,
                -0.032197308945876996,
                -0.020250437350761156,
                0.05327925681777674,
                0.0019872173335920167,
                -0.016808176894687863,
                -0.032089031383735034,
                -0.038704861645074716,
                -0.021199736242375287,
                -0.019876642134654357,
                0.01568645200338182,
                0.051531485384177955,
                0.0607687054675356,
                -0.044248068959821106,
                -0.034189109225359414,
                0.03295213743463091,
                -0.02451326705786393,
                0.030302933628043045,
                0.05194049364739975,
                -0.048804107405881245,
                -0.0036377780178226864,
                0.03937126762464897,
                0.04903156894888486,
                -0.016208728370447407,
                -0.025225780195373335,
                0.029319155090926745,
                0.05207075746618459,
                -0.06363257244281535,
                0.03563651398580484,
                0.013019791667440087,
                -0.039100564393399206,
                -0.053776776873703094,
                0.01999912841771503,
                -0.014861519505634345,
                0.017593855339116456,
                0.007867868104740595,
                -0.04109424182801638,
                -0.0424841874362093,
                -0.06359736265126477,
                -0.03930108988469874,
                0.010202705117108968,
                0.018996200669972423,
                0.04787245567016388,
                0.05809475909551471,
                -0.03330605568556704,
                0.03258281696194405,
                -0.0594573314069897,
                0.052137186306429315,
                -0.06555567468224076,
                -0.03884315380941974,
                -0.07784432700585396,
                -0.025651914834503506,
                0.05509734151530082,
                -0.02551561061110811,
                0.0137540655073234,
                0.038292086236730166,
                -0.014335162676775023,
                -0.020713408568138438,
                -0.05511596281042348,
                -0.00415681736832884,
                0.05559200068390184,
                0.026529362392800557,
                0.030391676374550307,
                -0.019738521874968246,
                0.03823665881072124,
                0.037268107675274324,
                0.009406586686169982,
                -0.018160304647878538,
                -0.033399483845267676,
                -0.042386327781303905,
                -0.005877306538303258,
                0.03051414319926953,
                -0.010855020820859743,
                -0.017903628690405175,
                -0.04307495608214002,
                0.04116849660379265,
                -0.033586219467400494,
                0.012378045232893386,
                -0.03223496236214332,
                -0.03588155865228601,
                0.06372975253156987,
                0.04297107348663168,
                0.033686848409643366,
                -0.05892392992848761,
                -0.00485169430995271,
                -0.02435665427152993,
                -0.05928068811819573,
                0.005728453721433831,
                0.03943382484875716,
                -0.02938034908535234,
                0.037847981210652415,
                -0.040920712831781385,
                -0.049084485433695174,
                0.006438560701369966,
