{
    "layer1": {
        "weights": [
            [
                -0.04255674153121877,
                0.017443258468781066,
                -0.002556741531218819,
                0.05744325846878122,
                -0.01255674153121891,
                0.05744325846878122,
                -0.06255674153121875,
                -0.05255674153121878,
                0.05744325846878122,
                0.02744325846878106,
                -0.022556741531218935,
                -0.05255674153121878,
                -0.06255674153121875,
                -0.06255674153121875,
                0.03744325846878123,
                0.05744325846878122,
                0.017443258468781066,
                -0.022556741531218935,
                0.02744325846878106,
                -0.03255674153121875,
                -0.05255674153121878,
                -0.01255674153121891,
                -0.01255674153121891,
                0.03744325846878123,
                -0.04255674153121877,
                -0.06255674153121875,
                -0.0653324611481765,
                -0.035332461148176446,
                -0.034262970288912856,
                -0.002556741531218819,
                -0.01255674153121891,
                -0.002598775952541283,
                0.007401224047458638,
                -0.013107769443742995,
                0.05301678562605712,
                -0.01498937293635227,
                -0.059176894960899645,
                0.028226443977244497,
                -0.013373373140439185,
                0.06927726633566064,
                0.06638856449074637,
                0.0621088646569977,
                0.011159373152872602,
                0.09208883144224943,
                -0.044096196564455126,
                0.01332298468880226,
                -0.003307043458802683,
                -0.003307043458802683,
                -0.022556741531218935,
                -0.002556741531218819,
                -0.06255674153121875,
                0.0074432584687811176,
                -0.04255674153121877,
                0.03744325846878123,
                -0.04255674153121877,
                -0.05255674153121878,
                0.017443258468781066,
                -0.04255674153121877,
                -0.01255674153121891,
                -0.06255674153121875,
                -0.002556741531218819,
                -0.022556741531218935,
                0.047443258468781224,
                0.017443258468781066,
                0.0074432584687811176,
                -0.04255674153121877,
                0.017443258468781066,
                0.05744325846878122,
                0.0074432584687811176,
                0.05744325846878122,
                0.017443258468781066,
                0.047443258468781224,
                0.047443258468781224,
                -0.06255674153121875,
                0.017443258468781066,
                -0.002556741531218819,
                0.017443258468781066,
                0.05744325846878122,
                -0.01255674153121891,
                -0.01255674153121891,
                0.02744325846878106,
                0.0074432584687811176,
                0.03744325846878123,
                0.02744325846878106,
                0.0074432584687811176,
                0.017443258468781066,
                0.017443258468781066,
                0.0074432584687811176,
                0.03744325846878123,
                -0.05255674153121878,
                0.02744325846878106,
                0.0074432584687811176,
                -0.03255674153121875,
                0.047443258468781224,
                0.017443258468781066,
                -0.002556741531218819,
                -0.050781598719572815,
                -0.07999251225275525,
                -0.017352726977576144,
                0.01285891449745757,
                -0.06373598367360181,
                -0.07082465894848972,
                -0.010681808274878775,
                0.01995355860361887,
                -0.026529402786927694,
                0.05176662237634726,
                -0.1310605727794365,
                -0.14980982252898856,
                -0.11640847262124542,
                0.025787115090875404,
                -0.024725580881964544,
                -0.029986565517822097,
                0.12658813145200226,
                0.10933242791473298,
                -0.10957994910790848,
                -0.009396659214455769,
                -0.06406789057208641,
                0.049322072241091364,
                -0.02352931421558555,
                -0.05829606699097692,
                0.018636900030820608,
                0.006282936569074027,
                -0.013788302985291405,
                -0.004486916162156483,
                0.08136511740615524,
                -0.07202299892784035,
                -0.010230445218316295,
                0.03945958849926566,
                0.057744144181695836,
                0.117865567364413,
                -0.00825521821547307,
                0.08715589526320984,
                0.13441476880000944,
                0.07963753844957343,
                -0.018662013808152234,
                0.0676468109986579,
                0.0015886593990500093,
                -0.014145929157123994,
                0.03253991346670936,
                0.024146117107812694,
                -0.009916634080777706,
                0.04497031246840687,
                0.07763932780547153,
                0.07273237386237812,
                0.016816966032216375,
                0.02420173779765982,
                -0.09696624802631328,
                -0.030457268801925834,
                -0.0806865298109404,
                -0.04828927266650683,
                -0.02937432410618758,
                -0.01123557848433431,
                -0.0135927003801718,
                0.07706527903286234,
                0.09639737588282847,
                -0.006330864837655257,
                -0.03321892232254397,
                -0.1183843772977057,
                -0.021161710146735877,
                0.012823319919043683,
                -0.07762727327660428,
                -0.06194652837675076,
                -0.10787705552179254,
                -0.05510768696787071,
                -0.11675189138567318,
                -0.004268522606220656,
                0.0337998199799303,
                -0.054560881847890486,
                -0.06682412544054542,
                -0.10805522096736206,
                -0.09780156571803746,
                -0.0599924678451973,
                0.1780321645131893,
                0.1298675081762296,
                0.03772724260980382,
                0.20010824335300453,
                0.009841563960861653,
                -0.15344861061147091,
                0.10443103252671242,
                -0.0073528378813426205,
                0.055361514935208814,
                -0.021089227727098016,
                -0.10662520669758817,
                0.1497869273680541,
                -0.010181853495038822,
                -0.10188758169726664,
                0.03913736311665399,
                -0.09788730324395194,
                -0.10199787890743688,
                -0.01647787572846959,
                -0.04440182935901611,
                -0.010532596989267156,
                0.1189160632651621,
                -0.15513593061077233,
                0.026971326617624452,
                -0.02973105691480067,
                -0.014926633189847133,
                -0.07990576736016783,
                0.00847433570213345,
                -0.014346455642707765,
                0.07607304573797696,
                -0.08730634369864966,
                0.0026936563013495265,
                -0.03506642255909931,
                -0.0052503656177422765,
                0.08886304211716599,
                -0.008494338730913516,
                0.02121036219686333,
                0.022369453513883086,
                -0.04613840947156902,
                -0.036661421634671634,
                0.03687713562649328,
                0.08148615278783174,
                0.014531157579610939,
                -0.03641394303790124,
                0.036167710017000504,
                -0.052923005432537744,
                0.001761963693411088,
                -0.006805086612042351,
                -0.025576919102258514,
                -0.021016530704168913,
                0.034731531703327066,
                0.027183865302423504,
                -0.07241475558182396,
                0.03466753885182355,
                0.02744325846878106,
                -0.022556741531218935,
                0.0046675388518237155,
                -0.005332461148176276,
                -0.015332461148176383,
                0.03744325846878123,
                0.017443258468781066,
                0.047443258468781224,
                0.02744325846878106,
                -0.03255674153121875,
                -0.01255674153121891,
                0.05744325846878122,
                -0.002556741531218819,
                0.017443258468781066,
                0.0074432584687811176,
                0.05744325846878122,
                0.0074432584687811176,
                -0.002556741531218819,
                -0.002556741531218819,
                -0.002556741531218819,
                0.04466753885182354,
                -0.03514713352208274,
                -0.022556741531218935,
                0.0074432584687811176,
                0.03486737005989379,
                0.044852866477917246,
                -0.022556741531218935,
                -0.01255674153121891,
                0.02744325846878106,
                0.0074432584687811176,
                0.03744325846878123,
                0.047443258468781224,
                0.047443258468781224,
                0.0074432584687811176,
                0.05744325846878122,
                -0.002556741531218819,
                0.0074432584687811176,
                -0.01255674153121891,
                0.0074432584687811176,
                0.05744325846878122,
                0.0074432584687811176,
                0.005301819220946432,
                -0.0474318659746885,
                -0.01457197939977865,
                -0.022556741531218935,
                0.03744325846878123,
                -0.04328815375046822,
                0.03848863853708458,
                -0.04107116955993508,
                -0.05081539119386952,
                -0.03313267027768681,
                0.08541303126294623,
                -0.04362622989997826,
                -0.09511787405279927,
                0.019158016121620512,
                -0.036042189382488245,
                -0.004130049910206035,
                0.055915797851124036,
                -0.05708217058011964,
                -0.07580799474205918,
                0.04815961651236595,
                0.009597879697857095,
                -0.04096121995234695,
                -0.04202647465174245,
                0.03683610072562149,
                -0.0011825208214596272,
                0.08068235575512947,
                0.028383308388572635,
                0.10861598668105843,
                0.0024585385073499556,
                0.016678708119771245,
                0.11575839171086645,
                -0.010251604325100855,
                -0.001965808484455975,
                0.023438792715136856,
                0.07144583049316965,
                -0.038322084811287835,
                0.020615325141278576,
                0.010609707010164959,
                -0.034683677197076775,
                -0.05255674153121878,
                0.02744325846878106,
                -0.03469818077905337,
                -0.004698180779053533,
                0.005301819220946432,
                0.047443258468781224,
                -0.03255674153121875,
                -0.04255674153121877,
                -0.06255674153121875,
                -0.03255674153121875,
                0.047443258468781224,
                0.017443258468781066,
                0.017443258468781066,
                0.017443258468781066,
                0.047443258468781224,
                0.03744325846878123,
                0.017443258468781066,
                0.047443258468781224,
                0.017443258468781066,
                -0.01255674153121891,
                0.005316322802923014,
                -0.0446836771970768,
                -0.002556741531218819,
                -0.022556741531218935,
                0.025316322802922935,
                -0.014683677197077081,
                0.047443258468781224,
                -0.05255674153121878,
                -0.05255674153121878,
                -0.022556741531218935,
                -0.01255674153121891,
                0.0074432584687811176,
                -0.002556741531218819,
                -0.022556741531218935,
                -0.002556741531218819,
                -0.04255674153121877,
                0.047443258468781224,
                -0.022556741531218935,
                0.02744325846878106,
                0.0074432584687811176,
                -0.04255674153121877,
                0.02744325846878106,
                -0.022556741531218935,
                -0.002556741531218819,
                0.05744325846878122,
                -0.002556741531218819,
                -0.022556741531218935,
                -0.022556741531218935,
                -0.07095643563187873,
                -0.01255674153121891,
                -0.01255674153121891,
                -0.04255674153121877,
                -0.01255674153121891,
                -0.002556741531218819,
                0.02744325846878106,
                -0.03255674153121875,
                0.047443258468781224,
                0.047443258468781224,
                -0.06255674153121875,
                0.047443258468781224,
                -0.002556741531218819,
                -0.06095643563187898,
                0.019043564368120745,
                0.02350099297837078,
                0.03874907835591736,
                0.0082977078976386,
                0.035316322802923204,
                -0.013083371297737267,
                0.05531632280292321,
                -0.0011531265432548619,
                0.06459095618253113,
                0.06802349549063749,
                -0.04355271899670225,
                -0.0677812034683814,
                0.04146358326058444,
                -0.033003352161425546,
                0.07655140498094323,
                0.04497361117432406,
                0.03096987948215159,
                0.004702682082627911,
                -0.021540737257287883,
                -0.039021603755058885,
                0.11256258876660569,
                0.04077516829086655,
                0.07453040954677326,
                0.04532033188216547,
                0.008472358839315677,
                -0.05537073103685759,
                -0.06610150522816272,
                0.016030497096208754,
                0.02934151298437347,
                -0.019960039551702214,
                0.10271488995821851,
                -0.04058858902163276,
                0.023267941478545495,
                -0.04095643563187895,
                -0.06095643563187898,
                -0.04255674153121877,
                -0.03255674153121875,
                -0.04255674153121877,
                -0.03255674153121875,
                -0.022556741531218935,
                -0.05255674153121878,
                0.03744325846878123,
                0.047443258468781224,
                -0.022556741531218935,
                -0.05255674153121878,
                -0.06255674153121875,
                -0.022556741531218935,
                0.04904356436812102,
                0.009043564368120859,
                0.04158009771199652,
                0.011580097711996357,
                -0.022556741531218935,
                0.05744325846878122,
                -0.04255674153121877,
                -0.022556741531218935,
                -0.03255674153121875,
                -0.06255674153121875,
                0.02744325846878106,
                -0.01255674153121891,
                -0.06255674153121875,
                -0.06255674153121875,
                0.02744325846878106,
                -0.022556741531218935,
                0.0015800977119963984,
                0.031965175333382445,
                0.008246637513126423,
                0.09477952251485489,
                0.022342316237035868,
                0.014407104190596362,
                0.02597548524819831,
                0.017671710698319434,
                -0.07686388173412298,
                -0.06873017950398028,
                0.07073283601917282,
                -0.08709630391672761,
                -0.036632157686798957,
                0.01607914787029684,
                -0.04209321236045187,
                -0.057909063084231535,
                -0.06994474509458869,
                -0.01857637773671116,
                0.11888373517931998,
                -0.08277853925835127,
                0.006121161829849638,
                -0.07940015705830528,
                0.0952203226648287,
                0.012149586984902138,
                0.07409160445933373,
                -0.02354960620945179,
                -0.01149130860758307,
                0.08042847862169764,
                -0.06776179238942633,
                0.017712022249440188,
                -0.22822930917731846,
                0.03905453540367714,
                -0.05076227234698592,
                0.02470742620057822,
                0.07536693152275518,
                -0.07223691824647124,
                0.1472310742346665,
                -0.03038247364623004,
                -0.03045991751040374,
                0.061516950806649484,
                0.06025369616607031,
                0.09607106385250924,
                0.07844679460648049,
                0.0853643290995394,
                -0.06738590226019905,
                -0.09440944758214853,
                -0.046249607671615636,
                -0.04389576440260404,
                0.011299081542902479,
                -0.02521371743198036,
                0.005640175456514659,
                0.06745835822349873,
                0.14878282284605007,
                -0.011896928059824452,
                0.032416578268058945,
                -0.014758929232672323,
                -0.0415626517652526,
                -0.05984298487594642,
                0.035656098317912145,
                0.0018477866952496297,
                0.03791974054476249,
                -0.007015813848793967,
                -0.0013813175855179037,
                0.06835551335359308,
                0.04128279873207313,
                -0.0831208485749134,
                -0.1090222366967848,
                -0.0524833194599707,
                0.0633995145203055,
                -0.07053038325169421,
                0.07488945567492433,
                0.0677903958204734,
                -0.08518906442913399,
                0.033770474268167094,
                -0.008990936409227367,
                0.1623202158495759,
                0.12220529170666466,
                -0.07327456033821247,
                0.019483032838385483,
                -0.027895451946152786,
                0.18047301666745486,
                0.024888783588785,
                0.020843530615847965,
                -0.05520271740643952,
                0.04986625518612015,
                0.09119714839273821,
                -0.046933858398371005,
                -0.05319654377181633,
                -0.1827248017599587,
                -0.014313116594837569,
                -0.05082566045730804,
                -0.03188936030272902,
                0.044728413212329704,
                -0.08442486909333617,
                -0.11752221594270591,
                -0.11592806292082385,
                0.05063724059758117,
                0.017812366843255902,
                -0.051851254350631426,
                0.08714788809327054,
                0.06725312790046087,
                -0.04662489509231057,
                -0.07988651707021951,
                0.002590653103721749,
                0.04187100286674612,
                0.05472797377236864,
                -0.04308198800244704,
                0.027746996477008765,
                0.0051831332022547255,
                0.04546919701183289,
                -0.06929551282401797,
                -0.025031682521405293,
                0.024872057312873026,
                -0.0884572135047972,
                0.003116058705559187,
                -0.004416691497341384,
                0.04558197617299359,
                -0.06380411573412072,
                0.02586881910152225,
                0.0027535412148871844,
                0.06348909163477523,
                0.048971507581169804,
                0.020473215675617856,
                -0.04694092784332573,
                0.04023604194015388,
                -0.015453512147946656,
                0.024146326292712277,
                -0.06861133216499808,
                0.08781038859221135,
                0.04762848755280769,
                -0.06940530440718172,
                0.021570754631703826,
                0.17276488362779482,
                0.006990039097274842,
                -0.030643914453866376,
                0.08860966181755969,
                -0.06728445658016828,
                0.075329888899568,
                0.044913761725503605,
                0.06300263690077014,
                -0.03415342053753494,
                -0.09392978298987362,
                -0.05137573123609275,
                0.08166836324694815,
                -0.025331149714632458,
                0.1435933869612057,
                0.10623796177794423,
                -0.07763709835524436,
                0.007795238249454272,
                -0.16707006950499112,
                -0.007181845517897045,
                0.028216383065221888,
                0.03073380934748587,
                -0.09059158258601156,
                -0.1177182214023053,
                -0.022882632788605903,
                -0.039163800628937366,
                0.025943699466169798,
                0.0017004382256169705,
                -0.00443551804954009,
                0.12591443874263195,
                -0.032070364983365914,
                -0.028848893549157664,
                0.02115110645084233,
                -0.002556741531218819,
                -0.06255674153121875,
                0.047443258468781224,
                -0.06255674153121875,
                -0.03255674153121875,
                -0.002556741531218819,
                0.05744325846878122,
                -0.03255674153121875,
                -0.022556741531218935,
                0.05744325846878122,
                -0.06255674153121875,
                0.047443258468781224,
                0.00955080055150269,
                -0.028087289125506208,
                -0.04902063362498197,
                0.05097936637501802,
                -0.01255674153121891,
                -0.04255674153121877,
                -0.05255674153121878,
                0.03744325846878123,
                0.017443258468781066,
                -0.022556741531218935,
                -0.022556741531218935,
                0.02744325846878106,
                0.0074432584687811176,
                -0.022556741531218935,
                -0.01255674153121891,
                -0.05255674153121878,
                0.05097936637501802,
                0.030979366375017785,
                -0.0746098971467258,
                -0.029304897111378243,
                -0.05163433071281139,
                0.0053901028532746705,
                0.045390102853274994,
                -0.048407843379584176,
                0.03535396632699457,
                -0.015544594644528682,
                0.052857395020247354,
                -0.060792346651108956,
                0.007724934649356501,
                0.006163356401329355,
                0.014567472424366379,
                0.011887873915875067,
                0.027236747379339923,
                0.09136210629191766,
                0.12151004224598959,
                -0.03027962855560439,
                0.14464513933067827,
                0.04271776684105895,
                -0.026649838245178796,
                -0.01425709414513816,
                -0.022556741531218935,
                0.023350161754821207,
                0.043350161754821655,
                -0.004257094145138027,
                -0.03255674153121875,
                -0.04320262573988651,
                -0.04726739311821816,
                0.029455613171576737,
                0.0013897243606856285,
                0.021853994947037735,
                0.05744325846878122,
                0.047443258468781224,
                0.017443258468781066,
                0.017443258468781066,
                0.017443258468781066,
                -0.002556741531218819,
                -0.03255674153121875,
                -0.03255674153121875,
                -0.05255674153121878,
                -0.03255674153121875,
                0.017443258468781066,
                0.03744325846878123,
                -0.022556741531218935,
                -0.022556741531218935,
                -0.05255674153121878,
                -0.01255674153121891,
                0.017443258468781066,
                -0.06255674153121875,
                -0.01255674153121891,
                -0.01255674153121891,
                -0.01255674153121891,
                -0.002556741531218819,
                0.0074432584687811176,
                -0.002556741531218819,
                -0.03255674153121875,
                0.03744325846878123,
                -0.022556741531218935,
                -0.002556741531218819,
                -0.01255674153121891,
                0.03744325846878123,
                -0.03255674153121875,
                -0.03255674153121875,
                -0.04255674153121877,
                -0.04255674153121877,
                0.017443258468781066,
                -0.01255674153121891,
                -0.05255674153121878,
                -0.05255674153121878,
                -0.022556741531218935,
                -0.04255674153121877,
                0.0074432584687811176,
                -0.01255674153121891,
                0.017443258468781066,
                0.0074432584687811176,
                -0.01255674153121891,
                -0.01255674153121891,
                0.03744325846878123,
                0.03744325846878123,
                0.017443258468781066,
                -0.022556741531218935,
                -0.03255674153121875,
                0.02744325846878106,
                -0.01255674153121891,
                0.017443258468781066,
                -0.05255674153121878,
                0.05744325846878122,
                0.03744325846878123,
                -0.002556741531218819,
                0.02744325846878106,
                -0.022556741531218935,
                -0.002556741531218819,
                0.05744325846878122,
                0.02744325846878106,
                0.05744325846878122,
                0.06086272789455457,
                0.01086272789455434,
                0.000984656787021684,
                0.05098465678702193,
                0.06021055917672184,
                0.019118065751543633,
                0.07011363609261291,
                -0.047244450495797556,
                0.0801961661198788,
                0.006619854443524342,
                -0.019486964351589232,
                0.004314170508423077,
                0.01882071357126439,
                -0.03802182106470078,
                0.03574290585486203,
                0.03937708342617443,
                -0.034146910519601364,
                -0.024146910519601657,
                -0.05961831387028086,
                -0.03792820832392896,
                0.0409474192373464,
                0.0643469143627398,
                0.06552752913587231,
                0.04069336623858529,
                -0.03908082409052111,
                0.014280426871852792,
                -0.03352997219366895,
                -0.017088195109808198,
                0.04203887022440059,
                -0.0025940749702969535,
                0.02585308948039833,
                -0.03584726313352082,
                -0.04255674153121877,
                -0.04255674153121877,
                -0.06255674153121875,
                -0.01255674153121891,
                0.05744325846878122,
                0.017443258468781066,
                -0.04255674153121877,
                0.05744325846878122,
                0.03744325846878123,
                -0.04255674153121877,
                -0.03255674153121875,
                -0.01255674153121891,
                0.047443258468781224,
                0.047443258468781224,
                0.02744325846878106,
                -0.03255674153121875,
                0.0074432584687811176,
                -0.04255674153121877,
                -0.002556741531218819,
                0.02744325846878106,
                0.017443258468781066,
                0.017443258468781066,
                0.047443258468781224,
                0.05744325846878122,
                0.047443258468781224,
                -0.002556741531218819,
                0.05744325846878122,
                -0.01255674153121891,
                0.0074432584687811176,
                0.02744325846878106,
                -0.002556741531218819,
                0.03744325846878123,
                0.017443258468781066,
                0.03744325846878123,
                -0.022556741531218935,
                0.017443258468781066,
                0.02744325846878106,
                -0.022556741531218935,
                0.05744325846878122,
                -0.022556741531218935,
                -0.01255674153121891,
                0.047443258468781224,
                -0.03255674153121875,
                -0.04255674153121877,
                -0.03255674153121875,
                -0.05255674153121878,
                -0.01255674153121891,
                -0.01255674153121891,
                0.016031416341529943,
                -0.058389143570720156,
                0.04064687441583083,
                -0.05396858365846984,
                0.02585308948039833,
                -0.034146910519601364,
                0.01798938093804127,
                0.0004685475546990416,
                0.08256384145816223,
                0.005404189063894227,
                0.06047306903704588,
                0.051361304719485336,
                -0.0036482683745302415,
                0.050529932684523805,
                0.02921265504770485,
                0.021497736356952495,
                0.019850231632281105,
                -0.0499342832321173,
                0.06608508269960661,
                0.017316648992737927,
                -0.04821081670958879,
                0.03603141634153017,
                -0.05414691051960159,
                -0.052037916054660925,
                0.010992114148860343,
                0.03585308948039842,
                0.03585308948039842,
                -0.006260777161680268,
                -0.05920385820414467,
                0.05731115188231557,
                0.07591842072731572,
                -0.0886310557022037,
                -0.06417179965610535,
                0.05780023841981538,
                -0.09044036644987406,
                -0.02658657716653562,
                0.045138560341935134,
                -0.08993454509948579,
                -0.05155460716102188,
                0.07012150185344428,
                -0.01595278545385985,
                0.04460553663687261,
                -0.039918214108512276,
                -0.1188371372308804,
                0.11819202873070239,
                -0.0004266533260934761,
                0.01373320556350115,
                -0.014525707830528947,
                -0.010590337705395974,
                0.0919423960843539,
                0.005756658292458049,
                -0.02690211909635371,
                0.019854633109450605,
                -0.13477087212992697,
                -0.09352451456678662,
                -0.09555103115305834,
                0.10682132572415898,
                0.07637921085008872,
                0.14404197955561568,
                -0.005157849971349347,
                0.03555067147218044,
                -0.09702365980385842,
                -0.05166848481882112,
                -0.07624830324528635,
                0.043912120597462106,
                0.050537543247314964,
                -0.044209289812743406,
                -0.02601467746655261,
                -0.10648183182219645,
                -0.08714753948366905,
                -0.11682847775221943,
                -0.05943086223254294,
                -0.01750848664700004,
                0.03990263204492517,
                -0.04172709069693071,
                -0.0107288968744417,
                -0.06834894102754276,
                -0.051293798531964724,
                0.033458998059277094,
                0.042612504797277004,
                0.011017278226970567,
                -0.00020847508446719944,
                -0.028732717070176595,
                0.03748665514571499,
                -0.010639935400701168,
                -0.026647017138753077,
                0.014945552316532058,
                -0.0046095130040423584,
                -0.017890689427212957,
                -0.07135939252605336,
                -0.06265983855192064,
                -0.0009068083827858113,
                0.02917867221250009,
                0.010041305817607869,
                0.08544313797032427,
                0.027201289488128683,
                0.05250622773230305,
                0.015149228921859104,
                0.05241614411762986,
                -0.01225453664504732,
                -0.03012397600568158,
                -0.05266393290527898,
                0.010190973964793786,
                0.058108424318627304,
                0.0031911684357063407,
                -0.009648128196620042,
                -0.03980902603520606,
                0.0431349825062413,
                0.053617019121593355,
                0.04743295398337195,
                0.0518237478890819,
                0.0703562528069482,
                -0.07565511157997627,
                -0.010525438436691141,
                -0.020038369970592475,
                0.029271091276004878,
                0.07331738138486164,
                0.011037496970487375,
                0.004807998080249507,
                -0.05544835069379905,
                -0.04345539818007407,
                -0.07665828963597468,
                -0.020513773128071792,
                -0.0009950326545601663,
                -0.05048955957675435,
                -0.02222271034931716,
                -0.02602293647741637,
                0.019991699949733863,
                -0.022556741531218935,
                -0.04255674153121877,
                -0.01255674153121891,
                -0.022556741531218935,
                -0.06255674153121875,
                0.02744325846878106,
                -0.01255674153121891,
                -0.04255674153121877,
                -0.03255674153121875,
                -0.04255674153121877,
                -0.002556741531218819,
                -0.01255674153121891,
                -0.002556741531218819,
                -0.002556741531218819,
                0.03744325846878123,
                -0.002556741531218819,
                0.0074432584687811176,
                -0.04255674153121877,
                0.05744325846878122,
                -0.01255674153121891,
                -0.06255674153121875,
                -0.002556741531218819,
                0.017443258468781066,
                0.03744325846878123,
                -0.01255674153121891,
                -0.04255674153121877,
                0.03744325846878123,
                -0.022556741531218935,
                -0.05255674153121878,
                -0.002556741531218819,
                0.047443258468781224,
                0.0074432584687811176,
                -0.06255674153121875,
                -0.04255674153121877,
                -0.05255674153121878,
                0.05744325846878122,
                0.047443258468781224,
                0.047443258468781224,
                -0.002556741531218819,
                0.017443258468781066,
                -0.06255674153121875,
                0.03744325846878123,
                0.017443258468781066,
                0.0074432584687811176,
                -0.04255674153121877,
                -0.002556741531218819,
                0.047443258468781224,
                0.0074432584687811176,
                -0.04260620845751479,
                -0.002556741531218819,
                0.024607203412023233,
                -0.05555618172151641,
                -0.02304230392828761,
                -0.031398637088512545,
                -0.01853095673726621,
                -0.07009452339024605,
                0.05402536668161691,
                -0.021953620371493926,
                0.047443258468781224,
                -0.01255674153121891,
                0.02744325846878106,
                0.03719117058110741,
                -0.06255674153121875,
                0.0074432584687811176,
                -0.04255674153121877,
                0.02744325846878106,
                -0.03255674153121875,
                0.0074432584687811176,
                -0.022556741531218935,
                -0.05255674153121878,
                -0.03255674153121875,
                0.03744325846878123,
                0.017443258468781066,
                0.02744325846878106,
                -0.002556741531218819,
                0.047443258468781224,
                0.0074432584687811176,
                0.05744325846878122,
                -0.04255674153121877,
                -0.04255674153121877,
                -0.002556741531218819,
                -0.022556741531218935,
                -0.01255674153121891,
                -0.03255674153121875,
                -0.01255674153121891,
                0.047443258468781224,
                0.0074432584687811176,
                -0.05255674153121878,
                0.03744325846878123,
                0.05744325846878122,
                0.0074432584687811176,
                0.047443258468781224,
                -0.01255674153121891,
                0.017443258468781066,
                0.047443258468781224,
                0.047443258468781224
            ],
            [
                -0.05001240209896234,
                0.009987597901038139,
                -0.06001240209896234,
                -1.2402098961895864e-05,
                0.009987597901038139,
                0.05998759790103766,
                -0.05001240209896234,
                0.02998759790103847,
                -0.010012402098961861,
                -0.030012402098961527,
                -0.06001240209896234,
                0.04998759790103766,
                0.03998759790103767,
                -0.05001240209896234,
                0.04998759790103766,
                0.05998759790103766,
                -1.2402098961895864e-05,
                0.009987597901038139,
                -1.2402098961895864e-05,
                -0.030012402098961527,
                0.009987597901038139,
                -0.010012402098961861,
                -1.2402098961895864e-05,
                -0.05001240209896234,
                0.009987597901038139,
                -0.040012402098962334,
                0.008517606578390964,
                -0.04148239342160971,
                0.0185289475795961,
                -0.030012402098961527,
                0.05998759790103766,
                0.01854765965801179,
                -0.041452340341989066,
                -0.041473411806403085,
                -0.04011153354805876,
                0.00993735290550596,
                -0.030112505801451143,
                -0.040142237167952774,
                -0.003307774926940693,
                0.04096766628004075,
                -0.0015226804913008333,
                -0.01990383231860964,
                -0.021718481718413004,
                -0.06442119355512338,
                0.015192294998940887,
                -0.00011385259828206077,
                0.03850778044943665,
                0.008507780449437199,
                -0.010012402098961861,
                0.019987597901038476,
                0.04998759790103766,
                -0.040012402098962334,
                -0.010012402098961861,
                -0.040012402098962334,
                -0.05001240209896234,
                0.019987597901038476,
                -0.05001240209896234,
                0.04998759790103766,
                -0.010012402098961861,
                -0.010012402098961861,
                -0.010012402098961861,
                0.05998759790103766,
                -0.05001240209896234,
                -0.030012402098961527,
                -0.040012402098962334,
                0.02998759790103847,
                -0.030012402098961527,
                -0.040012402098962334,
                -0.06001240209896234,
                0.009987597901038139,
                0.009987597901038139,
                -0.010012402098961861,
                -0.040012402098962334,
                -0.040012402098962334,
                -0.040012402098962334,
                -0.05001240209896234,
                -0.010012402098961861,
                0.03998759790103767,
                0.019987597901038476,
                -0.040012402098962334,
                -0.030012402098961527,
                -0.020012402098961525,
                0.04998759790103766,
                0.03998759790103767,
                0.04998759790103766,
                0.05998759790103766,
                -0.040012402098962334,
                0.009987597901038139,
                0.04998759790103766,
                0.02998759790103847,
                -0.020012402098961525,
                -0.06001240209896234,
                -0.020012402098961525,
                0.03998759790103767,
                -0.040012402098962334,
                -0.030012402098961527,
                0.048538978388184634,
                -0.025031785832264737,
                0.03532627725072838,
                -0.06133334662282038,
                0.04864135995320151,
                -0.0015172153793931822,
                0.03368015759444099,
                0.0554452879581815,
                0.012862866277894293,
                -0.03140313723129186,
                0.04810114328279267,
                0.020042263199367756,
                -0.038359465767750595,
                0.022391921717298216,
                -0.045447905989619446,
                0.0074932881744917915,
                -0.02936975267772343,
                -0.038763206863241466,
                -0.017044034033792625,
                0.03119800551411481,
                -0.025025320862559503,
                0.03859486631994475,
                0.03864692132304019,
                0.0152095113855336,
                -0.024790652267004495,
                0.05853874217721098,
                0.02849671378403414,
                -0.05477214986122689,
                0.04587790640912201,
                0.03491112232147596,
                -0.0473816507585706,
                0.014553727085288307,
                -0.05380901088043022,
                0.024393735955461123,
                0.04146156642243879,
                0.05043499141678717,
                0.0028518200491627014,
                -0.02464332547748413,
                0.034855903505950005,
                -0.015240515424338082,
                0.030879508534773756,
                -0.05114493969902653,
                -0.02088808748049358,
                -0.05080750410584456,
                -0.055363116614695666,
                -0.005535508870281361,
                0.06348210180462377,
                -0.021445395659440678,
                0.027964149828359607,
                0.004086025121525466,
                -0.03252572384370649,
                0.006456111398180972,
                -0.055870953759118346,
                0.031493942097689825,
                -0.022553655165844667,
                0.031435346551869386,
                -0.003490217853186334,
                0.06098852435781129,
                -0.05536633413378939,
                0.038734261344330216,
                -0.0194172854266283,
                -0.05640473976256772,
                0.008078615254705096,
                -0.0284634831389671,
                -0.02636376292185289,
                -0.047121681282443505,
                0.04710342610965225,
                0.02027855664711135,
                0.03244862962241475,
                0.04999546185321904,
                -0.020357810654765086,
                0.035396737788974515,
                -0.031781037406046465,
                -0.06707062363828924,
                -0.0719921662107081,
                -0.057161119141814445,
                -0.007308361536624377,
                -0.01808716906516065,
                0.013147222028358939,
                0.004341350524505464,
                -0.0019357169178628767,
                0.030977507037658315,
                -0.04535710738577498,
                -0.02470650668919059,
                -0.04380706248654592,
                -0.019750794150668383,
                0.03933808030372289,
                -0.04862753140989697,
                0.05833162576333115,
                0.03143253314133941,
                0.034361511583231474,
                -0.011083702464763702,
                0.05587504231102123,
                0.01296093273352507,
                0.023135699866041925,
                0.007971931029163272,
                -0.023112740193616168,
                -0.0034497203547016867,
                -0.012960982053109011,
                0.008113841777784979,
                -0.059291931557226694,
                0.04958570307271058,
                -0.040458531637906,
                -0.020381069242999303,
                0.0316643919734696,
                -0.020234126527185505,
                -0.020234126527185505,
                -0.054600248489807435,
                0.01794091378502246,
                0.047472294196587786,
                -0.01622685597396305,
                0.0683698983836581,
                0.011131615137350457,
                -0.021810753126731326,
                -0.05274447989653741,
                0.04602231233639819,
                0.025643422133045893,
                0.027155373979959787,
                0.015251498849698437,
                -0.058232743909532314,
                -0.0083830929733554,
                0.01123582137493677,
                0.049823978428927745,
                -0.00902223526510794,
                0.029781330398298653,
                0.004415685890951939,
                -0.01708814541056778,
                0.009831824856604082,
                -0.011482393421609036,
                0.009987597901038139,
                -0.030012402098961527,
                0.0485176065783903,
                0.058517606578390294,
                -0.0014823934216091636,
                -1.2402098961895864e-05,
                -1.2402098961895864e-05,
                -0.06001240209896234,
                0.04998759790103766,
                0.04998759790103766,
                0.009987597901038139,
                -1.2402098961895864e-05,
                0.05998759790103766,
                -0.010012402098961861,
                -1.2402098961895864e-05,
                -0.040012402098962334,
                0.019987597901038476,
                0.009987597901038139,
                0.019987597901038476,
                0.04998759790103766,
                -0.05148239342160971,
                0.01858277626739763,
                -0.010012402098961861,
                -0.040012402098962334,
                0.038596499674377505,
                -0.03141722373260298,
                0.05998759790103766,
                -0.030012402098961527,
                -0.030012402098961527,
                -0.010012402098961861,
                -0.020012402098961525,
                -0.06001240209896234,
                0.009987597901038139,
                -0.020012402098961525,
                0.019987597901038476,
                0.04998759790103766,
                -0.05001240209896234,
                0.05998759790103766,
                0.019987597901038476,
                -0.040012402098962334,
                -0.030012402098961527,
                0.03994947726770432,
                0.009919424188084289,
                -0.06142302349018642,
                -0.030012402098961527,
                -1.2402098961895864e-05,
                -0.03131906598601305,
                0.02972529312946959,
                0.018313035008590474,
                0.000385267174387797,
                -0.045443192751262906,
                0.006821628007440225,
                -0.00623558757120691,
                0.013255600027375414,
                -0.03690204133698397,
                0.029863237266248507,
                -0.0335142368525918,
                -0.026237846878420297,
                -0.03907303588996379,
                0.0319876269904055,
                -0.05911591768020151,
                -0.05016535400542232,
                -0.04039300084374394,
                0.04175817517529462,
                0.05176058214152082,
                -0.007980891206894313,
                -0.04488950736671868,
                -0.042694539691896224,
                -0.03009622012522205,
                -0.02592646716934667,
                -0.019081857521066878,
                -0.041858099590043545,
                -0.0009776103379965032,
                0.047240434919303353,
                0.036583995390927763,
                0.01286395114912331,
                0.03392272089498004,
                -0.05026919153789756,
                -0.03017703153042075,
                -3.6799325314655617e-05,
                -0.020012402098961525,
                -0.05001240209896234,
                -0.050050522732295676,
                -0.06005052273229567,
                0.00994947726770479,
                0.02998759790103847,
                0.04998759790103766,
                -0.040012402098962334,
                -1.2402098961895864e-05,
                -0.05001240209896234,
                -0.030012402098961527,
                0.019987597901038476,
                -0.040012402098962334,
                -0.05001240209896234,
                0.02998759790103847,
                0.05998759790103766,
                -0.010012402098961861,
                0.02998759790103847,
                -0.05001240209896234,
                -0.040012402098962334,
                -0.0300367993253143,
                0.00996320067468539,
                -0.010012402098961861,
                0.009987597901038139,
                -0.0300367993253143,
                0.039963200674685,
                0.009987597901038139,
                -0.05001240209896234,
                0.02998759790103847,
                -0.030012402098961527,
                -0.040012402098962334,
                -0.06001240209896234,
                0.009987597901038139,
                0.04998759790103766,
                -0.05001240209896234,
                -0.030012402098961527,
                0.009987597901038139,
                0.04998759790103766,
                0.009987597901038139,
                0.04998759790103766,
                0.019987597901038476,
                -0.040012402098962334,
                0.02998759790103847,
                -0.05001240209896234,
                -0.010012402098961861,
                0.019987597901038476,
                -0.030012402098961527,
                0.009987597901038139,
                0.039931052334277385,
                -0.020012402098961525,
                -0.010012402098961861,
                0.02998759790103847,
                -0.05001240209896234,
                0.04998759790103766,
                0.02998759790103847,
                0.03998759790103767,
                0.019987597901038476,
                -1.2402098961895864e-05,
                -1.2402098961895864e-05,
                0.04998759790103766,
                0.02998759790103847,
                0.039931052334277385,
                0.05993105233427739,
                0.05994701561249473,
                -0.059356595743989084,
                0.037824002848036754,
                0.0299632006746857,
                0.049906655107924726,
                -3.6799325314655617e-05,
                -0.03000837341043382,
                0.06690642410718999,
                -0.03650207164536964,
                0.03989034928544909,
                0.03986201677063533,
                -0.049916274220664386,
                0.022149994500559236,
                -0.03508174659240688,
                0.05169607572088507,
                -0.06342005036224087,
                0.04256449643811867,
                -0.025452768307603485,
                0.016483414644263256,
                -0.0415290794020924,
                0.03826421413526176,
                -0.007241266497386122,
                0.04832953200152775,
                0.06259868004583094,
                0.07440946794444855,
                -0.03672259744789764,
                0.05044711963275345,
                0.04798221165911721,
                -0.03201209696703422,
                -0.02292636137544122,
                -0.03353408477623133,
                0.04790907792661994,
                0.029931052334278268,
                -0.020068947665721728,
                0.009987597901038139,
                0.009987597901038139,
                0.009987597901038139,
                -0.010012402098961861,
                -0.040012402098962334,
                0.009987597901038139,
                0.03998759790103767,
                -0.05001240209896234,
                0.02998759790103847,
                0.009987597901038139,
                0.05998759790103766,
                -0.020012402098961525,
                -0.010068947665722135,
                0.019931052334278273,
                0.029699343402187935,
                0.01969934340218794,
                -0.010012402098961861,
                -1.2402098961895864e-05,
                0.03998759790103767,
                0.019987597901038476,
                -0.030012402098961527,
                0.019987597901038476,
                -0.010012402098961861,
                -0.05001240209896234,
                -0.010012402098961861,
                0.04998759790103766,
                -0.020012402098961525,
                -0.05001240209896234,
                0.039699343402187025,
                -0.040203523484527465,
                -0.022342423225461674,
                0.0012229706727687542,
                -0.0034177833293984636,
                -0.060069152022165416,
                0.01977551050121098,
                0.048111876085528846,
                -0.029564053064375186,
                -0.03792754209954296,
                -0.04466192614388214,
                0.03700146591288516,
                0.01483842775210367,
                0.050639972342230416,
                0.0640821647684803,
                -0.04981386033934328,
                -0.05703591293341116,
                0.03424265375269807,
                -0.015456467750759772,
                0.07519330679420029,
                -0.018737328677274057,
                -0.012900938923633247,
                -0.009784862411040507,
                -0.04552098994233602,
                0.0658192356210686,
                -0.022760502171377293,
                0.032026086462875865,
                0.03205787125492261,
                0.052810072049843476,
                0.0772318548338644,
                -0.01620158906179492,
                0.07129702497211493,
                -0.020601205621772513,
                0.010891153477083478,
                0.03884233561607109,
                -0.030857830112488004,
                -0.008998186545919816,
                -0.03485166668676307,
                0.006757695341990958,
                0.03965949087357902,
                -0.034725204156902674,
                0.05772429113280845,
                -0.023668443479861443,
                -0.025898043602246294,
                -0.02586395644723994,
                0.061261761532034,
                -0.0637398054615437,
                -0.028350774858436806,
                0.04617530383298523,
                0.017755453865445473,
                0.02901674969214513,
                0.05382782758806942,
                0.027610980045314485,
                -0.0265008404907092,
                0.04552925754064442,
                0.001967604548838202,
                -0.012807307343066248,
                0.00911461421929444,
                -0.017043981061772105,
                0.03744095696459854,
                -0.008081120112769275,
                -0.05074780599221095,
                -0.05240964159285382,
                -0.037090840305060935,
                0.01689669801757177,
                0.04696112765337898,
                -0.0011823946566875412,
                -0.05674916797049299,
                0.03443251750416413,
                0.0030157797023368485,
                -0.0006491899683848227,
                -0.0007845313154692346,
                -0.037104807388488696,
                -0.05455189983087884,
                -0.049236191777505156,
                -0.02617421988867821,
                -0.0033852766854367802,
                0.005709545846380909,
                0.05018526270689969,
                0.043966072413590636,
                -0.0489056492463981,
                0.027409579377690736,
                -0.04008063096440252,
                -0.057764674112539806,
                -0.026720178495922325,
                0.011025749903080419,
                0.029880509409783974,
                -0.02080574012675936,
                -0.08135067604807598,
                0.02733442882509614,
                -0.03097751149566137,
                0.06355111475437375,
                -0.013202733328984445,
                -0.0030105161500101354,
                0.011590098669370386,
                -0.0666288467540753,
                -0.012774631309684231,
                0.0016277829231624449,
                0.0028855917149166713,
                -0.021611852730196626,
                -0.05796460827524941,
                -0.01332010010006011,
                -0.035710054943169305,
                -0.0007686471995198574,
                -0.04159688064743876,
                0.004154047707304535,
                -0.06912380250235929,
                -0.02744805296382729,
                -0.056637825439179945,
                -0.024466144835667433,
                0.058391541241968895,
                -0.05016319451472186,
                -0.01900197414832565,
                -0.025624953637289113,
                -0.06232335521617694,
                -0.04506160048435347,
                0.04792544000895549,
                0.03407881949287851,
                -0.016935100273869855,
                0.02401755358626125,
                0.0547530270230033,
                0.0006615382011125815,
                -0.05202008577630761,
                0.013564810946592174,
                0.027556533362354505,
                0.020588854381154265,
                -0.01464236881884424,
                -0.06145871461868994,
                0.018464118885601618,
                -0.03387648963209213,
                -0.03189985568496776,
                -0.01821032721889588,
                0.056780693422765594,
                -0.04715578916895637,
                0.03292626496272942,
                -0.016820611546978694,
                0.07013545682774346,
                -0.006081376992999642,
                0.024795515240433105,
                0.015883517563528675,
                -0.03825272760802079,
                0.03344115150459068,
                0.0408019569673669,
                -0.037828898859920156,
                0.04532147770007021,
                -0.03292110588864673,
                -0.0023038897372027406,
                0.06695855714833104,
                0.003106305024438883,
                0.047806330178831014,
                -0.06895113328150031,
                -0.023039427442520095,
                0.04337373823925542,
                0.0636573245424298,
                0.050585199024606044,
                0.02518917680354357,
                0.03961344901343453,
                -0.05030557354922398,
                -0.0023940196085132912,
                0.023502318940779438,
                -0.06802243619266059,
                0.0478102073597526,
                -0.05030075390340654,
                -0.010300753903406049,
                -0.010012402098961861,
                0.019987597901038476,
                0.04998759790103766,
                0.03998759790103767,
                -0.040012402098962334,
                -0.030012402098961527,
                -0.040012402098962334,
                0.04998759790103766,
                0.009987597901038139,
                -1.2402098961895864e-05,
                0.02998759790103847,
                -0.010012402098961861,
                0.039755791663353725,
                0.04980274550091462,
                0.04971171860540721,
                0.04971171860540721,
                0.05998759790103766,
                0.05998759790103766,
                -0.010012402098961861,
                0.03998759790103767,
                -0.030012402098961527,
                0.05998759790103766,
                -0.010012402098961861,
                0.009987597901038139,
                -1.2402098961895864e-05,
                -0.05001240209896234,
                -0.040012402098962334,
                -0.030012402098961527,
                0.04971171860540721,
                0.019711718605407918,
                -0.05035715724500676,
                -0.04994890759004277,
                -0.006924449163837476,
                0.05964284275499324,
                0.01964284275499402,
                0.019633777319765514,
                0.015826776695496772,
                -0.0493988723042644,
                0.042927765772218386,
                0.03137937690341649,
                0.017068972798076374,
                -0.03329535376018947,
                0.0144918791156215,
                -0.030415465937052043,
                -0.026872362234478565,
                0.041354148021772466,
                0.023008526373208556,
                0.027496252133582227,
                0.06184446350266536,
                0.05994875214227304,
                0.04991914517557395,
                0.03997094956721741,
                -0.05001240209896234,
                -0.020080854824425443,
                -0.020080854824425443,
                0.03997094956721741,
                0.009987597901038139,
                -0.01003990540673621,
                -0.050065703156043834,
                0.034878916292797386,
                -0.02794854314071674,
                -8.12779493757906e-05,
                -0.040012402098962334,
                -0.040012402098962334,
                -0.020012402098961525,
                -0.05001240209896234,
                -1.2402098961895864e-05,
                -0.040012402098962334,
                -0.020012402098961525,
                -0.030012402098961527,
                0.02998759790103847,
                0.009987597901038139,
                0.04998759790103766,
                -0.010012402098961861,
                0.009987597901038139,
                0.03998759790103767,
                -0.05001240209896234,
                -0.06001240209896234,
                0.019987597901038476,
                0.03998759790103767,
                -0.010012402098961861,
                -0.030012402098961527,
                0.03998759790103767,
                0.05998759790103766,
                -0.020012402098961525,
                -0.040012402098962334,
                -0.06001240209896234,
                -0.040012402098962334,
                -0.010012402098961861,
                -0.05001240209896234,
                0.04998759790103766,
                -0.06001240209896234,
                0.02998759790103847,
                0.04998759790103766,
                -0.010012402098961861,
                0.019987597901038476,
                -0.06001240209896234,
                0.03998759790103767,
                -0.020012402098961525,
                -1.2402098961895864e-05,
                0.05998759790103766,
                0.02998759790103847,
                0.02998759790103847,
                -0.05001240209896234,
                0.019987597901038476,
                0.05998759790103766,
                0.009987597901038139,
                0.03998759790103767,
                0.019987597901038476,
                0.009987597901038139,
                -0.030012402098961527,
                0.04998759790103766,
                -0.040012402098962334,
                -0.010012402098961861,
                -0.020012402098961525,
                0.019987597901038476,
                0.04998759790103766,
                -0.020012402098961525,
                0.05998759790103766,
                -0.030012402098961527,
                -1.2402098961895864e-05,
                -0.05001240209896234,
                -1.2402098961895864e-05,
                -0.040012402098962334,
                -0.020012402098961525,
                -0.040012402098962334,
                -0.03996246038051378,
                0.01003753961948677,
                -0.0005181543083406138,
                0.009481845691659462,
                0.008993879299250124,
                0.051815602004171374,
                -0.03774022808898157,
                0.025440826240639904,
                -0.011515078230720057,
                0.03809145014899511,
                -0.0572811511389468,
                -0.030281702869125165,
                0.029265114356470737,
                -0.050797465091199194,
                0.029970949567218182,
                -0.06006740819194823,
                0.03768813753126572,
                0.027688137531266366,
                -0.020886309642838215,
                0.026999436567622943,
                -0.06058363299735084,
                0.06134502379787902,
                0.053694102450934596,
                0.018077448943185245,
                0.059101301820985074,
                -0.03656637335173892,
                0.019879875591713267,
                -0.06072502320508685,
                -0.020752538330078202,
                -0.010764388185736105,
                -0.04231186246873428,
                0.037671489197445465,
                -0.010012402098961861,
                -0.010012402098961861,
                -0.040012402098962334,
                -0.06001240209896234,
                0.03998759790103767,
                0.02998759790103847,
                0.05998759790103766,
                -0.040012402098962334,
                0.009987597901038139,
                -0.06001240209896234,
                -1.2402098961895864e-05,
                -0.030012402098961527,
                0.009987597901038139,
                -0.030012402098961527,
                -0.06001240209896234,
                0.019987597901038476,
                0.05998759790103766,
                0.05998759790103766,
                -0.030012402098961527,
                0.019987597901038476,
                0.04998759790103766,
                -0.030012402098961527,
                -0.06001240209896234,
                -0.040012402098962334,
                -0.010012402098961861,
                0.03998759790103767,
                -1.2402098961895864e-05,
                0.05998759790103766,
                0.02998759790103847,
                -1.2402098961895864e-05,
                -1.2402098961895864e-05,
                -0.020012402098961525,
                -0.020012402098961525,
                0.03998759790103767,
                -0.05001240209896234,
                0.009987597901038139,
                -0.010012402098961861,
                0.04998759790103766,
                0.03998759790103767,
                -0.040012402098962334,
                -1.2402098961895864e-05,
                -0.010012402098961861,
                0.04998759790103766,
                0.02998759790103847,
                -0.040012402098962334,
                -0.020012402098961525,
                -0.05001240209896234,
                0.02998759790103847,
                0.0577527519822548,
                -0.0007685717627012924,
                -0.0003256420241686028,
                0.0577527519822548,
                -0.04231186246873428,
                0.00768813753126617,
                0.019784106496266298,
                -0.04039025647515769,
                0.011034437844806927,
                -0.04851081712652681,
                -0.0019886067915142604,
                -0.036725850254972166,
                0.013140448023796342,
                0.04165030534879611,
                -0.0502024210321141,
                0.05847456936431265,
                0.05331806598072532,
                -0.05745937429532387,
                0.015382516500702078,
                -0.05842990214785153,
                -0.050703957311712074,
                0.04775275198225481,
                0.01768813753126637,
                0.04938157072656527,
                0.019417893482411255,
                -0.01231186246873387,
                0.027688137531266366,
                0.029264110003742034,
                -0.0013203011377857959,
                -0.058424289156417564,
                -0.05785644436334444,
                -0.02081597733373113,
                -0.0037578546099744673,
                0.05622621316041555,
                0.03574049463975036,
                0.01412902187478991,
                0.013747286999346726,
                -0.02861459335924238,
                0.05841144770558128,
                -0.05115126786017499,
                0.05122578292922066,
                -0.03460393260442943,
                0.03585480972016837,
                -0.021333319017026033,
                -0.036175489922716235,
                -0.030644675133826755,
                0.019345611881947677,
                0.01672892856617308,
                -0.024382692885585977,
                -0.017482725389187995,
                0.022215871621418224,
                0.012940240130440973,
                0.01834129790546267,
                -0.042829584083083745,
                0.009656227572986337,
                -0.048952678803073406,
                -0.025221145343159914,
                -0.0008923078075258348,
                0.04936469474582534,
                0.017910513146241456,
                -0.04090333201806621,
                0.005577181540853617,
                -0.060829510993218004,
                -0.028429762911212936,
                0.04165528768046683,
                0.00044327928361657763,
                -0.05545127333091953,
                0.05600276916561512,
                0.06137825920914548,
                -0.05314549481132814,
                -0.015978260179379308,
                -0.0035792321916846043,
                -0.020724075203871383,
                0.06075882319848849,
                -0.0009994619944758388,
                0.05213521173531399,
                0.025233881684559496,
                0.05290642480464614,
                -0.042315948543049764,
                0.0025685004348494824,
                -0.013291019271978852,
                -0.03808864770394375,
                0.05842441432831724,
                0.0050507295039891615,
                -0.03806329567316573,
                -0.03118886697014481,
                0.04383062502473137,
                0.054713111101841475,
                -0.006262622097051951,
                0.014616016383864963,
                0.03563752871709805,
                0.03694668100359536,
                0.07067012376491479,
                -0.009714227037535756,
                0.011556713584665888,
                -0.03991304408741297,
                -0.003990030963429887,
                0.0521859989201142,
                0.0003439731628519485,
                -0.039508856180966556,
                -0.04020323168508625,
                -7.28728011996902e-05,
                -0.05012034503381788,
                0.05984345147637121,
                -0.02000700719387938,
                0.0099495258717424,
                -0.06012034503381788,
                -0.010048168482586085,
                0.055601933675483356,
                0.016504025177067505,
                -0.02702273834990091,
                -0.027588019618649835,
                -0.0014513704885286255,
                0.020515958904148136,
                0.0072178739549872235,
                0.03786462428447701,
                0.03253722979626445,
                0.010257006206944207,
                -0.022109960562630662,
                -0.015619718281938092,
                -0.033086189844433136,
                -0.06476467230461466,
                0.04984435852808536,
                -0.060166708137318094,
                -0.020150219443381006,
                0.04502221780375164,
                0.009809693927449273,
                -0.00013915277797787293,
                -1.2402098961895864e-05,
                -0.06001240209896234,
                -0.020012402098961525,
                0.02998759790103847,
                0.02998759790103847,
                0.009987597901038139,
                -1.2402098961895864e-05,
                -0.05001240209896234,
                0.05998759790103766,
                -0.010012402098961861,
                -1.2402098961895864e-05,
                -0.030012402098961527,
                -0.06001240209896234,
                0.009987597901038139,
                -1.2402098961895864e-05,
                -0.06001240209896234,
                -0.040012402098962334,
                -0.010012402098961861,
                0.05998759790103766,
                -0.020012402098961525,
                0.019987597901038476,
                -0.010012402098961861,
                -0.010012402098961861,
                0.009987597901038139,
                -1.2402098961895864e-05,
                -0.020012402098961525,
                0.04998759790103766,
                0.009987597901038139,
                -0.040012402098962334,
                0.04998759790103766,
                0.03998759790103767,
                0.03998759790103767,
                0.04998759790103766,
                -0.020012402098961525,
                0.05998759790103766,
                -0.020012402098961525,
                0.019987597901038476,
                -0.010012402098961861,
                0.04998759790103766,
                -0.010012402098961861,
                0.05998759790103766,
                -1.2402098961895864e-05,
                0.05998759790103766,
                0.02998759790103847,
                -0.020012402098961525,
                0.02998759790103847,
                0.02998759790103847,
                -0.040012402098962334,
                0.04995817338155704,
                -0.010012402098961861,
                0.009927548064209852,
                -0.00015677482041339863,
                0.052165122495353045,
                0.047750833443293506,
                0.02093694258239738,
                -0.03967738564088942,
                -5.448719773935183e-05,
                0.037627944663491696,
                0.04998759790103766,
                0.05998759790103766,
                -0.040012402098962334,
                -0.06002147353742522,
                0.04998759790103766,
                -0.06001240209896234,
                -0.05001240209896234,
                -0.06001240209896234,
                0.05998759790103766,
                -0.05001240209896234,
                -0.030012402098961527,
                0.03998759790103767,
                -0.020012402098961525,
                0.019987597901038476,
                -0.05001240209896234,
                -0.06001240209896234,
                0.009987597901038139,
                -0.010012402098961861,
                0.009987597901038139,
                0.05998759790103766,
                0.03998759790103767,
                -0.040012402098962334,
                0.009987597901038139,
                -0.010012402098961861,
                -0.010012402098961861,
                0.03998759790103767,
                0.009987597901038139,
                0.02998759790103847,
                -0.010012402098961861,
                0.019987597901038476,
                0.04998759790103766,
                -0.040012402098962334,
                -0.05001240209896234,
                0.009987597901038139,
                0.04998759790103766,
                0.019987597901038476,
                0.009987597901038139,
                -0.020012402098961525
            ],
            [
                0.02862539527373563,
                0.0586253952737356,
                0.048625395273735605,
                0.048625395273735605,
                -0.061374604726264395,
                -0.03137460472626405,
                -0.0013746047262643225,
                0.018625395273735634,
                -0.011374604726264248,
                -0.03137460472626405,
                0.048625395273735605,
                -0.03137460472626405,
                0.02862539527373563,
                -0.0013746047262643225,
                0.02862539527373563,
                -0.041374604726264405,
                -0.041374604726264405,
                0.008625395273735752,
                -0.011374604726264248,
                -0.041374604726264405,
                -0.061374604726264395,
                -0.041374604726264405,
                -0.0513746047262644,
                -0.021374604726264367,
                -0.0513746047262644,
                0.008625395273735752,
                -0.004419827895934416,
                0.045580172104065744,
                -0.043884636016675964,
                -0.0013746047262643225,
                0.048625395273735605,
                -0.05286254063289739,
                -0.03286254063289744,
                0.04617573911454309,
                -0.03583719263634774,
                -0.0035938192566818783,
                0.01428345336250273,
                0.042922700945028563,
                0.011324670281784594,
                0.04402195108934207,
                0.024939560102580142,
                -0.030615466275958837,
                0.03362591487431983,
                -0.04039251860116381,
                0.017295804564150714,
                -0.025942047226286676,
                -0.0047513835593012786,
                -0.0047513835593012786,
                -0.041374604726264405,
                -0.0513746047262644,
                -0.0513746047262644,
                -0.021374604726264367,
                -0.0013746047262643225,
                -0.011374604726264248,
                -0.0013746047262643225,
                0.02862539527373563,
                -0.0013746047262643225,
                0.02862539527373563,
                0.0386253952737356,
                -0.021374604726264367,
                0.0386253952737356,
                0.048625395273735605,
                -0.061374604726264395,
                0.02862539527373563,
                0.02862539527373563,
                0.048625395273735605,
                0.008625395273735752,
                -0.021374604726264367,
                -0.011374604726264248,
                0.008625395273735752,
                -0.061374604726264395,
                0.02862539527373563,
                -0.011374604726264248,
                0.02862539527373563,
                -0.011374604726264248,
                0.018625395273735634,
                -0.041374604726264405,
                0.0386253952737356,
                0.008625395273735752,
                -0.0513746047262644,
                0.048625395273735605,
                0.02862539527373563,
                0.02862539527373563,
                -0.03137460472626405,
                -0.011374604726264248,
                -0.041374604726264405,
                -0.041374604726264405,
                0.008625395273735752,
                0.018625395273735634,
                -0.061374604726264395,
                -0.061374604726264395,
                -0.03137460472626405,
                -0.061374604726264395,
                -0.0013746047262643225,
                0.008625395273735752,
                0.008625395273735752,
                0.03740960441086191,
                -0.0064885200273828115,
                0.06899335938112833,
                0.0663913258322032,
                0.034585156048228816,
                0.04504635233774018,
                0.02314145249764452,
                -0.022574081193886014,
                0.06537095405659486,
                -0.031287052681747037,
                -0.020307794734724258,
                -0.05481070139161796,
                0.026705310465244634,
                0.036902297422876,
                0.010589431623866467,
                0.03440327827420715,
                0.009484351402648005,
                0.0705316830547737,
                -0.07547932943250082,
                0.04296042239169019,
                -0.05641965292415053,
                -0.019191057831105574,
                0.01360000201760648,
                0.00803336526712285,
                -0.03158382157816367,
                -0.0027515578254165875,
                -0.04520975886228966,
                -0.04051216911549567,
                0.07248049440375316,
                -0.019812042820338067,
                0.025100975973536974,
                0.036744156213195406,
                -0.021247290805912103,
                -0.023363581366170703,
                0.0709006191793269,
                0.03992588191285891,
                0.06844185594572853,
                0.0651623776496083,
                0.02138624239074785,
                -0.0020826516548792815,
                0.0056077610870908364,
                -0.03356488855526519,
                -0.0029040582918018155,
                -0.01258683275732864,
                0.03355833741869225,
                -0.008530547666284131,
                0.045293623661530155,
                0.03550344563886577,
                0.03045470454607853,
                0.017898142786477958,
                -0.01118178560344221,
                -0.027142522383711135,
                -0.021477636434041353,
                0.02047318558581631,
                0.046419719336912024,
                -0.019946261096504037,
                0.011989836751377297,
                0.035445605253585165,
                -0.059856875960987675,
                -0.0022145879294933773,
                -0.020134474249539173,
                0.017882226430220406,
                -0.030852699988331896,
                -0.0005665550662782245,
                0.017225604754225486,
                -0.011192069528071886,
                -0.0679562633808599,
                0.020569900168465934,
                -0.04299906664662528,
                -0.07905664026794895,
                0.0859821606930837,
                -0.0009434380775394485,
                -0.016826513158640626,
                -0.028265670826797547,
                0.030685201671483482,
                0.017077975377489844,
                -0.028550553802777434,
                -0.031888455963774126,
                -0.04464490778662399,
                -0.018976273532320752,
                0.03749903726968867,
                -0.03631076841561913,
                -0.046118164480781494,
                -0.0051234884197104095,
                -0.010760347290848378,
                -0.04637958175952778,
                -0.06716836769807555,
                -0.04434159993632597,
                -0.0519679991645766,
                0.07659195072060007,
                0.03370246574634164,
                0.008344708374376843,
                0.04472303663458551,
                0.04095256266120439,
                -0.017964906234380167,
                0.04484520463921907,
                0.0595048792064438,
                0.06760537985925275,
                -0.06574086273241718,
                0.011597197812836916,
                -0.02218133955279125,
                -0.02191447800687803,
                -0.07533545156516265,
                -0.04520054126874927,
                -0.017319912935788256,
                0.04950450410742619,
                0.009504504107426513,
                0.06506857957942871,
                0.010148540326473717,
                0.08396664476828973,
                0.011323264995832933,
                -0.005131704379795513,
                -0.010269445799166213,
                0.025500249016458757,
                0.010942968757588553,
                -0.0076861500342863326,
                0.0025629971481139478,
                -0.05772984911048695,
                -0.024185327411008206,
                -0.014245996481651663,
                -0.05310140756896931,
                0.013861229414075324,
                0.001132352628583657,
                -0.035357217129197115,
                -0.030844001314477825,
                -0.04046474629906225,
                0.007487456193726603,
                -0.046285383101084494,
                -0.06441982789593405,
                -0.021374604726264367,
                -0.021374604726264367,
                -0.04441982789593425,
                0.03558017210406575,
                -0.024419827895934488,
                0.0586253952737356,
                0.02862539527373563,
                -0.0013746047262643225,
                -0.061374604726264395,
                -0.011374604726264248,
                0.0586253952737356,
                0.008625395273735752,
                -0.0513746047262644,
                -0.041374604726264405,
                0.048625395273735605,
                -0.0013746047262643225,
                -0.0013746047262643225,
                0.048625395273735605,
                0.02862539527373563,
                -0.041374604726264405,
                -0.06441982789593405,
                0.02077006462710963,
                0.0386253952737356,
                -0.061374604726264395,
                -0.028660623312347203,
                -0.009229935372890337,
                0.048625395273735605,
                -0.061374604726264395,
                0.0386253952737356,
                0.02862539527373563,
                -0.03137460472626405,
                0.0386253952737356,
                -0.061374604726264395,
                -0.011374604726264248,
                -0.041374604726264405,
                0.008625395273735752,
                0.048625395273735605,
                0.02862539527373563,
                -0.03137460472626405,
                -0.0013746047262643225,
                0.02862539527373563,
                -0.03317486363098577,
                0.0452678491059772,
                -0.019262757621186455,
                -0.03137460472626405,
                0.018625395273735634,
                -0.03239904909779768,
                0.038893674619798806,
                0.00840677818773813,
                -0.0033651478785895386,
                -0.015855544656126448,
                0.0007562872274489644,
                -0.06993689050727604,
                0.011485823453773206,
                -0.08097601387829978,
                0.06729535188622865,
                -0.0018303548257069932,
                0.049514636148776776,
                -0.02585691805416147,
                -0.00589113570720353,
                -0.02866730997875289,
                -0.025395201999841518,
                -0.012866145453593832,
                -0.006959423089649444,
                -0.046983148139383556,
                0.07717056630490914,
                -0.011364309940021727,
                0.004244075408509977,
                -0.03008364623703822,
                -0.03493017612397256,
                0.055517331215201915,
                0.0503339421464209,
                -0.03469846372205825,
                -0.05320414119499459,
                0.045535925230690125,
                0.040648799155893145,
                0.055873746832509355,
                -0.005473919250434222,
                0.020176891490279934,
                -0.0526055515704428,
                -0.0013746047262643225,
                -0.011374604726264248,
                0.01682513636901397,
                0.04682513636901408,
                0.04682513636901408,
                0.008625395273735752,
                0.018625395273735634,
                -0.0013746047262643225,
                -0.0013746047262643225,
                -0.03137460472626405,
                0.0586253952737356,
                0.018625395273735634,
                -0.03137460472626405,
                0.048625395273735605,
                0.048625395273735605,
                0.018625395273735634,
                -0.021374604726264367,
                -0.061374604726264395,
                0.048625395273735605,
                0.0386253952737356,
                -0.03260555157044275,
                0.0273944484295571,
                -0.0013746047262643225,
                -0.061374604726264395,
                0.0073944484295572965,
                0.04739444842955721,
                -0.0513746047262644,
                -0.0013746047262643225,
                -0.011374604726264248,
                -0.041374604726264405,
                -0.011374604726264248,
                -0.0013746047262643225,
                0.02862539527373563,
                0.0386253952737356,
                -0.061374604726264395,
                -0.061374604726264395,
                0.0586253952737356,
                -0.011374604726264248,
                0.008625395273735752,
                0.0386253952737356,
                -0.041374604726264405,
                0.008625395273735752,
                -0.03137460472626405,
                -0.03137460472626405,
                0.048625395273735605,
                0.008625395273735752,
                0.0386253952737356,
                -0.021374604726264367,
                -0.02444588784565817,
                -0.011374604726264248,
                0.048625395273735605,
                0.0386253952737356,
                0.008625395273735752,
                0.048625395273735605,
                -0.021374604726264367,
                -0.021374604726264367,
                -0.0013746047262643225,
                -0.011374604726264248,
                0.018625395273735634,
                0.048625395273735605,
                -0.03137460472626405,
                0.005554112154341948,
                -0.014445887845658038,
                0.006667537777588318,
                0.016919756187001655,
                0.013953436567970929,
                0.0573944484295572,
                -0.0056768346898365815,
                -0.04260555157044279,
                -0.031024971680526096,
                0.012830933504507966,
                0.023133559829962246,
                0.003315250788756508,
                0.0018148343052955065,
                0.010198449634304807,
                0.07683061798042967,
                0.021089123730622255,
                -0.005548293704284814,
                -0.022392077130081872,
                -0.030078137512072264,
                0.016028814516815076,
                -0.03255801463291391,
                -0.03763750826114382,
                -0.04801836964382014,
                0.029951881541872345,
                0.07611172681449546,
                0.015582091196744852,
                -0.03191314329056286,
                0.0014319609833387127,
                0.05793020601115499,
                -0.0200266988042363,
                0.01026427221230805,
                0.03495783311513702,
                -0.015479949247311548,
                -0.06574725940990868,
                -0.02444588784565817,
                -0.05444588784565808,
                -0.021374604726264367,
                0.008625395273735752,
                -0.021374604726264367,
                -0.021374604726264367,
                0.0386253952737356,
                -0.041374604726264405,
                -0.03137460472626405,
                -0.0513746047262644,
                0.048625395273735605,
                0.048625395273735605,
                -0.021374604726264367,
                -0.011374604726264248,
                0.02555411215434183,
                0.015554112154341888,
                -0.02387685384180592,
                0.03612314615819408,
                0.0386253952737356,
                0.0586253952737356,
                0.018625395273735634,
                0.0386253952737356,
                0.0386253952737356,
                -0.03137460472626405,
                0.0386253952737356,
                0.02862539527373563,
                -0.0013746047262643225,
                -0.0513746047262644,
                0.0586253952737356,
                0.018625395273735634,
                -0.02387685384180592,
                -0.03750196927617161,
                -0.0255708284420931,
                -0.008274508442274014,
                0.0788956626018559,
                -0.04560751002366067,
                0.0626377705557511,
                0.052079218372090945,
                0.0006528341473220387,
                0.0006385092219970168,
                0.006914193156418554,
                -0.007858049758999088,
                -0.07063597398627354,
                -0.005405287671723011,
                -0.05852229781190182,
                -0.02869062175555584,
                -0.02758858610619817,
                0.029894474156736663,
                0.058249153114819846,
                -0.05052537435356174,
                -0.023093017833580566,
                0.029944233044891484,
                -0.005499826581188966,
                -0.0049030509665596205,
                -0.028236447662575655,
                0.05057045039807911,
                0.06324895853902511,
                -0.012908553141084406,
                0.044441529561358654,
                -0.00020527556304313177,
                -0.018709453462714395,
                0.019220204878876188,
                0.008615724425521859,
                0.024092058054459752,
                0.015357042680501688,
                0.00889933859720858,
                0.08649240323695927,
                -0.041632970521285485,
                -0.05689920584372056,
                -0.062158504170148184,
                0.004597086336636814,
                -0.028525920720237668,
                -0.03058773935652237,
                0.039017775134173774,
                -0.04832171803191012,
                0.014507830160588812,
                0.03117816354582773,
                -0.07688400804378699,
                0.014725577532670089,
                0.05969822733173974,
                -0.02494038740010223,
                0.03647272775374027,
                -0.027659040047793727,
                -0.01200706057709684,
                0.003058788172642054,
                0.04336359444023338,
                -0.008940696349922055,
                -0.06297521467241522,
                0.0417656186007521,
                0.05615815293872609,
                -0.06969839519316252,
                0.026062600700810425,
                0.044478188413975404,
                0.04871431191904984,
                0.0021311540495914877,
                0.002658592398033953,
                0.03292741811000498,
                0.014107218187465267,
                0.029569158306421765,
                0.026702020569230565,
                -0.08912450993672666,
                -0.008953365000560933,
                0.013151705515675259,
                -0.017736842208309973,
                0.05003426523171874,
                -0.07475601115623798,
                -0.018483287259756717,
                -0.0416983972225726,
                -0.012193624089260148,
                -0.039804725232911016,
                -0.017487112703779593,
                -0.046203289019914724,
                -0.04498331314744662,
                0.006230654926935366,
                -0.05555309064790723,
                0.04771001937430775,
                0.012927454819501843,
                -0.013611800601723798,
                -0.038431653228576834,
                -0.0027605523076427874,
                0.05574214931686426,
                0.0010512339681300626,
                -0.06009283352652621,
                0.059606893997073945,
                0.04670020477606797,
                -0.03569768525861354,
                -0.028859095306021477,
                -0.047049416360250236,
                -0.006181469429096759,
                0.027159189075244845,
                0.019410559039300047,
                -0.04206591859796578,
                0.0028505013279393285,
                -0.05301391089489349,
                -0.0469403402722977,
                0.01549361745725549,
                -0.045451114501940865,
                -0.02895190178710003,
                -0.05932355231537047,
                0.05335452100818901,
                -0.034033224401151835,
                -0.00846261695568718,
                0.011272805589530931,
                0.01069325494250113,
                0.01620396450751008,
                -0.0020516016151347926,
                -0.03058099427229028,
                -0.022709910713555777,
                0.017403602673258724,
                -0.038990777629464436,
                0.03446811397745575,
                -0.02093410136766242,
                -0.056485326421162885,
                -0.034540582164838726,
                -0.039584549477205355,
                0.026301059806753794,
                -0.06375688782844861,
                -0.004835942954574182,
                0.07487722235939542,
                0.04977176078280469,
                -0.012546449244692703,
                0.008659147816262189,
                -0.002216713211774353,
                0.04752290659897022,
                -0.002792432149515927,
                -0.05229148499860769,
                0.041552027046919335,
                -0.030227880908966363,
                0.030762175688986752,
                0.029990321072297894,
                -0.045743513043735154,
                -0.036294003094513964,
                0.0007023525018131458,
                -0.03150384311003741,
                -0.03894945108531909,
                0.05899616026489707,
                -0.08223958433975607,
