{
    "layer1": {
        "weights": [
            [
                0.04169641304338221,
                0.061696413043382796,
                0.0016964130433819978,
                0.051696413043382135,
                0.031696413043382214,
                -0.008303586956617884,
                0.02169641304338204,
                0.061696413043382796,
                0.051696413043382135,
                0.01169641304338229,
                0.02169641304338204,
                -0.04830358695661786,
                -0.018303586956617872,
                0.051696413043382135,
                0.0016964130433819978,
                -0.028303586956617832,
                0.02169641304338204,
                0.04169641304338221,
                0.031696413043382214,
                -0.008303586956617884,
                0.0016964130433819978,
                0.01169641304338229,
                0.04169641304338221,
                0.01169641304338229,
                0.0016964130433819978,
                0.01169641304338229,
                -0.04949052932302221,
                -0.04949052932302221,
                0.040277053808541186,
                0.07169641304338305,
                0.02169641304338204,
                0.0007492146379380014,
                -0.029250785362061854,
                0.011166180881836477,
                0.07260430946210683,
                0.04164417367930891,
                0.013370880684998638,
                0.0637742179511293,
                -0.015408060803909402,
                0.01897834114379178,
                0.06880942385467198,
                0.023551306282129553,
                0.008722030123432698,
                -0.024168231484608498,
                0.025279710464418004,
                0.07233307369073931,
                -0.04864378389776699,
                0.05135621610223321,
                0.051696413043382135,
                0.061696413043382796,
                0.04169641304338221,
                0.051696413043382135,
                0.01169641304338229,
                0.02169641304338204,
                0.0016964130433819978,
                -0.04830358695661786,
                0.061696413043382796,
                0.02169641304338204,
                -0.028303586956617832,
                0.01169641304338229,
                0.01169641304338229,
                -0.008303586956617884,
                -0.008303586956617884,
                0.01169641304338229,
                0.031696413043382214,
                0.02169641304338204,
                0.0016964130433819978,
                -0.04830358695661786,
                -0.018303586956617872,
                -0.028303586956617832,
                0.02169641304338204,
                0.061696413043382796,
                0.051696413043382135,
                0.051696413043382135,
                0.051696413043382135,
                -0.018303586956617872,
                0.051696413043382135,
                0.031696413043382214,
                -0.038303586956617695,
                -0.04830358695661786,
                -0.04830358695661786,
                0.04169641304338221,
                -0.018303586956617872,
                -0.038303586956617695,
                0.031696413043382214,
                -0.008303586956617884,
                -0.038303586956617695,
                -0.028303586956617832,
                0.01169641304338229,
                -0.028303586956617832,
                -0.018303586956617872,
                0.04169641304338221,
                0.0016964130433819978,
                -0.008303586956617884,
                0.01169641304338229,
                -0.04830358695661786,
                0.001823512891463286,
                -9.186165730757585e-05,
                -0.023509279145420274,
                -0.03390735911528367,
                0.06663423273417415,
                0.012926096142037307,
                -0.025606434964138176,
                0.035256823986840234,
                0.06231759690991515,
                -0.03600063236631402,
                -0.050641481966826926,
                -0.030620746059027554,
                0.05030716207545731,
                -0.02902671281917826,
                0.05042521168619561,
                0.04226142677276474,
                0.041499358001093466,
                -0.009905974097652964,
                0.07428056505648525,
                0.05859761467635161,
                0.009054708349967189,
                -0.018417469374732248,
                0.03193798971800508,
                0.0003747468216879812,
                0.020854865934006397,
                -0.00919801433442605,
                0.03141894152110104,
                -0.04693683193371584,
                -0.025682042910464022,
                0.06808739895681738,
                0.06810460400278312,
                -0.0047108296204455965,
                0.043359951441438886,
                -0.01612459707046656,
                0.056233647560910524,
                0.041926923753482045,
                0.00997022084570751,
                -0.011056923518814139,
                -0.05818444752189711,
                0.062027605400069616,
                -0.04273737801130795,
                0.03431852947729217,
                0.05707071276503032,
                0.009972933517687774,
                -0.04244346846428663,
                0.03933195896506991,
                0.0670821727317396,
                0.038883974716439104,
                -0.0011449832129961127,
                -0.016819396846058505,
                -0.004822780479797895,
                -0.027838158048254694,
                0.024961658073360798,
                -0.003984053901583381,
                -0.032249503206169795,
                -0.04428518857849237,
                0.042936920309483845,
                -0.0013830870602938954,
                0.013622403780564554,
                -0.003725057511460769,
                0.06985983221650882,
                0.06493558909212119,
                -0.067239374225454,
                -0.03663771119893318,
                -0.0131797960131714,
                0.08191435724101183,
                0.05759920539295276,
                -0.001876740116984787,
                -0.007301093474565903,
                0.04853378287643379,
                0.05632525226239221,
                0.07188639749593818,
                -0.010338315516771933,
                0.0560886679233327,
                0.021412150853437263,
                0.006892545839416324,
                0.05355734610092204,
                -0.022572954509126414,
                0.04831381025136153,
                -0.04814323318237803,
                -0.050515171163254186,
                0.05087600795244515,
                -0.012051731562855602,
                0.03127229136946127,
                0.02201942183536153,
                0.0536800892679083,
                -0.01075733037991953,
                -0.006000583070169585,
                -0.01976414874952107,
                0.05285363233286592,
                0.02089384508697957,
                0.07492284141954483,
                0.06684022357281051,
                -0.03067883634718229,
                0.020701981119146593,
                -0.041631724221275444,
                -0.055375484656479776,
                -0.028343311999153485,
                0.06014158849403262,
                0.03948609837992944,
                0.048012986025070106,
                -0.005887427608837481,
                0.020867058101366985,
                0.06867516230160921,
                -0.012117514568645413,
                0.02501160660223917,
                -0.01498839339776052,
                -0.03616290135725482,
                -0.003498192608071565,
                0.05953552577077333,
                0.025361472802845095,
                0.06483632066008903,
                0.0073934722547558465,
                -0.02156633403627642,
                0.05041684255616307,
                0.05398946881025745,
                -0.05366768001496167,
                0.02813889489165285,
                -0.04415635151811312,
                -0.05532800318875011,
                0.06409012951632341,
                -0.04924150726263131,
                -0.01833839487887357,
                0.07255760245140626,
                0.0026946748631790298,
                -0.04075442311111683,
                -0.024023108358062747,
                -0.01443828029466602,
                0.040509470676977896,
                -0.038303586956617695,
                0.061696413043382796,
                -0.009490529323022212,
                0.0705094706769788,
                0.060509470676978594,
                -0.018303586956617872,
                -0.018303586956617872,
                0.01169641304338229,
                -0.038303586956617695,
                0.031696413043382214,
                -0.04830358695661786,
                -0.04830358695661786,
                0.07169641304338305,
                -0.018303586956617872,
                0.02169641304338204,
                0.0016964130433819978,
                -0.008303586956617884,
                -0.038303586956617695,
                0.061696413043382796,
                0.07169641304338305,
                0.0705094706769788,
                -0.03705980860547179,
                -0.028303586956617832,
                0.02169641304338204,
                0.07251895806367895,
                0.022940191394528173,
                0.031696413043382214,
                0.031696413043382214,
                -0.018303586956617872,
                0.02169641304338204,
                -0.008303586956617884,
                -0.018303586956617872,
                -0.038303586956617695,
                -0.018303586956617872,
                0.07169641304338305,
                0.0016964130433819978,
                0.031696413043382214,
                0.031696413043382214,
                0.07169641304338305,
                0.0016964130433819978,
                -0.008303586956617884,
                -0.007629857189272938,
                -0.007869601150233217,
                0.05706089455550864,
                0.061696413043382796,
                -0.008303586956617884,
                -0.0015832682570784127,
                0.03257699209367225,
                0.030428516206876772,
                0.023710049816656673,
                -0.014308337247280492,
                -0.03969030730730431,
                -0.006698209849880668,
                -0.030018425671432546,
                0.02243706324666661,
                -0.05131409982303948,
                -0.03595024860761447,
                0.031739463027402236,
                -0.027837863301252517,
                0.05160160889623504,
                0.015310764770299625,
                0.06921572419304202,
                -0.028060730571541286,
                0.01860198159089194,
                0.057702596768237656,
                -0.03281763052024932,
                0.07248322380337693,
                -0.029324062795847986,
                0.040979059647646775,
                0.08299249890966427,
                0.06724931916938515,
                -0.016656716450512324,
                -0.025360115855316303,
                0.0149165276262587,
                0.06523033160074158,
                -0.0054188335398927595,
                0.06454971793883768,
                -0.02617812604589427,
                0.06419476768442722,
                -0.048051090520123574,
                -0.008303586956617884,
                0.061696413043382796,
                0.05237014281072704,
                0.06237014281072774,
                0.05237014281072704,
                0.04169641304338221,
                0.031696413043382214,
                -0.028303586956617832,
                0.0016964130433819978,
                -0.028303586956617832,
                0.04169641304338221,
                0.031696413043382214,
                -0.018303586956617872,
                -0.038303586956617695,
                0.07169641304338305,
                0.051696413043382135,
                0.02169641304338204,
                0.02169641304338204,
                0.051696413043382135,
                0.0016964130433819978,
                0.0019489094798764263,
                -0.008051090520123491,
                -0.018303586956617872,
                -0.04830358695661786,
                0.03194890947987661,
                0.0019489094798764263,
                0.02169641304338204,
                -0.038303586956617695,
                -0.008303586956617884,
                -0.038303586956617695,
                -0.038303586956617695,
                -0.018303586956617872,
                0.051696413043382135,
                0.0016964130433819978,
                0.0016964130433819978,
                0.02169641304338204,
                -0.018303586956617872,
                -0.04830358695661786,
                0.01169641304338229,
                0.01169641304338229,
                0.031696413043382214,
                0.0016964130433819978,
                0.031696413043382214,
                0.04169641304338221,
                -0.018303586956617872,
                0.01169641304338229,
                0.01169641304338229,
                -0.018303586956617872,
                0.0007723393631091815,
                0.02169641304338204,
                0.061696413043382796,
                0.061696413043382796,
                -0.018303586956617872,
                0.031696413043382214,
                -0.04830358695661786,
                -0.038303586956617695,
                0.01169641304338229,
                0.061696413043382796,
                -0.028303586956617832,
                0.04169641304338221,
                0.061696413043382796,
                -0.009227660636890728,
                0.030772339363109427,
                0.05193846641078165,
                -0.014373529770454837,
                0.03929277183832772,
                0.0419489094798766,
                0.02102483579960373,
                0.051948909479876515,
                0.0619003811586256,
                0.06666242040388362,
                0.016845085051875965,
                -0.02698916566575204,
                -0.017231103332508248,
                -0.03404845939172438,
                0.01942165157834846,
                0.044807188157675704,
                -0.046393605256288224,
                0.029991647489256514,
                0.04511370988263188,
                -0.0040007996531405835,
                0.009894464267051983,
                -0.017893520923933048,
                0.043196695863837904,
                -0.055656369389322814,
                0.07725855027361869,
                0.058680018930848496,
                0.029211227898164476,
                -0.016274002466817445,
                0.0716549560959997,
                0.0716314685489441,
                -0.04446791143480804,
                0.04331922365108334,
                0.04991657077289182,
                0.026104359986881487,
                0.04077233936310945,
                0.0007723393631091815,
                0.061696413043382796,
                0.07169641304338305,
                0.0016964130433819978,
                0.051696413043382135,
                0.0016964130433819978,
                -0.028303586956617832,
                -0.008303586956617884,
                -0.038303586956617695,
                0.061696413043382796,
                0.07169641304338305,
                -0.038303586956617695,
                0.02169641304338204,
                0.0007723393631091815,
                -0.03922766063689058,
                -0.014802746650278966,
                -0.014802746650278966,
                0.04169641304338221,
                -0.04830358695661786,
                -0.028303586956617832,
                0.0016964130433819978,
                -0.04830358695661786,
                0.031696413043382214,
                0.02169641304338204,
                0.051696413043382135,
                -0.028303586956617832,
                -0.018303586956617872,
                0.02169641304338204,
                -0.018303586956617872,
                0.02519725334972112,
                -0.009592854141973951,
                0.03172192712375852,
                0.057415815428787806,
                0.054360532048950916,
                0.08459636513735772,
                0.02309863674265386,
                0.013878532427714122,
                0.039977092869549966,
                0.036341791100138514,
                0.02835486777557094,
                -0.003718088851993036,
                -0.028543166828408215,
                -0.038636600121608994,
                0.055007496156073296,
                -0.02920874632540218,
                0.05313769375589881,
                0.017908126648181918,
                0.0672664092674905,
                0.036980612115945846,
                0.07989589250991741,
                -0.045652531739490916,
                0.015625565064947836,
                0.018799661329480702,
                -0.0039869693111721,
                0.020517238168145224,
                -0.0030831485364188676,
                0.02244943792065534,
                -0.04455044773986148,
                0.023508521115096954,
                0.0035473805034495183,
                0.003960535476141537,
                0.00935747995938599,
                0.05506751553950725,
                0.02970507867794761,
                0.0073507435426588335,
                0.02661388173738158,
                -0.0029279386261913416,
                -0.026091260823029698,
                -0.05557399073399337,
                -0.025596368514495944,
                0.006938641737172378,
                0.06651105156875409,
                0.05444566150448804,
                0.0027006213821642016,
                0.0783880592500507,
                0.029120451172993472,
                0.059371083758128974,
                -0.004389946450347211,
                0.033281434409721554,
                0.0534067575061668,
                -0.01365549558985212,
                -0.02920285933025866,
                0.028342667095679962,
                0.016730225447087757,
                -0.020909637238340995,
                -0.05026502460596468,
                0.0047102526086315625,
                0.01095637739589482,
                0.01701558850075975,
                0.07554436705877562,
                0.019657408826338436,
                0.03413232799048902,
                0.07337920801919197,
                0.046462921296747645,
                0.003528194510329948,
                0.031434604170327916,
                0.02760298200065458,
                0.03716974369329689,
                0.02436913284120667,
                -0.005462655389785813,
                0.02125870630090403,
                0.031129332334493456,
                0.06290628391195696,
                0.05020343399248637,
                0.0480061347912297,
                0.04990845884025138,
                0.05894298794308715,
                0.019705846102583448,
                -0.013970752536877792,
                -0.007796386235408836,
                0.04916170044970868,
                0.06470357042359806,
                0.008671776064256132,
                -0.03743964071561332,
                0.049397442489124484,
                0.0221825466759984,
                0.04547382324601391,
                -0.051785090007672056,
                0.022189457697431466,
                0.0372555703484168,
                -0.003827344449560416,
                -0.024434951111897422,
                0.01028552902132235,
                -0.06144519311321695,
                -0.006136376272443873,
                0.06615843025947804,
                0.0315052471497787,
                -0.017293615139353968,
                0.011757536617187807,
                0.01467939004078473,
                -0.025403274393143042,
                -0.02547072422926355,
                0.07388540834325143,
                -0.01842423143085305,
                -0.051346676087978195,
                0.04896981394197569,
                0.00012889527920812495,
                -0.011683875163396034,
                0.005087752484577151,
                0.02917238706878356,
                -0.044009103609486254,
                0.02187129238447086,
                0.04005348268199988,
                0.049852961018095644,
                -0.018826917093221356,
                0.02543362691888574,
                -0.008271633334761488,
                0.016794629875376534,
                -0.026599259133145342,
                0.0619693083217974,
                0.06374881652318468,
                -0.012514955189203434,
                -0.018210221501774038,
                0.0683557299830413,
                0.04699068023714509,
                0.05561022030770732,
                -0.04154340947409222,
                0.06673723991129053,
                0.037372878469025365,
                -0.002934296292835916,
                -0.00182131183592741,
                0.03356505284146471,
                0.05015258683381739,
                -0.028488105314655905,
                0.023384006678260263,
                -0.035372506265627525,
                0.054680747402618635,
                0.0025488597856411924,
                0.04036124022849732,
                0.034334644477137,
                0.01529857026755707,
                -0.02265815108128339,
                0.0061385965152979055,
                -0.044476664839244805,
                -0.04800444932350763,
                0.03624868612800571,
                0.007016924379315702,
                0.047622521359119374,
                -0.022625328797584353,
                0.036610215273015084,
                0.047999812642578285,
                -0.005747986762452805,
                -0.03440533807517132,
                0.001550050057944946,
                0.010790518602480748,
                -0.03710747970860993,
                -0.023374174728272707,
                -0.051769536128139365,
                0.03645088386284041,
                0.06544092381543729,
                -0.020744348960296415,
                -0.04849024497282607,
                0.04150975502717398,
                0.051696413043382135,
                0.07169641304338305,
                0.02169641304338204,
                -0.008303586956617884,
                0.051696413043382135,
                -0.038303586956617695,
                0.031696413043382214,
                -0.038303586956617695,
                0.0016964130433819978,
                0.01169641304338229,
                -0.008303586956617884,
                -0.028303586956617832,
                -0.017566171292553275,
                0.05994350466460956,
                0.011932063524063013,
                0.021932063524062902,
                -0.028303586956617832,
                0.04169641304338221,
                -0.008303586956617884,
                0.02169641304338204,
                0.061696413043382796,
                0.07169641304338305,
                -0.04830358695661786,
                0.051696413043382135,
                0.051696413043382135,
                -0.008303586956617884,
                0.0016964130433819978,
                0.02169641304338204,
                0.0619320635240635,
                0.0019320635240627445,
                0.06083386345132385,
                0.04171353812774756,
                -0.03271758331022851,
                0.06083386345132385,
                -0.049166136548677054,
                -0.029200858064704814,
                0.02796423972688438,
                -0.044987898879944456,
                -0.010271721460623608,
                -0.05139311588395912,
                0.02119728019413688,
                0.045882311568676795,
                0.04671262366968016,
                -0.04296658106022414,
                -0.04508669483617569,
                0.0457445392047926,
                -0.0527905912808627,
                -0.026769816426074625,
                -0.04118772045335283,
                -0.04228847085074029,
                -0.045483278900012754,
                0.03232556263770942,
                0.04169641304338221,
                0.03451672109998733,
                0.05451672109998742,
                0.03232556263770942,
                0.0016964130433819978,
                0.032430835085597964,
                0.07021900445180111,
                0.02418237505894043,
                -0.017157696617278152,
                -0.03940178702935752,
                0.061696413043382796,
                0.02169641304338204,
                -0.008303586956617884,
                0.02169641304338204,
                0.02169641304338204,
                0.01169641304338229,
                -0.038303586956617695,
                -0.008303586956617884,
                0.0016964130433819978,
                -0.028303586956617832,
                0.061696413043382796,
                0.0016964130433819978,
                0.031696413043382214,
                0.04169641304338221,
                0.04169641304338221,
                0.04169641304338221,
                0.04169641304338221,
                -0.018303586956617872,
                0.07169641304338305,
                -0.028303586956617832,
                0.061696413043382796,
                0.051696413043382135,
                0.051696413043382135,
                -0.04830358695661786,
                -0.038303586956617695,
                0.051696413043382135,
                0.01169641304338229,
                -0.008303586956617884,
                0.07169641304338305,
                -0.04830358695661786,
                0.01169641304338229,
                0.0016964130433819978,
                -0.038303586956617695,
                0.0016964130433819978,
                0.04169641304338221,
                0.061696413043382796,
                -0.04830358695661786,
                0.01169641304338229,
                -0.038303586956617695,
                0.051696413043382135,
                -0.038303586956617695,
                -0.04830358695661786,
                0.0016964130433819978,
                0.04169641304338221,
                -0.008303586956617884,
                -0.038303586956617695,
                0.051696413043382135,
                0.051696413043382135,
                0.051696413043382135,
                -0.008303586956617884,
                0.0016964130433819978,
                -0.018303586956617872,
                0.02169641304338204,
                -0.008303586956617884,
                -0.008303586956617884,
                0.051696413043382135,
                0.07169641304338305,
                0.02169641304338204,
                -0.038303586956617695,
                0.031696413043382214,
                0.0016964130433819978,
                0.07169641304338305,
                0.04169641304338221,
                0.051696413043382135,
                0.04532071751623066,
                0.015320717516230495,
                0.0659598525532391,
                0.05595985255323875,
                -0.022661423663943872,
                -0.02967217519454564,
                -0.008042686358543131,
                0.011270952255065133,
                -0.039883017354723986,
                -0.004634728298881903,
                0.014674965508912107,
                -0.04561476812581468,
                0.05728378457153364,
                0.03102627652095474,
                -0.0076744373622907435,
                -0.016117182896043414,
                -0.007903878275881846,
                -0.007903878275881846,
                0.04324844274000596,
                0.014506014615916545,
                0.014239202735614506,
                -0.03569190472099824,
                0.06952540641536006,
                -0.014575949877513717,
                -0.003951647429203873,
                -0.040102040233372334,
                0.06937074341610086,
                0.01347918483285262,
                0.06872821784849577,
                0.06788710410006507,
                0.0720961217241188,
                0.05272527131844548,
                0.061696413043382796,
                0.061696413043382796,
                0.051696413043382135,
                -0.038303586956617695,
                0.01169641304338229,
                0.02169641304338204,
                0.07169641304338305,
                0.051696413043382135,
                0.04169641304338221,
                0.04169641304338221,
                -0.008303586956617884,
                0.07169641304338305,
                0.031696413043382214,
                0.0016964130433819978,
                0.01169641304338229,
                0.07169641304338305,
                0.01169641304338229,
                -0.028303586956617832,
                -0.028303586956617832,
                0.031696413043382214,
                0.02169641304338204,
                0.061696413043382796,
                -0.028303586956617832,
                0.0016964130433819978,
                0.04169641304338221,
                -0.04830358695661786,
                -0.038303586956617695,
                0.02169641304338204,
                -0.018303586956617872,
                -0.038303586956617695,
                -0.018303586956617872,
                0.031696413043382214,
                0.01169641304338229,
                -0.038303586956617695,
                -0.038303586956617695,
                0.051696413043382135,
                0.031696413043382214,
                -0.028303586956617832,
                0.061696413043382796,
                -0.04830358695661786,
                -0.008303586956617884,
                0.051696413043382135,
                0.04169641304338221,
                -0.018303586956617872,
                0.061696413043382796,
                0.02169641304338204,
                0.061696413043382796,
                0.061696413043382796,
                0.0025596685579151236,
                0.03326059429996613,
                0.01917826189871671,
                0.07255966855791625,
                0.05209612172411832,
                0.04209612172411826,
                0.05221039068492989,
                0.06871471506492029,
                -0.0025118240298993956,
                -0.031714939039862444,
                0.029891818125651365,
                0.04576690242968662,
                0.010839128495192718,
                0.014793557478091995,
                -0.00025550356819008957,
                0.06562754366505462,
                0.06050135979408565,
                0.022594380298055317,
                -0.04315353607582771,
                0.047173116532616334,
                0.003724141133763071,
                -0.027440331442084676,
                -0.017903878275881854,
                0.03573932906133667,
                -0.040023964188128314,
                -0.037903878275881674,
                -0.007903878275881846,
                0.0680990682541685,
                0.04140783508100359,
                0.06698317122021365,
                0.026502239055702804,
                0.02001803689134824,
                0.0318895396670404,
                0.023700723869264063,
                0.020960477312494764,
                0.05502286156217089,
                0.075748591206655,
                -0.004627982639773888,
                0.039261624877591536,
                -0.0005176612197165424,
                -0.007567952683181945,
                -0.004561103010262389,
                0.02824990514454713,
                0.010524673480348093,
                0.06636273448651887,
                -0.04645420484760369,
                0.030239161276075174,
                0.06310190103589858,
                0.0423579430527502,
                0.02144613790998126,
                -0.020793613379833115,
                -0.00028865164546178175,
                0.06573443000080414,
                0.040934444443016166,
                0.02366466841127735,
                0.0489232937063095,
                0.052541246567597163,
                0.03427791173149431,
                0.002398084366564808,
                0.012462537215420446,
                0.04249858311561522,
                -0.0016756397550563207,
                0.046324764948657934,
                0.014996902372399819,
                -0.007163262838558061,
                -0.0012715721887770332,
                -0.038072196762569385,
                0.004332391720390496,
                -0.00044840599701831125,
                -0.04898552455144565,
                -0.04012524195419101,
                -0.015032955733407058,
                0.05978030319041866,
                0.016581846298437678,
                -0.006107230605377674,
                0.074496654792377,
                -0.02106588233527409,
                0.0043554979484445675,
                0.03243725724204989,
                0.04855244637119975,
                0.010736474292545203,
                0.04967968826332923,
                0.0317242551189412,
                0.05774658950639478,
                0.006341544910362644,
                0.06883315024335893,
                0.04628715286819707,
                -0.05289315905073346,
                -0.05150365913640245,
                0.08341540167470256,
                -0.017110428166505494,
                -0.04061711059547933,
                -0.018554902502164974,
                0.019387424434656266,
                0.08278483678342106,
                0.007493278144199032,
                0.03294481711903857,
                0.039584678576540196,
                -0.0382155379740291,
                0.025007728270720037,
                0.0719041056605997,
                0.02189309056171196,
                0.011581936216840378,
                -0.006528213402459288,
                0.08136258878694028,
                0.07752783142106005,
                -0.038418063783159484,
                0.030634049591949094,
                -0.0011523321233362432,
                0.029343353003197483,
                -0.030195950256578594,
                -0.01628365469286647,
                -0.02602698469909059,
                0.00998530283563962,
                0.05766452117400144,
                0.05253847798983132,
                0.060209683534859,
                0.04261403664000394,
                -0.0310450765557868,
                0.009382778745923609,
                0.040447612351329314,
                -0.008621962543470396,
                0.012233242429000991,
                0.06229596784786946,
                -0.03816530314389488,
                0.05387191626165229,
                -0.028567241085364094,
                0.0017719714372370313,
                0.061696413043382796,
                -0.028303586956617832,
                0.01169641304338229,
                0.0016964130433819978,
                0.061696413043382796,
                0.07169641304338305,
                -0.018303586956617872,
                0.01169641304338229,
                0.061696413043382796,
                0.02169641304338204,
                -0.028303586956617832,
                0.04169641304338221,
                -0.008303586956617884,
                0.01169641304338229,
                -0.04830358695661786,
                0.07169641304338305,
                0.031696413043382214,
                0.061696413043382796,
                0.07169641304338305,
                -0.018303586956617872,
                0.02169641304338204,
                0.0016964130433819978,
                0.04169641304338221,
                0.051696413043382135,
                -0.018303586956617872,
                -0.018303586956617872,
                0.04169641304338221,
                0.0016964130433819978,
                -0.038303586956617695,
                -0.028303586956617832,
                0.02169641304338204,
                0.02169641304338204,
                0.07169641304338305,
                0.01169641304338229,
                0.02169641304338204,
                -0.028303586956617832,
                0.0016964130433819978,
                -0.018303586956617872,
                0.031696413043382214,
                -0.018303586956617872,
                -0.028303586956617832,
                -0.008303586956617884,
                0.01169641304338229,
                -0.008303586956617884,
                0.02169641304338204,
                -0.028303586956617832,
                0.061696413043382796,
                0.031696413043382214,
                0.012023151734434828,
                -0.04830358695661786,
                -0.006827822093968131,
                0.03290192153337103,
                0.03566014660931608,
                0.04196783882585805,
                0.06046005220988991,
                -0.00829506256313641,
                0.011540419152528878,
                -0.010699743478518195,
                -0.038303586956617695,
                -0.028303586956617832,
                -0.018303586956617872,
                -0.0375526742005353,
                0.01169641304338229,
                0.04169641304338221,
                0.02169641304338204,
                0.031696413043382214,
                -0.018303586956617872,
                -0.028303586956617832,
                0.02169641304338204,
                0.061696413043382796,
                0.0016964130433819978,
                -0.04830358695661786,
                -0.04830358695661786,
                -0.008303586956617884,
                0.02169641304338204,
                -0.038303586956617695,
                -0.018303586956617872,
                0.031696413043382214,
                0.07169641304338305,
                -0.008303586956617884,
                0.02169641304338204,
                0.01169641304338229,
                -0.04830358695661786,
                -0.008303586956617884,
                -0.038303586956617695,
                -0.018303586956617872,
                0.04169641304338221,
                0.031696413043382214,
                -0.04830358695661786,
                -0.038303586956617695,
                0.04169641304338221,
                -0.038303586956617695,
                -0.008303586956617884,
                -0.018303586956617872,
                -0.04830358695661786,
                -0.04830358695661786
            ],
            [
                -0.04709400046091007,
                -0.007094000460909944,
                0.052905999539089935,
                0.022905999539089925,
                -0.027094000460910077,
                0.022905999539089925,
                -0.027094000460910077,
                0.002905999539090047,
                -0.01709400046091002,
                0.06290599953908978,
                -0.01709400046091002,
                0.042905999539089926,
                0.022905999539089925,
                0.042905999539089926,
                0.012905999539090178,
                0.052905999539089935,
                -0.007094000460909944,
                0.022905999539089925,
                0.022905999539089925,
                0.002905999539090047,
                0.012905999539090178,
                0.002905999539090047,
                -0.007094000460909944,
                0.052905999539089935,
                0.022905999539089925,
                0.012905999539090178,
                -0.05828980502990712,
                0.0017101949700930115,
                -0.03766678985512761,
                -0.037094000460910076,
                -0.007094000460909944,
                0.01253327042764121,
                -0.027466729572359027,
                -0.02777113899228624,
                0.0014835725377728046,
                0.002226052020636695,
                -0.00875145400018067,
                -0.04961637178139843,
                -0.017574483658352062,
                0.027549833503572277,
                0.014537554455930832,
                0.013433727525902946,
                0.04523533114565212,
                0.03462942974139625,
                0.021947976809556305,
                -0.058475275253475005,
                -0.01796282324733891,
                0.02203717675266112,
                -0.037094000460910076,
                0.052905999539089935,
                -0.037094000460910076,
                0.052905999539089935,
                -0.037094000460910076,
                0.042905999539089926,
                0.042905999539089926,
                -0.01709400046091002,
                0.052905999539089935,
                -0.037094000460910076,
                0.042905999539089926,
                -0.007094000460909944,
                -0.007094000460909944,
                -0.04709400046091007,
                0.012905999539090178,
                -0.027094000460910077,
                0.022905999539089925,
                0.042905999539089926,
                0.012905999539090178,
                -0.057094000460910066,
                0.06290599953908978,
                0.052905999539089935,
                0.022905999539089925,
                -0.01709400046091002,
                0.012905999539090178,
                0.052905999539089935,
                -0.007094000460909944,
                0.032905999539089875,
                0.012905999539090178,
                -0.007094000460909944,
                0.052905999539089935,
                -0.007094000460909944,
                0.012905999539090178,
                -0.057094000460910066,
                0.002905999539090047,
                -0.057094000460910066,
                0.032905999539089875,
                -0.057094000460910066,
                -0.057094000460910066,
                -0.04709400046091007,
                -0.04709400046091007,
                0.002905999539090047,
                -0.01709400046091002,
                -0.027094000460910077,
                0.06290599953908978,
                0.052905999539089935,
                0.022905999539089925,
                0.042905999539089926,
                0.04232262628348231,
                -0.030905341008801896,
                0.043373749955722206,
                -0.026294053358355277,
                0.013549175473373087,
                -0.018824234054757392,
                -0.039265827926788045,
                0.035396949091818335,
                0.05009053486356564,
                -0.019585593109074352,
                0.04655449161819051,
                -0.02289674443069766,
                0.017911618333799218,
                0.06130533358957454,
                0.030811468111800005,
                -0.06066606946266872,
                -0.005824198510609418,
                -0.01678663054083337,
                -0.031116985128578467,
                0.0389908900439247,
                -0.011079366514444022,
                0.022949617444754506,
                0.023880102612170044,
                0.0016225854722638417,
                -0.058108010245217216,
                0.022566686440683367,
                0.05185988531756026,
                -0.03757773051150375,
                0.025056206717025208,
                0.0011470093785145533,
                -0.019239363248742883,
                0.034095620411931836,
                0.06274500553594589,
                -0.05192102147547005,
                0.053601043207816355,
                -0.006973630178218316,
                0.04618689240412568,
                -0.03565676717646809,
                0.031512436917225294,
                -0.04846436409377008,
                -0.014783912483230771,
                0.06201380810561902,
                0.023954919836440988,
                0.03868982006969818,
                0.004923043139216984,
                0.0006865291415414699,
                0.008594842361977719,
                0.03702366273631614,
                0.03209931905759675,
                -0.034213283467916106,
                -0.006939196900320009,
                0.012804873780748148,
                0.013556119694884808,
                0.051054902037398604,
                0.04735245146751489,
                -0.03747951518209671,
                -0.01731603341037695,
                -0.051050782229353456,
                -0.06293988976691867,
                -0.04925150281755943,
                -0.03564182126443626,
                0.028328770906257128,
                0.02295314102345665,
                0.04908893957872726,
                -0.030117079814423284,
                -0.04249681093150097,
                0.05832057916444016,
                0.038605021745675754,
                0.05857881210843302,
                -0.06344910009925775,
                -0.0036832043327437217,
                0.022217624488337303,
                0.033352844624669246,
                0.04944672906180599,
                -0.0005770672921485918,
                -0.008920413067699034,
                -0.059156954519202394,
                0.04283165233616553,
                0.05859374523680278,
                0.05231021371042814,
                0.02752681778861887,
                -0.02011140197817016,
                -0.02813010569691736,
                0.03470496709632093,
                0.051750862555819135,
                0.06273744860852074,
                -0.03991294861520754,
                0.014012789452992917,
                0.0006806414895648077,
                -0.0024889993959089814,
                0.039469529551820044,
                0.051555547479085286,
                0.027760966142624344,
                0.030993322664189953,
                0.02336395859786962,
                0.019901697660130144,
                0.004284067907509739,
                -0.027915938477330895,
                0.027694292394469307,
                -0.048685045185406624,
                0.016068166203893303,
                -0.014165746917943964,
                0.005386663427990798,
                0.019805673316545026,
                -0.0009093802826908309,
                0.05847965259721949,
                -0.03152034740278029,
                -0.057682636963574965,
                0.06649097119544235,
                -0.015487112967061295,
                -0.029841187618701064,
                -0.007271701819391902,
                0.00952987379935198,
                0.06292392531326667,
                0.035504724517100475,
                -0.019382089422273093,
                0.001427793055463406,
                -0.007463558440283441,
                0.005198135659016176,
                -0.004164384145371774,
                -0.03812385347153733,
                -0.007935969702743118,
                -0.010465628999135279,
                -0.03995904758365801,
                0.0387396232656549,
                -0.016973336286957193,
                -0.03445497026162805,
                0.009156329880131988,
                0.04171019497009287,
                0.042905999539089926,
                0.022905999539089925,
                0.031710194970093,
                -0.01828980502990711,
                -0.03828980502990713,
                -0.027094000460910077,
                -0.01709400046091002,
                -0.027094000460910077,
                0.002905999539090047,
                -0.037094000460910076,
                -0.04709400046091007,
                -0.027094000460910077,
                -0.037094000460910076,
                0.042905999539089926,
                0.002905999539090047,
                -0.037094000460910076,
                -0.007094000460909944,
                0.052905999539089935,
                0.012905999539090178,
                0.012905999539090178,
                -0.008289805029906984,
                -0.03770356415516805,
                0.022905999539089925,
                -0.04709400046091007,
                0.04246904212415078,
                -0.05770356415516804,
                0.032905999539089875,
                -0.007094000460909944,
                0.022905999539089925,
                0.012905999539090178,
                -0.04709400046091007,
                0.002905999539090047,
                -0.04709400046091007,
                -0.027094000460910077,
                -0.007094000460909944,
                -0.027094000460910077,
                0.022905999539089925,
                0.06290599953908978,
                -0.01709400046091002,
                0.042905999539089926,
                -0.027094000460910077,
                0.03244946421751731,
                -0.0183736112400306,
                0.0024820518176749233,
                -0.04709400046091007,
                0.042905999539089926,
                -0.03596347957416899,
                -0.0025319520290814717,
                -0.03253155125832433,
                0.04071147280683471,
                0.009575749509504173,
                0.009599147829277404,
                0.02934030534127863,
                -0.033073609916446305,
                -0.06250457478738097,
                0.0438645903733457,
                -0.018217818388624143,
                0.03890976212633351,
                0.061049557512967215,
                0.02135517588583447,
                -0.049702210369615286,
                0.03821239363898843,
                0.017005056951145,
                -0.029720139789868694,
                -0.04017943428154825,
                0.005125081908565673,
                -0.043659465700925715,
                0.05675933950962637,
                0.030353495011794077,
                0.04148991121334527,
                -0.004481947916107509,
                0.057883468720011794,
                -0.04772900700507842,
                0.03093575043975092,
                -0.025381600510183813,
                -0.053488504626215475,
                -0.04569741386030257,
                -0.04148894641043691,
                0.029640300526054555,
                -0.017377929503163598,
                0.002905999539090047,
                0.012905999539090178,
                -0.02755053578248256,
                0.022449464217517437,
                0.022449464217517437,
                0.052905999539089935,
                0.002905999539090047,
                0.042905999539089926,
                0.06290599953908978,
                0.032905999539089875,
                -0.007094000460909944,
                -0.027094000460910077,
                -0.04709400046091007,
                0.042905999539089926,
                -0.04709400046091007,
                0.012905999539090178,
                -0.007094000460909944,
                -0.057094000460910066,
                -0.037094000460910076,
                0.042905999539089926,
                0.0026220704968365257,
                0.0526220704968363,
                0.052905999539089935,
                -0.04709400046091007,
                0.02262207049683643,
                -0.0573779295031637,
                -0.007094000460909944,
                -0.007094000460909944,
                0.06290599953908978,
                0.012905999539090178,
                -0.037094000460910076,
                0.002905999539090047,
                0.002905999539090047,
                -0.037094000460910076,
                -0.01709400046091002,
                0.052905999539089935,
                0.06290599953908978,
                0.032905999539089875,
                -0.04709400046091007,
                0.052905999539089935,
                -0.007094000460909944,
                0.042905999539089926,
                -0.037094000460910076,
                -0.037094000460910076,
                0.052905999539089935,
                -0.027094000460910077,
                -0.057094000460910066,
                0.002905999539090047,
                0.062170216742155976,
                0.042905999539089926,
                -0.007094000460909944,
                0.06290599953908978,
                0.042905999539089926,
                0.042905999539089926,
                0.022905999539089925,
                -0.007094000460909944,
                0.052905999539089935,
                0.002905999539090047,
                0.052905999539089935,
                0.012905999539090178,
                0.052905999539089935,
                0.002170216742156451,
                -0.007829783257843583,
                0.012375975702426377,
                -0.01299132346706678,
                -0.03610381400786499,
                0.012622070496836654,
                0.041886287699902734,
                -0.027377929503163572,
                0.053042407473767955,
                0.0442784422706323,
                0.03397037488227939,
                -0.008844144887337766,
                0.06015517683995408,
                0.042992172898244814,
                0.014921209243573874,
                -0.045614545891185555,
                0.01906919072173215,
                -0.05722065468897423,
                0.0500015193779573,
                -0.014884069810472592,
                -0.020092193170571114,
                0.01626052534145921,
                0.021442523122814017,
                0.01330207768324962,
                0.0045962279071246285,
                0.02083490852107896,
                0.04530073264789373,
                -0.006645232014145362,
                0.004168105889768195,
                0.04195574908834108,
                -0.058464271776038225,
                -0.0336097026584024,
                -0.01684377369947131,
                -0.03854217724825041,
                0.05217021674215632,
                -0.03782978325784369,
                -0.04709400046091007,
                -0.01709400046091002,
                0.002905999539090047,
                0.042905999539089926,
                0.06290599953908978,
                0.042905999539089926,
                0.012905999539090178,
                -0.057094000460910066,
                -0.04709400046091007,
                0.022905999539089925,
                0.042905999539089926,
                -0.027094000460910077,
                0.062170216742155976,
                0.01217021674215653,
                0.012704868389530668,
                0.012704868389530668,
                -0.04709400046091007,
                -0.037094000460910076,
                0.052905999539089935,
                -0.027094000460910077,
                -0.04709400046091007,
                -0.027094000460910077,
                0.032905999539089875,
                -0.027094000460910077,
                -0.037094000460910076,
                -0.027094000460910077,
                0.002905999539090047,
                0.032905999539089875,
                -0.017295131610469614,
                0.054238443410477705,
                0.06080226971433056,
                0.04249652321293752,
                -0.0436797045664013,
                -0.0157997197235204,
                0.051875771109348524,
                0.04221694173671323,
                -0.0524198556048931,
                -0.009795230291941074,
                -0.018042963170672284,
                0.029315805561717145,
                -0.05895760728205505,
                -0.015567602827287336,
                0.029722719282926264,
                0.050866525591751095,
                -0.06035695609573393,
                0.015575695061810304,
                0.025427672036494493,
                0.04718996500213516,
                -0.009325805377018414,
                0.060667649599607444,
                -0.03565554246863127,
                -0.04865183043907465,
                -0.04692538370996217,
                0.010906071158239094,
                -0.052302792173557086,
                -0.033442822215706006,
                -0.038624409817052716,
                -0.05597068348654447,
                0.05845377301262875,
                -0.020782767766002287,
                0.05827288925093732,
                0.027425830207710524,
                -0.035890803683630054,
                0.0548065957537902,
                -0.047264347923996586,
                0.06158618130138108,
                -0.05859468609521525,
                -0.02901465560728811,
                0.014890194849487453,
                -0.054335496094747054,
                0.032104338736753106,
                -0.04469534602740988,
                0.042238128196282275,
                -0.059593670403897375,
                0.0023243327430525797,
                -0.03946511541665478,
                -0.026594534879633983,
                0.007348603570789098,
                -0.012864582579965653,
                -0.008385440519596346,
                0.02729030604473997,
                -0.03764167328923895,
                -0.04164300140103051,
                0.024217984247477915,
                -0.02439655627544679,
                0.04888073644549664,
                -0.010159883634291607,
                0.0017358234165269723,
                -0.062341683065177,
                -0.0571681935197474,
                -0.047250042394269824,
                0.020335657548800536,
                0.019164595388432556,
                0.05503225550344673,
                -0.012045765459975787,
                0.03011222297843563,
                -0.017221208024162226,
                -0.04661965804694519,
                -0.01381292397477509,
                0.036045743586059824,
                0.038422017864513734,
                0.05886369116432415,
                0.03995136568986219,
                0.011139806685150046,
                0.009989685296519488,
                -0.0009161587504406134,
                0.0042079625493834415,
                0.02178089205511307,
                0.007380815402137813,
                0.037423454962766965,
                -0.01087240061116951,
                -0.0022007632440287097,
                0.046767273872392164,
                0.021187430615957997,
                -0.00295060455009346,
                0.009129457700501963,
                0.041966069241236074,
                0.01467570817066567,
                -0.028747876073478142,
                -0.016728864458896632,
                0.011746247400502535,
                -0.058557128185546606,
                -0.003911227665650927,
                0.05037651233495306,
                -0.028262192457229048,
                -0.009000329329387935,
                0.023867478743302004,
                0.05285457100465762,
                0.02336989454391772,
                0.021076057466082366,
                -0.011595041544326721,
                -0.00713722351107032,
                0.023237041927182282,
                -0.018127898579546782,
                0.04378132291728621,
                -0.059053275978963204,
                0.029155618492051165,
                0.03449368138330936,
                -0.019482240179263765,
                -0.05663520891604094,
                -0.014688065960537445,
                0.014207028332637652,
                0.04680190083393785,
                0.052865174441159256,
                -0.04221803617322031,
                -0.04833594611496878,
                -0.047894801042706686,
                0.06541774196664112,
                0.024294089534963533,
                -0.04857705581161291,
                0.022182206789076467,
                0.06258606164825668,
                0.017057264362981203,
                -0.025304966421052753,
                0.05814784723046664,
                0.03127583559626608,
                -0.035223272094470674,
                0.03466056839956213,
                0.0029467887815575727,
                0.012540975081223878,
                -0.016404662691293863,
                -0.028184489565545527,
                -0.004384805473522655,
                0.0054827662158873774,
                0.002300442176189056,
                0.052040108408936595,
                -0.050441339234556855,
                -0.03781526373456008,
                0.05294318435896338,
                0.010907573853554418,
                0.00877244058379537,
                0.0196057334184823,
                -0.029106032987932625,
                -0.00807903499157568,
                -0.03886117667755624,
                -0.04185526408545692,
                0.059219626853538584,
                0.029551366579577555,
                0.05069721838027111,
                -0.057496048787736447,
                0.03389076257115497,
                -0.017637898106346233,
                -0.00037173520657662494,
                0.020204110475968328,
                -0.05950913277230726,
                -0.018422815810176546,
                0.009914478708503078,
                0.050676488885231616,
                0.004847967612861054,
                -0.017578367701827375,
                0.01238182913297483,
                0.01238182913297483,
                -0.027094000460910077,
                0.012905999539090178,
                -0.027094000460910077,
                -0.057094000460910066,
                -0.01709400046091002,
                -0.04709400046091007,
                0.002905999539090047,
                0.002905999539090047,
                0.052905999539089935,
                0.032905999539089875,
                0.032905999539089875,
                0.06290599953908978,
                -0.02688238807009169,
                -0.016257463353597804,
                -0.02751233012620508,
                -0.047512330126205156,
                0.002905999539090047,
                0.002905999539090047,
                -0.04709400046091007,
                0.052905999539089935,
                0.06290599953908978,
                -0.04709400046091007,
                -0.057094000460910066,
                -0.04709400046091007,
                0.032905999539089875,
                0.042905999539089926,
                -0.04709400046091007,
                -0.057094000460910066,
                0.0024876698737950577,
                -0.017512330126205154,
                -0.05870983075402988,
                -0.05503701047432759,
                -0.03763203353685394,
                -0.03870983075402988,
                -0.028709830754030066,
                0.010786542355958398,
                -0.0271846907396971,
                -0.02495086736598347,
                -0.0352827152820798,
                0.047721663088293106,
                -0.029516542660462452,
                0.011186915007074342,
                -0.004592414296985737,
                -0.011745131772126577,
                -0.008482867177078319,
                -0.05322088991016634,
                -0.03075313361779656,
                0.024632936781713004,
                0.03685071484440715,
                -0.03270140684709703,
                -0.03792595498088267,
                0.052672347259034705,
                -0.04709400046091007,
                0.04207404501911733,
                0.05207404501911733,
                -0.037327652740965306,
                0.042905999539089926,
                -0.03738219072802754,
                -0.058110967074912194,
                -0.025665756110943686,
                -0.012629352929412854,
                0.011708498911265266,
                -0.007094000460909944,
                0.042905999539089926,
                0.022905999539089925,
                -0.04709400046091007,
                -0.037094000460910076,
                0.032905999539089875,
                -0.04709400046091007,
                0.06290599953908978,
                0.042905999539089926,
                -0.037094000460910076,
                -0.027094000460910077,
                -0.027094000460910077,
                -0.007094000460909944,
                -0.027094000460910077,
                -0.057094000460910066,
                -0.027094000460910077,
                -0.037094000460910076,
                -0.01709400046091002,
                -0.007094000460909944,
                0.052905999539089935,
                0.022905999539089925,
                0.012905999539090178,
                0.052905999539089935,
                -0.007094000460909944,
                -0.007094000460909944,
                -0.027094000460910077,
                0.042905999539089926,
                0.052905999539089935,
                0.052905999539089935,
                0.012905999539090178,
                -0.04709400046091007,
                -0.04709400046091007,
                0.042905999539089926,
                0.052905999539089935,
                0.002905999539090047,
                0.052905999539089935,
                0.052905999539089935,
                0.032905999539089875,
                -0.01709400046091002,
                -0.007094000460909944,
                -0.01709400046091002,
                -0.007094000460909944,
                0.002905999539090047,
                -0.057094000460910066,
                -0.04709400046091007,
                -0.037094000460910076,
                0.012905999539090178,
                0.052905999539089935,
                0.032905999539089875,
                -0.037094000460910076,
                -0.007094000460909944,
                0.022905999539089925,
                -0.04709400046091007,
                -0.04709400046091007,
                0.012905999539090178,
                -0.027094000460910077,
                0.022905999539089925,
                -0.037094000460910076,
                0.042905999539089926,
                -0.01709400046091002,
                -0.007094000460909944,
                0.012905999539090178,
                0.052905999539089935,
                0.052905999539089935,
                0.043420550547682714,
                0.02342055054768293,
                -0.04772328885204263,
                -0.037723288852042625,
                0.003187989337622663,
                0.06810163241066464,
                0.0377988840862001,
                -0.03635947424923699,
                -0.01636230929018791,
                0.06744175229621494,
                0.0049599749644784604,
                0.05477472644247942,
                0.04115325544698806,
                0.040619416393161765,
                0.02267234725903469,
                0.022121286151362104,
                -0.018236512816462134,
                -0.04823651281646226,
                0.05956421293261859,
                -0.059325924527843125,
                -0.024439548812397648,
                0.013374381482864057,
                0.06572309088452087,
                -0.03719800391840903,
                -0.027867751607851814,
                0.04375239598852209,
                -0.021319031016118473,
                -0.008215691789245595,
                -0.019011083238371116,
                -0.058908535410323384,
                0.061763487183537136,
                0.021529834903482706,
                -0.057094000460910066,
                -0.04709400046091007,
                -0.04709400046091007,
                -0.01709400046091002,
                0.052905999539089935,
                -0.037094000460910076,
                -0.027094000460910077,
                -0.01709400046091002,
                0.002905999539090047,
                0.052905999539089935,
                0.002905999539090047,
                0.052905999539089935,
                0.012905999539090178,
                -0.007094000460909944,
                0.052905999539089935,
                0.012905999539090178,
                0.002905999539090047,
                0.002905999539090047,
                -0.01709400046091002,
                -0.007094000460909944,
                -0.04709400046091007,
                -0.037094000460910076,
                0.032905999539089875,
                -0.04709400046091007,
                -0.037094000460910076,
                -0.037094000460910076,
                -0.01709400046091002,
                -0.057094000460910066,
                -0.01709400046091002,
                0.012905999539090178,
                0.022905999539089925,
                0.052905999539089935,
                -0.04709400046091007,
                0.022905999539089925,
                -0.037094000460910076,
                -0.01709400046091002,
                0.012905999539090178,
                0.042905999539089926,
                0.022905999539089925,
                0.06290599953908978,
                -0.057094000460910066,
                -0.01709400046091002,
                0.002905999539090047,
                -0.057094000460910066,
                -0.057094000460910066,
                -0.01709400046091002,
                0.012905999539090178,
                -0.04709400046091007,
                -0.0470675476912649,
                -0.01884569838204327,
                0.030952105472420874,
                0.012932452308735503,
                0.061763487183537136,
                0.011763487183538026,
                0.050141170705698374,
                0.009783140347224183,
                0.007634100238893963,
                -0.007828057836376185,
                -0.041069330899082115,
                -0.045078907624498336,
                0.021167621967444396,
                0.044915902740776226,
                -0.05665169750475623,
                -0.03934974765148916,
                -0.018885184768951586,
                -0.016611380498080745,
                0.04476308070374848,
                -0.02745522448094663,
                -0.01767673325684565,
                0.0029324523087353636,
                0.061763487183537136,
                -0.02695831336352696,
                0.02295762167277465,
                -0.058236512816462256,
                -0.008236512816462085,
                0.051222569041683645,
                -0.04007467441179025,
                -0.016088284191135154,
                0.0226959266747853,
                0.009453316597270398,
                0.012411700395296371,
                0.012061125318432982,
                0.020773030818721245,
                -0.01654042471595724,
                -0.014391039199453356,
                -0.01133198179128344,
                -0.0010212958605367367,
                0.014662380655738012,
                0.05335035644280203,
                -0.006192791171985657,
                -0.0052331146192671225,
                0.03390281114572272,
                0.0629307626380988,
                -0.02747380617124998,
                0.029667846880887538,
                -0.029642731594818412,
                0.032024286768427467,
                -0.061809826569303165,
                -0.0011590056946924885,
                0.007157340311463051,
                0.018753629525920665,
                0.051844648663411014,
                0.04033379948169641,
                0.006846312236709223,
                0.007223471358447061,
                -0.05706444539869059,
                0.010775810548595431,
                0.015650962786530477,
                0.02943929558163591,
                -0.03965249845073347,
                0.007867626377382315,
                -0.05712795474415177,
                0.02846173811087621,
                0.04627670266523567,
                -0.00938093552437978,
                0.026879788720332937,
                0.018545106498977483,
                -0.015431936136703564,
                -0.05037424514511486,
                0.02864466346924303,
                -0.018143399933149763,
                -0.0334008335098148,
                -0.010102829106988903,
                0.0389274314367187,
                0.06225734157899828,
                0.012648101987593356,
                0.06224805478169605,
                -0.03699640055729978,
                -0.0005104885643031814,
                -0.06037850250667402,
                -0.02889181326398597,
                0.052323388745825164,
                -0.05542157789278864,
                0.020101462821098173,
                0.00032742548356782386,
                0.06281224144158105,
                0.0638329170554605,
                -0.045439189295759144,
                -0.02817786641418567,
                0.06608294489843253,
                -0.021820311270417052,
                -0.038118623696831055,
                0.05246478934374022,
                0.012244079700385702,
                -0.015810401772526194,
                0.012406676965786572,
                -0.006399774725029491,
                -0.004455886099527607,
                0.010549266005005055,
                -0.03779256457830501,
                0.011348523210402084,
                0.06083383920427308,
                0.01335948371561495,
                0.04252717985909978,
                -0.028651476789598083,
                -0.03732061060636038,
                -0.057879718643765975,
                0.06690023903494283,
                -0.042360369986146756,
                -0.002294456479792133,
                0.019108558927478727,
                0.030203143702736072,
                0.011629828748174396,
                -0.008543833550115596,
                0.043950268745671095,
                -0.007955698101975665,
                0.041227045808600954,
                -0.05900525960539257,
                0.030076351942694105,
                -0.04723931947544544,
                -0.009075997508455296,
                -0.009253288943556126,
                -0.03902045247975158,
                -0.010162620100461817,
                0.0412961010354993,
                -0.058843161044650615,
                -0.037094000460910076,
                0.06290599953908978,
                -0.007094000460909944,
                -0.007094000460909944,
                0.052905999539089935,
                0.032905999539089875,
                -0.037094000460910076,
                0.012905999539090178,
                -0.037094000460910076,
                0.032905999539089875,
                0.012905999539090178,
                0.042905999539089926,
                -0.04709400046091007,
                0.052905999539089935,
                -0.027094000460910077,
                0.042905999539089926,
                -0.007094000460909944,
                0.052905999539089935,
                -0.04709400046091007,
                -0.057094000460910066,
                0.002905999539090047,
                0.052905999539089935,
                0.002905999539090047,
                0.002905999539090047,
                -0.037094000460910076,
                0.012905999539090178,
                -0.007094000460909944,
                0.052905999539089935,
                0.032905999539089875,
                0.002905999539090047,
                -0.037094000460910076,
                -0.037094000460910076,
                0.06290599953908978,
                0.012905999539090178,
                -0.027094000460910077,
                0.042905999539089926,
                -0.037094000460910076,
                -0.007094000460909944,
                0.052905999539089935,
                -0.04709400046091007,
                -0.04709400046091007,
                -0.057094000460910066,
                -0.037094000460910076,
                -0.01709400046091002,
                -0.01709400046091002,
                -0.027094000460910077,
                -0.057094000460910066,
                0.002905999539090047,
                -0.007417514364624072,
                0.032905999539089875,
                -0.017853678250495362,
                0.011347359846025718,
                -0.015857864916486216,
                0.03021773256136047,
                -0.03684596602942239,
                0.001222857404786695,
                -0.007848663283360013,
                -0.009091877919329331,
                0.002905999539090047,
                0.002905999539090047,
                -0.01709400046091002,
                0.042740869688377384,
                0.06290599953908978,
                0.012905999539090178,
                0.022905999539089925,
                0.032905999539089875,
                -0.01709400046091002,
                0.012905999539090178,
                0.002905999539090047,
                0.002905999539090047,
                -0.007094000460909944,
                0.002905999539090047,
                -0.037094000460910076,
                -0.027094000460910077,
                -0.037094000460910076,
                0.012905999539090178,
                -0.027094000460910077,
                0.042905999539089926,
                0.052905999539089935,
                0.032905999539089875,
                -0.01709400046091002,
                0.06290599953908978,
                -0.01709400046091002,
                -0.01709400046091002,
                0.012905999539090178,
                0.022905999539089925,
                -0.007094000460909944,
                0.042905999539089926,
                0.042905999539089926,
                -0.027094000460910077,
                -0.027094000460910077,
                -0.007094000460909944,
                0.022905999539089925,
                0.022905999539089925,
                -0.037094000460910076,
                -0.007094000460909944
            ],
            [
                0.11236286041337734,
                0.12236286041337724,
                0.07236286041337747,
                0.1023628604133773,
                0.1023628604133773,
                0.03236286041337771,
                0.012362860413377492,
                0.07236286041337747,
                0.05236286041337788,
                0.09236286041337813,
                0.03236286041337771,
                0.05236286041337788,
                0.1023628604133773,
                0.012362860413377492,
                0.05236286041337788,
                0.022362860413377508,
                0.06236286041337736,
                0.09236286041337813,
                0.12236286041337724,
                0.09236286041337813,
                0.022362860413377508,
                0.05236286041337788,
                0.07236286041337747,
                0.08236286041337815,
                0.09236286041337813,
                0.12236286041337724,
                0.11460868235303669,
                0.01460868235303684,
                0.013516216360640829,
                0.12236286041337724,
                0.022362860413377508,
                0.11431372264987233,
                0.004313722649872776,
                0.07988545607344238,
                0.0287012591099184,
                0.02609041899427176,
                0.07404594178122256,
                0.13609867658126967,
                0.10748909137997259,
                0.07331261643578846,
                -0.04558320524577002,
                0.07130382231287881,
                0.029586172847351277,
                0.02545729097269404,
                0.0949786562248274,
                0.07772246158177261,
                0.12163784004917803,
                0.021637840049177997,
                0.06236286041337736,
                0.07236286041337747,
                0.022362860413377508,
                0.042362860413378396,
                0.012362860413377492,
                0.11236286041337734,
                0.042362860413378396,
                0.012362860413377492,
                0.06236286041337736,
                0.06236286041337736,
                0.11236286041337734,
                0.09236286041337813,
                0.022362860413377508,
                0.11236286041337734,
                0.0023628604133777275,
                0.08236286041337815,
                0.0023628604133777275,
                0.1023628604133773,
                0.022362860413377508,
                0.1023628604133773,
                0.1023628604133773,
                0.09236286041337813,
                0.012362860413377492,
                0.05236286041337788,
                0.012362860413377492,
                0.09236286041337813,
                0.12236286041337724,
                0.06236286041337736,
                0.08236286041337815,
                0.08236286041337815,
                0.022362860413377508,
                0.042362860413378396,
                0.042362860413378396,
                0.09236286041337813,
                0.05236286041337788,
                0.042362860413378396,
                0.07236286041337747,
                0.022362860413377508,
                0.012362860413377492,
                0.03236286041337771,
                0.0023628604133777275,
                0.08236286041337815,
                0.05236286041337788,
                0.07236286041337747,
                0.07236286041337747,
                0.0023628604133777275,
                0.1023628604133773,
                0.1023628604133773,
                0.012350245652618603,
                0.07222898315167324,
                0.09004946769629289,
                0.07415899975445317,
                0.11839908425504193,
                0.07490546743194543,
                0.06779186813775348,
                0.1586405521070038,
                0.10044023811102168,
                0.09167999787581478,
                -0.026611650043781566,
                0.05145854858477045,
                0.1458483581991462,
                0.024581811802480737,
                0.15083620238111817,
                0.0698891292675591,
                0.09728596203516154,
                -0.009517237513841138,
                0.13284519432374903,
                0.12350511523996759,
                0.05201427066956485,
                0.020917123287016438,
                0.006784506832014816,
                0.05363993810841808,
                0.08042692596711666,
                0.005077854117312027,
                0.020288892502355483,
                0.10223936382729117,
                0.09125657382363507,
                0.03883912010798592,
                0.0773928417334527,
                0.0046816724765408255,
                -0.11680897869627177,
                -0.006116509147491663,
                0.08579155886978759,
                0.059273507719735774,
                0.0776101354796072,
                0.032285549827641404,
                0.05852812264335979,
                0.07202816210862002,
                -0.000176753022884258,
                0.006758870167000988,
                0.056967687529886554,
                0.019420999940287682,
                0.0189659900669212,
                0.06682421769963894,
                0.07397772818100556,
                -0.0017904633598607815,
                -0.022301314399049553,
                0.020827360759587823,
                0.09306678023328353,
                -0.01806789305543202,
                0.04085381668817546,
                0.028661915563937646,
                0.051928197254560875,
                0.10243332024017804,
                0.04287087122213203,
                0.08385265233457959,
                0.134720172359876,
                0.10280674565313802,
                -0.002929821771493195,
                0.039721329813958046,
                0.025745606780523837,
                0.07531853139236924,
                -0.06918085016175578,
                0.013981287125481728,
                -0.02048323050621626,
                -0.008614145206761431,
                0.1896222725253135,
                0.13508412373425624,
                0.19571801233037353,
                0.10412491186433216,
                0.11602771890853848,
                0.10055285427353433,
                0.13453521570662857,
                0.12431168005873318,
                0.06537420066797678,
                0.08003358095116549,
                0.020836857935068013,
                0.09110006691760833,
                0.05577601480329979,
                0.11912161883921277,
                0.055880473592720484,
                0.009154869459466747,
                0.06236963894247212,
                0.06227578602785227,
                0.004323219404049696,
                0.04262095949198847,
                -0.01771758824440254,
                0.03880148147363414,
                -0.0042807342618431865,
                0.050956824587149764,
                0.10876688444217915,
                0.0222842246625848,
                0.03504353684287676,
                0.12147879980487938,
                0.07734721941325923,
                -0.0011644807814609316,
                0.025206247792736385,
                0.011177828196112136,
                0.08813835009926174,
                0.15215034789082438,
                0.10687800859649806,
                0.10902431366724477,
                0.0727492651696331,
                0.14198432491753574,
                0.10198432491753606,
                0.021257323710800687,
                0.15083035953533633,
                0.036079094056789676,
                0.12612303315811765,
                0.07131285172892958,
                0.0845919476539575,
                0.02448038633086345,
                -0.03231691611036135,
                0.034728108563928065,
                0.09904699633868166,
                0.04193911139092287,
                -0.0024745540796653376,
                -0.0197389883102845,
                0.07593619286187045,
                0.03177403514498881,
                0.0927158013191074,
                0.09580776719714386,
                0.13636384744740304,
                0.011594167504503518,
                0.11281534933688576,
                0.09365802298550459,
                0.06460868235303734,
                0.08236286041337815,
                0.022362860413377508,
                -0.00539131764696328,
                0.004608682353036728,
                -0.00539131764696328,
                0.07236286041337747,
                0.042362860413378396,
                0.1023628604133773,
                0.022362860413377508,
                0.022362860413377508,
                0.11236286041337734,
                0.012362860413377492,
                0.042362860413378396,
                0.08236286041337815,
                0.07236286041337747,
                0.03236286041337771,
                0.012362860413377492,
                0.07236286041337747,
                0.03236286041337771,
                0.1023628604133773,
                0.024608682353037283,
                0.11049649957933595,
                0.0023628604133777275,
                0.07236286041337747,
                0.029326107494611817,
                0.060496499579335644,
                0.05236286041337788,
                0.1023628604133773,
                0.022362860413377508,
                0.09236286041337813,
                0.0023628604133777275,
                0.08236286041337815,
                0.1023628604133773,
                0.05236286041337788,
                0.1023628604133773,
                0.042362860413378396,
                0.042362860413378396,
                0.11236286041337734,
                0.12236286041337724,
                0.1023628604133773,
                0.03236286041337771,
                0.12623131501107632,
                0.04652627471424064,
                0.14792552705528517,
                0.042362860413378396,
                0.022362860413377508,
                0.07038009411974008,
                0.1601421105254272,
                0.17406913831626306,
                0.0449729112624527,
                0.030712113571687977,
                0.15604359316955138,
                0.160600605668725,
                0.13079760566412343,
                0.04172099162028548,
                0.006296381682518745,
                0.12371416399722115,
                0.11719032684436163,
                0.10536263674315141,
                0.12613518281918196,
                0.0929299753921771,
                0.1493477632044542,
                0.0641861250785158,
                0.034776735427436214,
                0.11224931389175799,
                0.08093763195414479,
                0.09768790014017134,
                0.03532805466730129,
                0.12736045813719177,
                0.10389071634658299,
                0.16476317460551632,
                0.09669395904249196,
                0.12832319213408455,
                0.003141979427526402,
                0.032481689297179574,
                0.05915524844842782,
                0.10957384938199813,
                0.03190054191149596,
                0.04970646597723589,
                0.0850609229263528,
                0.07236286041337747,
                0.11236286041337734,
                0.05623131501107654,
                0.07623131501107638,
                0.05623131501107654,
                0.09236286041337813,
                0.08236286041337815,
                0.12236286041337724,
                0.022362860413377508,
                0.012362860413377492,
                0.03236286041337771,
                0.07236286041337747,
                0.08236286041337815,
                0.022362860413377508,
                0.03236286041337771,
                0.07236286041337747,
                0.03236286041337771,
                0.1023628604133773,
                0.012362860413377492,
                0.1023628604133773,
                0.025060922926352067,
                0.09506092292635253,
                0.1023628604133773,
                0.12236286041337724,
                0.11506092292635177,
                0.005060922926352091,
                0.08236286041337815,
                0.11236286041337734,
                0.09236286041337813,
                0.05236286041337788,
                0.09236286041337813,
                0.03236286041337771,
                0.1023628604133773,
                0.05236286041337788,
                0.12236286041337724,
                0.0023628604133777275,
                0.07236286041337747,
                0.012362860413377492,
                0.09236286041337813,
                0.12236286041337724,
                0.06236286041337736,
                0.1023628604133773,
                0.03236286041337771,
                0.0023628604133777275,
                0.1023628604133773,
                0.05236286041337788,
                0.012362860413377492,
                0.08236286041337815,
                0.1160414686059274,
                0.012362860413377492,
                0.07236286041337747,
                0.042362860413378396,
                0.0023628604133777275,
                0.012362860413377492,
                0.0023628604133777275,
                0.042362860413378396,
                0.042362860413378396,
                0.06236286041337736,
                0.08236286041337815,
                0.1023628604133773,
                0.1023628604133773,
                0.026041468605927515,
                0.08604146860592785,
                0.11697134828162094,
                0.058263630060548896,
                0.054140446683414854,
                0.1250609229263524,
                0.08873953111890222,
                0.09506092292635253,
                0.042672583790099965,
                0.09558298899541906,
                0.08939319163791964,
                0.0475560319049634,
                0.04555459113318965,
                -0.009844587581325033,
                0.05941144679396447,
                0.11157410985644325,
                0.06615621753075736,
                0.06995619188601468,
                0.024970870784808967,
                0.06842103163370925,
                -0.00786686272359913,
                0.05508387342369605,
                0.03560910017135842,
                0.10864883811597113,
                0.08228977414400382,
                0.0725614524435502,
                -0.014176302868672747,
                0.06449085536174207,
                0.16741245210450145,
                0.017600468624455995,
                -0.014278222593108356,
                0.006174664101997085,
                0.12046591707818385,
                0.07467396809843174,
                0.04604146860592783,
                0.026041468605927515,
                0.08236286041337815,
                0.06236286041337736,
                0.1023628604133773,
                0.05236286041337788,
                0.012362860413377492,
                0.012362860413377492,
                0.03236286041337771,
                0.06236286041337736,
                0.09236286041337813,
                0.07236286041337747,
                0.0023628604133777275,
                0.12236286041337724,
                0.05604146860592719,
                0.07604146860592742,
                0.039321916667543526,
                0.04932191666754391,
                0.022362860413377508,
                0.07236286041337747,
                0.11236286041337734,
                0.03236286041337771,
                0.042362860413378396,
                0.03236286041337771,
                0.0023628604133777275,
                0.0023628604133777275,
                0.1023628604133773,
                0.12236286041337724,
                0.0023628604133777275,
                0.012362860413377492,
                0.06932191666754361,
                0.1112910852965219,
                0.05066359894581156,
                0.11763313892803341,
                -0.006560796544558839,
                0.11843461027023919,
                0.10634726726944668,
                0.10092304630179132,
                0.010799128078850813,
                0.002110810063798466,
                -0.036577463290748374,
                0.07834194094417794,
                -0.0700780876770387,
                0.03419642551818892,
                0.03271420526271971,
                0.08272169571475428,
                0.17511844957810874,
                0.044404454069528726,
                0.025171035446828895,
                -0.05849798861243133,
                0.0944915729191412,
                0.11477011909224995,
                -0.07170663763577043,
                0.0823955812293182,
                -0.08050390749588816,
                -0.0013822892255344187,
                0.006426124210635584,
                0.06653617849221673,
                0.0024443790038111007,
                0.08859199554653945,
                0.04896191310126745,
                0.09513606990723861,
                0.03878383618150634,
                0.003786726880865964,
                0.06595947701355644,
                0.046177310850415605,
                0.06914203073084653,
                0.0753686895548073,
                0.07495850279824418,
                0.008167776686865675,
                0.03925192239981326,
                -0.026321552607779707,
                0.07673883147012324,
                0.13582075774768915,
                0.1153934283735035,
                0.0630397072675919,
                0.16498746302719944,
                0.11903990849423307,
                -0.007981734632895506,
                -0.0026586182652374645,
                0.0738096346961701,
                0.07279174578635307,
                0.10543994652311417,
                0.05211516060186253,
                -0.02212563265161005,
                -0.003575828496618273,
                0.0830313812453887,
                0.15499933877356542,
                0.08450256470301219,
                0.030558555802138055,
                0.20491246567633373,
                0.03182821676369363,
                0.04072509498175601,
                0.13007964588073978,
                0.06457508341411079,
                -0.0764320820740164,
                0.057965749524866786,
                0.008357056153430624,
                0.10626748980253546,
                0.04460456512863619,
                -0.0627595562335735,
                0.10957211599516925,
                0.09041700150621554,
                0.017423821272508803,
                0.0057427043662139285,
                0.0013102075348200887,
                -0.032095466525205896,
                0.031526791276869186,
                0.02881898548596779,
                0.08676736036277358,
                0.10168235493028802,
                0.08453648581103396,
                -0.04341185963945561,
                -0.06345288501345384,
                0.029152898505679592,
                0.022298235755417086,
                0.045825691922302195,
                0.21305218544940946,
                0.02564224481158622,
                0.11916255102708037,
                0.10112217871707696,
                0.06672214266258221,
                0.058753714747373766,
                0.08386979455619495,
                -0.0045657917077941874,
                0.09795963563792706,
                0.07293081582537836,
                -0.03025222141069884,
                0.039293881255214984,
                -0.03792335098734809,
                0.07432945384612728,
                0.13276891338099217,
                0.030007124881500452,
                -0.005119838744656902,
                0.021677060813730532,
                0.035203840167351154,
                0.05031378647008212,
                0.05118032094380868,
                0.08286498603597854,
                0.07026670151160598,
                0.03837386979040838,
                0.13394790033877332,
                0.00459590926092907,
                0.048817217172800034,
                0.03275777055512749,
                0.033732801504202874,
                0.024867955350068326,
                0.06215973506144517,
                0.07972798869181374,
                0.10373677919218523,
                0.10469949926383834,
                0.06484477668106803,
                0.0804960492430397,
                0.09324575274156072,
                0.12973765119079056,
                0.1358326187263604,
                0.14125707599264026,
                0.15190017379700674,
                0.053460972674782586,
                0.06340213605919537,
                0.05771433855707722,
                0.032725084570474634,
                -0.006839162413819498,
                0.08794622757171151,
                -0.0004764727054048045,
                0.052668540790146615,
                -0.0288956081302669,
                -0.0773298564021313,
                0.03317679732914956,
                0.06092204739456163,
                0.12137077510106863,
                0.16084139421289595,
                0.040564182850819495,
                -0.010422860388244876,
                0.13309674905224808,
                -0.027928757611453348,
                0.03564229011416749,
                0.12451720186158428,
                0.011547935139053273,
                -0.016678809101202462,
                0.0002207887472366741,
                0.051842664171550694,
                0.1403823653976953,
                0.07367215900226069,
                0.0922648591323371,
                0.020979544922773655,
                0.12656080891523863,
                0.07978985634362268,
