{
    "layer1": {
        "weights": [
            [
                -0.01560712510847819,
                0.06439287489152215,
                0.024392874891521817,
                0.05439287489152185,
                0.03439287489152194,
                -0.005607125108478137,
                -0.03560712510847816,
                0.01439287489152189,
                0.04439287489152184,
                0.05439287489152185,
                -0.05560712510847815,
                -0.01560712510847819,
                0.04439287489152184,
                -0.01560712510847819,
                -0.03560712510847816,
                0.024392874891521817,
                -0.025607125108478172,
                0.05439287489152185,
                0.04439287489152184,
                0.03439287489152194,
                0.024392874891521817,
                0.01439287489152189,
                0.06439287489152215,
                0.024392874891521817,
                0.01439287489152189,
                -0.005607125108478137,
                -0.002934250710540637,
                0.017065749289459323,
                -0.007139085068265186,
                -0.01560712510847819,
                0.06439287489152215,
                -0.039542577635308336,
                -0.009542577635308391,
                -0.009199457076770078,
                0.02032311730496734,
                -0.03982273760350617,
                -0.007918697133554232,
                0.01801314592966409,
                -0.013108475471329385,
                -0.023696563026805516,
                0.04763045512951692,
                -0.0024502330175716564,
                0.004336206693298242,
                -0.012124598446241181,
                0.06631087869156975,
                0.02065448185708563,
                0.06118170707310609,
                -0.02881829292689408,
                0.03439287489152194,
                -0.025607125108478172,
                0.01439287489152189,
                0.004392874891521863,
                -0.045607125108478155,
                -0.01560712510847819,
                0.03439287489152194,
                0.004392874891521863,
                -0.025607125108478172,
                0.04439287489152184,
                -0.025607125108478172,
                -0.025607125108478172,
                0.024392874891521817,
                -0.05560712510847815,
                -0.03560712510847816,
                0.01439287489152189,
                0.01439287489152189,
                0.06439287489152215,
                -0.01560712510847819,
                0.06439287489152215,
                0.004392874891521863,
                -0.03560712510847816,
                -0.025607125108478172,
                0.06439287489152215,
                -0.045607125108478155,
                0.05439287489152185,
                -0.025607125108478172,
                -0.045607125108478155,
                -0.025607125108478172,
                -0.03560712510847816,
                0.004392874891521863,
                -0.005607125108478137,
                0.05439287489152185,
                -0.01560712510847819,
                -0.03560712510847816,
                0.004392874891521863,
                0.06439287489152215,
                0.004392874891521863,
                0.06439287489152215,
                -0.03560712510847816,
                -0.025607125108478172,
                -0.025607125108478172,
                0.024392874891521817,
                -0.01560712510847819,
                0.06439287489152215,
                -0.005607125108478137,
                -0.01560712510847819,
                0.024392874891521817,
                0.040679309473890146,
                -0.009287992159782443,
                -0.026567235814908947,
                -0.04545155797548228,
                -0.0639061320166115,
                0.016459508099360653,
                0.04684913573033283,
                -0.10833930853639302,
                -0.06300561127081702,
                -0.10578608525956733,
                0.25809036473712654,
                0.21570992667755534,
                0.19949042448577237,
                0.07622547298842224,
                -0.017617794549745745,
                0.1709349543693474,
                0.008939448113628873,
                0.0915179687972638,
                0.09813747522187115,
                0.017498353155744377,
                -0.01377318376093947,
                0.02078831233888924,
                -0.009701930369148872,
                -0.03473685696833799,
                -0.014628774397676137,
                0.07110456191790811,
                0.031220087494496056,
                0.05700019795174779,
                0.049868046646912016,
                0.07855968196964354,
                0.07877190826721316,
                0.028318564074806984,
                0.056083827186156114,
                -0.019386592214090004,
                -0.13350286452364502,
                -0.09970323542787024,
                -0.19851751961695333,
                -0.0006176936463718025,
                -0.01373828829428101,
                -0.049251739251993755,
                -0.0679028550228754,
                0.014468062794879225,
                0.012719232873156247,
                -0.13203600699749618,
                -0.23670210782491308,
                -0.15521889447930232,
                -0.058069828494433616,
                -0.17195112222495654,
                -0.04744718308270119,
                -0.12871670365869528,
                -0.012329195318479631,
                -0.09775043444047264,
                -0.06109341088958775,
                0.020327956312200315,
                0.01235657688247281,
                -0.12072764412640857,
                -0.11182834158392875,
                -0.009496565069765638,
                0.12866441411872429,
                -0.02460616282090769,
                0.12891369428744603,
                0.08173012853257448,
                -0.14090923905386632,
                -0.08148093395925624,
                -0.030249690207547492,
                -0.013479196026926538,
                0.1059522752206365,
                0.10768291188320864,
                -0.0768374770601965,
                0.2272240124358442,
                0.14773051060066167,
                -0.23987662348071845,
                -0.08233651494524061,
                0.37356297395867166,
                0.1937405693567993,
                -0.13213540608309493,
                0.20611693021641608,
                0.23758472152581567,
                -0.04260365348256711,
                -0.12796923713797315,
                0.10150917250406724,
                0.16158054680896164,
                0.06887403120612508,
                0.11058173877766848,
                0.009488658690030119,
                -0.026319373603643666,
                0.05235054124359,
                -0.04572910293756868,
                -0.07675998480426409,
                -0.032433998106749976,
                -0.03381519689803348,
                -0.05000823121742473,
                -0.03170693498828618,
                0.06518419424989258,
                0.05992875642240997,
                0.056381225907132605,
                0.07367888589053559,
                0.17281237753827092,
                -0.029937072545579674,
                -0.14836084330680865,
                0.06738590456742911,
                0.14747124279156654,
                0.10915195664466236,
                0.008447538396929867,
                0.10131410033759825,
                -0.00031425107062060283,
                0.05968574892937981,
                0.012659309948502269,
                -0.060704699352965526,
                -0.19221725609722093,
                0.21436052427868715,
                0.10178146311715439,
                0.047099348893469714,
                -0.07485995715933504,
                -0.13122178692867223,
                -0.020598255024555513,
                0.10423756999262941,
                0.019495181101266655,
                0.09411280694980928,
                -0.10542866202832432,
                0.011371968201367912,
                0.06082557491541788,
                0.00954958126658655,
                0.03705572897397865,
                0.05049350014819316,
                0.042261658577643316,
                -0.030130578108351607,
                0.07167256153459035,
                0.03706574928945957,
                0.06439287489152215,
                -0.05560712510847815,
                0.07706574928945951,
                -0.04293425071054046,
                -0.002934250710540637,
                -0.005607125108478137,
                0.01439287489152189,
                -0.025607125108478172,
                -0.01560712510847819,
                0.03439287489152194,
                0.024392874891521817,
                -0.005607125108478137,
                0.01439287489152189,
                -0.045607125108478155,
                -0.025607125108478172,
                0.004392874891521863,
                -0.05560712510847815,
                -0.005607125108478137,
                0.01439287489152189,
                0.01439287489152189,
                -0.04293425071054046,
                0.0067986762133776845,
                0.01439287489152189,
                -0.025607125108478172,
                0.05487475666831859,
                -0.0632013237866225,
                0.024392874891521817,
                -0.045607125108478155,
                0.024392874891521817,
                -0.01560712510847819,
                0.03439287489152194,
                0.004392874891521863,
                -0.005607125108478137,
                -0.045607125108478155,
                -0.05560712510847815,
                0.004392874891521863,
                -0.005607125108478137,
                0.024392874891521817,
                -0.03560712510847816,
                0.05439287489152185,
                -0.005607125108478137,
                0.06735625125358856,
                0.07396457817835583,
                -0.05444767794030501,
                0.01439287489152189,
                0.024392874891521817,
                0.017232575535769432,
                0.059913510354659354,
                0.0650996365307346,
                0.09422296830551653,
                -0.03518884972017529,
                -0.21483997082988907,
                0.07490754002455602,
                0.14595562433525702,
                -0.07110212099014558,
                -0.1449656637019161,
                0.14593446355278747,
                0.15503657813292304,
                -0.10986727360610427,
                -0.01919032386722854,
                -0.06017126511062047,
                0.07184137670727164,
                0.09719806452385486,
                0.03385176994080239,
                0.03881744606534756,
                -0.014787042889607133,
                -0.0639366796372348,
                -0.1409548532752186,
                0.034261167655295736,
                0.10306434143410062,
                -0.10784019486847876,
                -0.10578869029854354,
                0.025548191686488943,
                0.11696648040843236,
                -0.08615734276590145,
                0.05266602276940721,
                -0.00014462475822877836,
                0.0173318276007109,
                -0.00012040489835125997,
                0.04543233170852817,
                -0.01560712510847819,
                -0.025607125108478172,
                -0.0526437487464125,
                -0.0026437487464124757,
                0.03735625125358758,
                -0.025607125108478172,
                -0.05560712510847815,
                -0.01560712510847819,
                0.05439287489152185,
                0.024392874891521817,
                -0.025607125108478172,
                0.01439287489152189,
                0.004392874891521863,
                0.024392874891521817,
                0.05439287489152185,
                0.04439287489152184,
                0.04439287489152184,
                0.06439287489152215,
                0.01439287489152189,
                0.03439287489152194,
                0.03543233170852822,
                0.03543233170852822,
                -0.005607125108478137,
                0.05439287489152185,
                0.03543233170852822,
                0.05543233170852818,
                0.004392874891521863,
                -0.045607125108478155,
                -0.05560712510847815,
                -0.05560712510847815,
                0.024392874891521817,
                0.05439287489152185,
                -0.005607125108478137,
                0.05439287489152185,
                0.04439287489152184,
                -0.045607125108478155,
                -0.025607125108478172,
                0.01439287489152189,
                -0.005607125108478137,
                -0.005607125108478137,
                0.024392874891521817,
                0.004392874891521863,
                -0.01560712510847819,
                -0.01560712510847819,
                0.05439287489152185,
                0.03439287489152194,
                -0.01560712510847819,
                0.03439287489152194,
                0.014537514089452445,
                -0.03560712510847816,
                0.04439287489152184,
                0.03439287489152194,
                0.024392874891521817,
                -0.05560712510847815,
                -0.045607125108478155,
                0.03439287489152194,
                0.05439287489152185,
                -0.045607125108478155,
                0.024392874891521817,
                0.06439287489152215,
                -0.03560712510847816,
                -0.015462485910547668,
                -0.045462485910547475,
                -0.04452834006564665,
                -0.07096160436648252,
                -0.03102258902453744,
                -0.03456766829147183,
                0.03557697090645884,
                -0.024567668291471972,
                -0.05567459615730014,
                -0.003661346686994816,
                -0.02416885768439714,
                -0.0300800949162534,
                0.06430113194297885,
                0.04976220592705799,
                -0.10904840281661995,
                -0.005945614256661379,
                -0.020992546478328246,
                0.07747910960754328,
                -0.0026520312737429146,
                -0.05878000173339231,
                -0.03852345876916975,
                -0.049261839024866236,
                0.041664477753396836,
                -0.020104154094888516,
                -0.1515035313882014,
                -0.1938623403663539,
                -0.09668959183744599,
                -0.12455255901908137,
                0.043476922717448234,
                -0.03603762969158751,
                0.048878707463717995,
                -0.034792647429402794,
                -0.10760630501477696,
                -0.04379013650101255,
                -0.03546248591054748,
                -0.045462485910547475,
                -0.05560712510847815,
                -0.005607125108478137,
                0.01439287489152189,
                0.01439287489152189,
                0.03439287489152194,
                0.004392874891521863,
                0.04439287489152184,
                0.004392874891521863,
                0.01439287489152189,
                0.01439287489152189,
                0.004392874891521863,
                0.024392874891521817,
                0.014537514089452445,
                0.02453751408945227,
                -0.015185746663432604,
                -0.025185746663432675,
                -0.045607125108478155,
                0.01439287489152189,
                -0.01560712510847819,
                0.04439287489152184,
                -0.005607125108478137,
                -0.005607125108478137,
                -0.01560712510847819,
                0.05439287489152185,
                -0.045607125108478155,
                0.04439287489152184,
                -0.03560712510847816,
                0.01439287489152189,
                -0.015185746663432604,
                -0.017286860274865264,
                0.06252131956398603,
                -0.03731373165214337,
                -0.08034652667468169,
                0.00900250207565678,
                -0.05219037607042592,
                -0.01604170432678103,
                -0.05145482011129922,
                -0.02383002119241608,
                -0.09641522219273763,
                -0.04420501210116597,
                0.10751360548785348,
                -0.09757232394871182,
                0.06365375598823235,
                0.06173808818016631,
                -0.00774127685114926,
                0.08616286139938552,
                0.0680534638839652,
                0.035036201207665325,
                0.02008947184477413,
                0.10822931134257839,
                0.088453508640366,
                0.23491281709421027,
                -0.02134364516845657,
                -0.0771501820754728,
                -0.05183897899583585,
                0.015378751966969938,
                -0.10564090271254663,
                -0.3644280373604896,
                0.045913082099044975,
                0.12940719696667422,
                -0.018245961757345913,
                0.05315803072368563,
                0.1032677716031568,
                -0.011185358504854135,
                -0.10980807648406904,
                0.0031403639697409422,
                0.12309395689425445,
                0.00022856382648396895,
                -0.05092662787811183,
                0.017822086247801322,
                0.029414654731836885,
                -0.2489210505318607,
                -0.031727393049335494,
                0.09623848403708325,
                -0.07049677841601136,
                -0.10948445847806541,
                -0.10672702040618436,
                0.07008580873414393,
                0.07885897296534447,
                0.11280570494753812,
                -0.14883569433042723,
                -0.12141360989557477,
                0.14727546850389067,
                -0.16677720482643948,
                -0.17492887690221365,
                0.11603322003058145,
                0.12263904727435643,
                -0.06889258602763428,
                -0.07203753688949943,
                0.0011250999460771936,
                -0.1522847751119045,
                -0.0073977594413579375,
                0.12414710019557328,
                -0.014227896222180552,
                -0.2200945325233948,
                0.0759788369654724,
                0.06332687125105436,
                -0.13907705619131266,
                -0.1200668246143783,
                -0.3840143136187037,
                -0.0452725496874529,
                0.24027344705068593,
                -0.07228827101224594,
                -0.21062953705784562,
                0.010599532376738158,
                0.298076498876164,
                0.18817992645011924,
                -0.15185220553905202,
                -0.24982308607302017,
                0.28661477861322393,
                -0.05302824881934211,
                -0.13461305827198106,
                -0.17515191068496358,
                -0.134041161267665,
                -0.01841821772618194,
                -0.14655089368430255,
                -0.15763858131116787,
                -0.2846343955413244,
                0.03831394606652529,
                -0.01592974911199022,
                0.026992102023054118,
                0.18854682861589647,
                -0.046829447551339935,
                0.0335443141776399,
                -0.033270314578944395,
                0.037850434771707755,
                0.039763025152783994,
                0.054822914244523145,
                -0.07068300579675267,
                -0.07207303152233838,
                -0.09468816380104274,
                -0.12220638682254037,
                -0.047610857605551456,
                -0.00197693799710552,
                0.03339033290080747,
                -0.038413187989140056,
                -0.079924517822903,
                -0.05616998303948786,
                -0.07024875500676445,
                -0.1419951982341513,
                -0.01832071505852095,
                -0.0044074430944623915,
                0.11078010306017323,
                -0.011257395693714993,
                -0.056983608647112036,
                0.08928026421325813,
                -0.0024394147199950744,
                0.02905814456462023,
                9.008047907565442e-05,
                0.004942107541165951,
                -0.09471018814362726,
                0.004975399045299111,
                -0.024077853092321296,
                -0.08920536266011495,
                -0.022450040623000787,
                -0.016899502292320377,
                0.0025948585234276435,
                -0.0467196479001533,
                0.014172829483431302,
                -0.044064907342124066,
                -0.041517996096075246,
                -0.031113119507206223,
                0.027963865371875115,
                0.15148948756293035,
                0.19124546086233715,
                -0.04176645842832356,
                -0.05099041514846298,
                -0.07054920779289962,
                0.03634685944724187,
                0.03532415547145351,
                -0.06847863209971788,
                -0.16326937019632878,
                -0.13014125564289475,
                -0.046782783588424755,
                0.041950032571477794,
                0.012030494729213735,
                -0.05604761196513201,
                0.008003830811348159,
                0.057930191408295986,
                -0.037889373116637974,
                -0.07152474944085513,
                -0.032253743082078186,
                0.015386066487641369,
                0.018767178168532763,
                0.055060466776428375,
                0.04461836302009043,
                0.08620249572793308,
                -0.07355226682570923,
                -0.07884770964051369,
                -0.01634502460722386,
                0.0680361250004759,
                0.0680361250004759,
                0.03439287489152194,
                0.01439287489152189,
                -0.03560712510847816,
                -0.025607125108478172,
                0.024392874891521817,
                0.024392874891521817,
                -0.005607125108478137,
                -0.045607125108478155,
                0.03439287489152194,
                -0.045607125108478155,
                -0.045607125108478155,
                0.03439287489152194,
                0.027891485802544767,
                -0.036618586805580715,
                -0.030274572502924774,
                0.039725427497075444,
                0.05439287489152185,
                0.004392874891521863,
                0.05439287489152185,
                -0.005607125108478137,
                -0.025607125108478172,
                0.03439287489152194,
                -0.03560712510847816,
                0.01439287489152189,
                0.04439287489152184,
                0.024392874891521817,
                -0.025607125108478172,
                -0.03560712510847816,
                0.06972542749707558,
                0.059725427497075365,
                -0.0017593881857411637,
                0.012951667969590503,
                -0.0453545063833326,
                0.04824061181425878,
                0.028240611814258826,
                0.10085763628846706,
                -0.05217646833282115,
                0.03473136976715942,
                -0.07071605803236886,
                0.03923551398833957,
                0.006998652840014749,
                -0.06438440497109726,
                -0.044235383291710666,
                -0.08193399097760752,
                -0.017593936152464178,
                -0.09296413140434928,
                -0.045713325379062704,
                -0.06778633919600241,
                0.005138381938305443,
                0.0038763788165283985,
                0.0197961645395179,
                0.05510292558650126,
                0.004392874891521863,
                0.009796164539518077,
                -0.020203835460482066,
                -0.044897074413498744,
                0.01439287489152189,
                -0.03692474007876075,
                -0.009227882784841514,
                0.0023625235720100275,
                -0.0028024882592041223,
                -0.017091940791294693,
                -0.025607125108478172,
                -0.01560712510847819,
                -0.045607125108478155,
                -0.03560712510847816,
                0.01439287489152189,
                0.024392874891521817,
                -0.025607125108478172,
                -0.005607125108478137,
                -0.045607125108478155,
                -0.045607125108478155,
                -0.025607125108478172,
                0.05439287489152185,
                -0.005607125108478137,
                0.03439287489152194,
                0.05439287489152185,
                0.06439287489152215,
                -0.005607125108478137,
                0.01439287489152189,
                0.004392874891521863,
                -0.045607125108478155,
                -0.01560712510847819,
                -0.01560712510847819,
                0.01439287489152189,
                0.06439287489152215,
                0.06439287489152215,
                -0.05560712510847815,
                -0.03560712510847816,
                -0.025607125108478172,
                0.03439287489152194,
                0.04439287489152184,
                0.024392874891521817,
                -0.05560712510847815,
                0.01439287489152189,
                0.024392874891521817,
                0.004392874891521863,
                -0.025607125108478172,
                -0.01560712510847819,
                0.01439287489152189,
                -0.045607125108478155,
                -0.045607125108478155,
                -0.03560712510847816,
                0.05439287489152185,
                -0.03560712510847816,
                0.03439287489152194,
                0.06439287489152215,
                -0.005607125108478137,
                -0.005607125108478137,
                -0.025607125108478172,
                0.01439287489152189,
                0.004392874891521863,
                -0.005607125108478137,
                0.01439287489152189,
                0.05439287489152185,
                0.01439287489152189,
                -0.03560712510847816,
                0.01439287489152189,
                0.01439287489152189,
                0.05439287489152185,
                0.03439287489152194,
                0.04439287489152184,
                0.05439287489152185,
                -0.005607125108478137,
                0.04439287489152184,
                -0.005607125108478137,
                0.03491275203573472,
                -0.005087247964265392,
                0.04972333855767441,
                0.04972333855767441,
                -0.0816318504852071,
                -0.05931136646014395,
                -0.042609421000901974,
                -0.017770673480019327,
                0.0006782254078649167,
                0.03558092398435185,
                0.04767188125456039,
                0.07087694300329629,
                0.05745809161309998,
                0.0774673496955721,
                0.015102925586501248,
                -0.029844409740881293,
                -0.03569052309160857,
                0.014309476908391761,
                -0.0019210420896674674,
                0.09038964068576279,
                0.06265619673639727,
                0.050480574755297235,
                -0.045476810817606406,
                0.0008482152318762844,
                -0.018707346729058476,
                0.05539848424403834,
                0.12271599448484148,
                0.011425124550240646,
                0.02974184836739677,
                -0.0041818451474108604,
                0.06430947690839188,
                0.07501952760337147,
                0.01439287489152189,
                0.024392874891521817,
                0.03439287489152194,
                0.024392874891521817,
                0.004392874891521863,
                0.06439287489152215,
                -0.005607125108478137,
                -0.005607125108478137,
                -0.03560712510847816,
                0.01439287489152189,
                0.024392874891521817,
                0.05439287489152185,
                0.004392874891521863,
                0.024392874891521817,
                0.004392874891521863,
                -0.005607125108478137,
                -0.03560712510847816,
                0.004392874891521863,
                -0.005607125108478137,
                0.01439287489152189,
                0.03439287489152194,
                -0.05560712510847815,
                -0.005607125108478137,
                0.004392874891521863,
                -0.03560712510847816,
                -0.005607125108478137,
                0.05439287489152185,
                -0.005607125108478137,
                0.004392874891521863,
                0.004392874891521863,
                0.01439287489152189,
                0.024392874891521817,
                -0.03560712510847816,
                -0.045607125108478155,
                -0.01560712510847819,
                0.03439287489152194,
                -0.05560712510847815,
                -0.01560712510847819,
                0.024392874891521817,
                -0.005607125108478137,
                0.004392874891521863,
                0.01439287489152189,
                0.05439287489152185,
                -0.03560712510847816,
                -0.045607125108478155,
                0.004392874891521863,
                -0.01560712510847819,
                0.024392874891521817,
                0.06346619857420717,
                0.05782545809680879,
                0.09077627908690745,
                0.07346619857420729,
                0.07430947690839211,
                0.06430947690839188,
                0.07911838450657895,
                0.0016195574210914675,
                -0.022882449991947957,
                -0.0004907735242063662,
                -0.008605247999524045,
                -0.030295610932842082,
                0.0623968864149681,
                -0.022179136878135698,
                -0.07459982906100977,
                -0.0333708731582191,
                0.027054377128717874,
                -0.004503041169764501,
                -0.040883868032644204,
                0.0013758825569474083,
                0.03698217976262396,
                0.08346619857420741,
                0.014309476908391761,
                -0.0016223471074905452,
                0.054159008471605166,
                -0.025690523091608516,
                0.004309476908391707,
                -0.03096820232758254,
                0.028255961005779574,
                -0.004435382170790628,
                0.008986234521646059,
                0.15682764764038679,
                -0.10442714472116787,
                -0.04636879360595262,
                0.01527680358277665,
                0.044034627685832176,
                -0.13986719735923486,
                0.00616823536893484,
                -0.14884023193169774,
                -0.16813144680973535,
                0.013134768627504883,
                -0.03487976781078748,
                -0.15164817365184963,
                0.1488796320489061,
                -0.051883774840159956,
                0.013111847591710975,
                -0.07283724804716438,
                -0.060282477786415725,
                -0.0553742696697625,
                0.043771024521992254,
                0.062169909013475785,
                0.04181209252500957,
                -0.20641069867931436,
                -0.0040752948856863465,
                0.11054670494697645,
                0.038493524290031327,
                -0.22990404551106847,
                -0.09306802889607828,
                -0.1386761586673932,
                -0.24610323388633287,
                -0.060168989717244215,
                -0.05429769009924584,
                -0.02899292928919653,
                -0.1214670410583832,
                0.031026590037574173,
                -0.10723743754338608,
                0.04496143196152713,
                -0.01711217568972228,
                -0.020684582540910438,
                -0.026558888298038586,
                -0.06595060501106853,
                -0.10540030985800074,
                -0.17422791919975658,
                -0.11278431030286916,
                -0.0430326451472107,
                -0.0978581072708141,
                -0.04199803994592643,
                -0.13909697577024438,
                -0.02626463636635083,
                -0.13560463821693527,
                -0.046692447902580966,
                -0.03171989493838507,
                0.012692247349363913,
                -0.06556853361924404,
                -0.03276093884592974,
                -0.03133610954969756,
                0.006339914897473861,
                0.0027494557604038684,
                -0.030829954902858656,
                -0.1022499987388851,
                -0.0614274373035005,
                0.009787158316435951,
                0.13349063631206354,
                0.008786203883516674,
                -0.07285275835576044,
                -0.07915672110217764,
                0.09440402049778328,
                0.08917526774070338,
                -0.017615947495232383,
                -0.010738431054881155,
                0.015255649804800622,
                -0.04542280701269703,
                -0.015225885265438825,
                0.039004805075782994,
                -0.013970357540492686,
                -0.043701470190461944,
                -0.04522588526543917,
                -0.03384959002913152,
                0.003695933064554976,
                0.005673909483342377,
                0.0028920698347731674,
                0.04919110531772079,
                0.1589483457269899,
                0.008796961242219835,
                -0.021029119948548256,
                0.11143948519245168,
                0.09257365205942661,
                0.1609700994129896,
                0.050776020135073915,
                8.387683610931279e-05,
                -0.05905778985813526,
                -0.04754658960146638,
                0.045205078482195085,
                0.015243458903585283,
                0.05519365930582697,
                -0.048458995879855124,
                -0.04691311533066227,
                -0.034844721115562874,
                -0.03560712510847816,
                -0.03560712510847816,
                0.024392874891521817,
                0.03439287489152194,
                -0.005607125108478137,
                0.04439287489152184,
                -0.005607125108478137,
                -0.045607125108478155,
                0.06439287489152215,
                -0.01560712510847819,
                -0.03560712510847816,
                0.04439287489152184,
                -0.01560712510847819,
                0.024392874891521817,
                0.04439287489152184,
                0.004392874891521863,
                0.03439287489152194,
                0.004392874891521863,
                0.03439287489152194,
                0.024392874891521817,
                0.04439287489152184,
                0.01439287489152189,
                -0.025607125108478172,
                0.024392874891521817,
                0.024392874891521817,
                0.05439287489152185,
                0.01439287489152189,
                -0.01560712510847819,
                -0.01560712510847819,
                0.06439287489152215,
                0.004392874891521863,
                -0.005607125108478137,
                -0.03560712510847816,
                0.06439287489152215,
                0.04439287489152184,
                0.06439287489152215,
                0.004392874891521863,
                0.06439287489152215,
                -0.005607125108478137,
                -0.03560712510847816,
                -0.05560712510847815,
                -0.03560712510847816,
                -0.01560712510847819,
                -0.03560712510847816,
                0.01439287489152189,
                0.024392874891521817,
                -0.05560712510847815,
                -0.01560712510847819,
                0.014457269710592949,
                -0.005607125108478137,
                0.04058902118878908,
                0.07879751037473326,
                0.018408377973557145,
                0.10476120488450354,
                0.11958250469004023,
                0.07813437795543435,
                -0.0013482485561608316,
                0.06575243871146971,
                0.05439287489152185,
                -0.005607125108478137,
                0.01439287489152189,
                0.006306928379996967,
                0.024392874891521817,
                -0.045607125108478155,
                0.01439287489152189,
                0.03439287489152194,
                0.01439287489152189,
                -0.03560712510847816,
                -0.045607125108478155,
                -0.045607125108478155,
                -0.025607125108478172,
                -0.05560712510847815,
                -0.01560712510847819,
                -0.01560712510847819,
                0.01439287489152189,
                0.04439287489152184,
                -0.005607125108478137,
                -0.03560712510847816,
                -0.05560712510847815,
                0.04439287489152184,
                0.03439287489152194,
                0.024392874891521817,
                0.05439287489152185,
                0.03439287489152194,
                0.03439287489152194,
                0.05439287489152185,
                0.01439287489152189,
                0.04439287489152184,
                -0.05560712510847815,
                -0.045607125108478155,
                -0.025607125108478172,
                0.04439287489152184,
                0.03439287489152194,
                0.024392874891521817,
                0.004392874891521863,
                0.03439287489152194
            ],
            [
                -0.03022436723887558,
                0.01977563276112434,
                -0.00022436723887554817,
                -0.020224367238875662,
                0.0397756327611247,
                -0.03022436723887558,
                -0.050224367238875293,
                -0.01022436723887552,
                -0.03022436723887558,
                0.00977563276112448,
                -0.020224367238875662,
                0.01977563276112434,
                -0.03022436723887558,
                0.01977563276112434,
                0.01977563276112434,
                -0.03022436723887558,
                -0.03022436723887558,
                -0.020224367238875662,
                0.01977563276112434,
                -0.00022436723887554817,
                0.05977563276112471,
                -0.020224367238875662,
                0.00977563276112448,
                -0.00022436723887554817,
                -0.06022436723887529,
                -0.0402243672388753,
                -0.01017906754169279,
                -0.04017906754169259,
                -0.00019288080286257404,
                -0.06022436723887529,
                0.02977563276112434,
                -0.06020244208985689,
                -0.020202442089857286,
                -0.030181251602636357,
                0.02987760763446828,
                0.02981329433067689,
                0.0010257633587840952,
                -0.018828734479829908,
                -0.010399857529244166,
                -0.06880520573389,
                -0.038810739550757756,
                0.03806434196713852,
                -0.0036596009744915073,
                -0.007100327328052638,
                -0.018872743084691647,
                -0.0301246991343643,
                -0.0001666426676527393,
                0.00983335733234722,
                -0.00022436723887554817,
                -0.020224367238875662,
                0.01977563276112434,
                -0.00022436723887554817,
                -0.020224367238875662,
                0.01977563276112434,
                -0.050224367238875293,
                0.04977563276112471,
                -0.00022436723887554817,
                0.05977563276112471,
                0.02977563276112434,
                -0.0402243672388753,
                0.04977563276112471,
                -0.00022436723887554817,
                0.01977563276112434,
                0.00977563276112448,
                0.0397756327611247,
                -0.00022436723887554817,
                0.04977563276112471,
                -0.03022436723887558,
                0.04977563276112471,
                -0.03022436723887558,
                0.02977563276112434,
                0.01977563276112434,
                0.00977563276112448,
                0.04977563276112471,
                -0.01022436723887552,
                -0.020224367238875662,
                0.04977563276112471,
                0.00977563276112448,
                0.04977563276112471,
                -0.06022436723887529,
                -0.020224367238875662,
                -0.0402243672388753,
                0.01977563276112434,
                0.01977563276112434,
                -0.00022436723887554817,
                0.05977563276112471,
                0.02977563276112434,
                -0.020224367238875662,
                -0.0402243672388753,
                -0.020224367238875662,
                0.05977563276112471,
                0.05977563276112471,
                -0.03022436723887558,
                -0.01022436723887552,
                -0.050224367238875293,
                -0.00022436723887554817,
                -0.005477776012152899,
                -0.001253769395454951,
                0.03387717908850645,
                -0.03327607450756515,
                0.04436887779170785,
                -0.05812513302096257,
                -0.0032750059587091304,
                -0.0340782415198722,
                -0.010313902484165043,
                0.03673468763208084,
                -0.03411763906066931,
                -0.05212121476926481,
                0.041836847445663065,
                0.032364897005597006,
                0.07630823489217892,
                0.011050661966557018,
                -0.07173767461573989,
                -0.06039582574106323,
                0.07681959893587269,
                0.02858415913069402,
                -0.05591682864995011,
                -0.007812436586652282,
                0.022116065322971504,
                -0.0342396961036408,
                -0.015970710564399623,
                0.04744481387783066,
                0.029845757592489475,
                -0.053251325747096255,
                -0.02589731057148239,
                0.0639802478266722,
                0.02463505265467646,
                -0.02990883758919336,
                0.07031704734906902,
                0.02620767975966016,
                0.02881146974767001,
                0.06597179324214664,
                0.07050232924011411,
                0.04181886720773201,
                -0.07036679470176414,
                -0.03691458266408505,
                -0.08764689295529887,
                -0.05917250970538348,
                -0.07959158420395371,
                -0.018648637791259526,
                0.056679476975617385,
                0.08168365871411253,
                -0.010537157975548262,
                -0.06517816611841437,
                0.04948903845222489,
                0.06514411683648536,
                0.09642343711761693,
                0.026092686055551696,
                0.027631602839203778,
                -0.05007979082148945,
                -0.030121399733177984,
                0.05194579554968481,
                0.0011749462565663613,
                -0.051331274866428224,
                -0.030271823370045,
                -0.025025868475369948,
                -0.02962667813932528,
                -0.003011240609095477,
                -0.053615298588811026,
                -0.029694481942601065,
                0.023786703738287132,
                0.016834414539296853,
                0.02713435111736082,
                -0.060586603577645,
                -0.008717263182345432,
                -0.06663925305088628,
                -0.05613126044536014,
                0.12404744502043677,
                0.07795551307932348,
                -0.08309845239892069,
                -0.03268110871766667,
                0.14647661436308973,
                0.11388587981547005,
                -0.10207919034911984,
                -0.0944042357586483,
                0.11880836033738136,
                -0.024388037405971022,
                0.0058117362284451956,
                -0.05816514977415032,
                -0.09069566554946763,
                0.03227119630341336,
                -0.04751605559473119,
                -0.01032861173343797,
                0.12336840267482023,
                0.08811587055103942,
                -0.016985480568403308,
                0.04771976481095117,
                0.09454995142781522,
                0.04728303564227261,
                -0.08359921114687145,
                0.0005837121401641388,
                0.10109953444285567,
                -0.004729785970779121,
                -0.08231899831885249,
                0.04805272471831077,
                0.08260341475446013,
                0.021833560673052227,
                0.05014459179628339,
                -0.05102702501809113,
                0.013802213207098487,
                0.003384659901718745,
                -0.0578416747242237,
                -0.0478416747242237,
                0.013947769585927503,
                0.04901596196177933,
                0.05794310697570538,
                0.04461181298397149,
                0.006639341664912564,
                -0.04595508029882097,
                -0.0018430649308701856,
                0.05555882223603341,
                -0.00969296569784325,
                0.07727912535718616,
                -0.06170220020826795,
                -0.012035680649508655,
                0.05778077872616716,
                0.04781602668563246,
                -0.0018990916729501475,
                0.04258063656037568,
                0.03720550839930498,
                0.014898283730399356,
                0.006125896643451552,
                -0.02932522323654314,
                0.05848763235252205,
                -0.030179067541692868,
                -0.06022436723887529,
                0.04977563276112471,
                0.049820932458307404,
                0.029820932458307102,
                -0.01017906754169279,
                0.05977563276112471,
                -0.03022436723887558,
                0.00977563276112448,
                0.02977563276112434,
                0.02977563276112434,
                -0.01022436723887552,
                -0.03022436723887558,
                -0.0402243672388753,
                -0.050224367238875293,
                -0.0402243672388753,
                0.01977563276112434,
                -0.0402243672388753,
                0.04977563276112471,
                0.02977563276112434,
                -0.06022436723887529,
                0.0598209324583074,
                0.013297848284407035,
                -0.01022436723887552,
                -0.01022436723887552,
                -0.0667083314764439,
                0.02329784828440695,
                -0.00022436723887554817,
                0.00977563276112448,
                0.01977563276112434,
                -0.020224367238875662,
                -0.020224367238875662,
                -0.01022436723887552,
                0.04977563276112471,
                -0.050224367238875293,
                0.01977563276112434,
                -0.0402243672388753,
                -0.050224367238875293,
                0.04977563276112471,
                -0.0402243672388753,
                -0.03022436723887558,
                0.04977563276112471,
                -0.02020456374834959,
                -0.05018118920018513,
                0.048108480380455086,
                0.00977563276112448,
                0.0397756327611247,
                -0.06844077657631663,
                0.0019022233856076612,
                -0.018106513219627366,
                0.031852570018295404,
                -0.018211508077772855,
                -0.025495664325017316,
                -0.0933397861679175,
                -0.09212368418012917,
                0.08199440638714188,
                0.09799788671738577,
                0.012140618854493686,
                -0.04719668311429029,
                0.030792366819358496,
                0.06039430250725309,
                0.01652863248163276,
                0.00172137090856787,
                0.05856230499875746,
                0.007213977016291649,
                -0.04495369373707735,
                -0.017234886877755793,
                -0.015464937986937564,
                0.006665276202330128,
                0.03386166864996517,
                -0.016708764824979048,
                -0.01480672074188782,
                0.05205768344382889,
                -0.030045705059960248,
                0.06423968585675098,
                0.03635275323750675,
                0.004496443250530722,
                -0.003967151732713711,
                0.04518852690931524,
                0.029305386757327703,
                -0.04021074350920036,
                -0.00022436723887554817,
                -0.050224367238875293,
                0.019795436251650412,
                -0.04020456374834939,
                0.04979543625165061,
                0.04977563276112471,
                0.00977563276112448,
                -0.01022436723887552,
                -0.01022436723887552,
                0.0397756327611247,
                0.04977563276112471,
                -0.00022436723887554817,
                0.02977563276112434,
                -0.050224367238875293,
                -0.0402243672388753,
                -0.050224367238875293,
                0.01977563276112434,
                0.0397756327611247,
                -0.050224367238875293,
                -0.020224367238875662,
                0.03978925649079964,
                -0.02021074350920055,
                0.04977563276112471,
                -0.050224367238875293,
                -0.060210743509200366,
                0.049789256490799634,
                -0.050224367238875293,
                0.0397756327611247,
                -0.050224367238875293,
                -0.06022436723887529,
                -0.020224367238875662,
                0.05977563276112471,
                0.00977563276112448,
                -0.03022436723887558,
                -0.020224367238875662,
                -0.020224367238875662,
                0.00977563276112448,
                0.00977563276112448,
                0.00977563276112448,
                -0.01022436723887552,
                -0.0402243672388753,
                -0.06022436723887529,
                0.01977563276112434,
                0.02977563276112434,
                0.00977563276112448,
                -0.06022436723887529,
                0.02977563276112434,
                -0.050224367238875293,
                -0.040145626648080204,
                -0.03022436723887558,
                -0.06022436723887529,
                0.02977563276112434,
                -0.00022436723887554817,
                0.05977563276112471,
                0.01977563276112434,
                -0.01022436723887552,
                0.05977563276112471,
                0.05977563276112471,
                0.01977563276112434,
                -0.00022436723887554817,
                0.00977563276112448,
                -0.060145626648080194,
                -0.0501456266480802,
                0.009801846526428303,
                0.015646436592119797,
                0.001675652637358479,
                -0.030210743509200565,
                0.009867997081594478,
                0.01978925649079945,
                0.02766212281230733,
                -0.014724808577468851,
                0.05244944251050354,
                0.019119125398063336,
                -0.050861552660275575,
                0.037752115748513844,
                0.021092078392915534,
                -0.05456798683231117,
                0.0021152768216327776,
                -0.0390430424587385,
                -0.06794906547368568,
                -0.053085545800165744,
                -0.016515569252805087,
                -0.012321527622458152,
                0.039783414250129955,
                0.02388582922075622,
                0.0233607868621601,
                -0.014898333007192557,
                -0.014613904626195119,
                -0.07993282691311478,
                0.017124219314499086,
                0.00560166538514062,
                0.04566089820588112,
                -0.04778313271238836,
                0.05081622540267753,
                -0.014276363237823794,
                0.0398543733519198,
                0.019854373351919235,
                -0.06022436723887529,
                -0.06022436723887529,
                -0.06022436723887529,
                -0.06022436723887529,
                -0.020224367238875662,
                -0.01022436723887552,
                -0.00022436723887554817,
                -0.01022436723887552,
                0.00977563276112448,
                -0.06022436723887529,
                -0.050224367238875293,
                0.02977563276112434,
                -0.040145626648080204,
                0.019854373351919235,
                -0.030219599896897063,
                -0.0002195998968969573,
                0.02977563276112434,
                -0.020224367238875662,
                0.00977563276112448,
                -0.01022436723887552,
                -0.0402243672388753,
                -0.03022436723887558,
                -0.01022436723887552,
                0.00977563276112448,
                -0.020224367238875662,
                0.02977563276112434,
                -0.03022436723887558,
                -0.01022436723887552,
                0.029780400103102865,
                0.04721377934946243,
                -0.023226010466323443,
                -0.0654414324628044,
                -0.08606667011949252,
                -0.030139160617124756,
                -0.020173852345642517,
                -0.03272462634883121,
                -0.052959929462311366,
                0.02668712370877142,
                -0.10670536487661304,
                -0.027166404753861333,
                0.07854005315472408,
                0.0354840079118185,
                -0.023470049164272023,
                -0.06572924866646815,
                0.03393734385485554,
                0.042458353689120265,
                0.07745174296184594,
                0.038763378460889564,
                0.007783058336310433,
                0.03463896967957845,
                -0.051486618058101154,
                -0.01327050911995586,
                0.09413546424905293,
                -0.06664077081520961,
                -0.06254869106893221,
                0.009554076614004816,
                0.10572606901066672,
                -0.029943686255001236,
                0.02528351134346337,
                -0.09773610222729368,
                0.0772041318238817,
                0.09738905720163596,
                -0.046870647200745574,
                0.008759465173525285,
                -0.022874985592913646,
                0.011104011408581072,
                0.03575891110892577,
                0.07150079194360356,
                -0.02670555925448955,
                0.013846544901265304,
                0.05073883478139035,
                -0.02842718571387931,
                0.06957799561027964,
                0.08065086355445546,
                0.05339911675710586,
                0.01086672217159056,
                -0.011483656401548378,
                0.02726849908436443,
                -0.08048089522894353,
                -0.13457682280459124,
                0.01343893374252527,
                -0.010243416792837278,
                0.061914038012211924,
                -0.053067730221921336,
                0.03084536737813852,
                -0.06179742298801262,
                -0.06792671567937833,
                -0.02138510466477816,
                0.1157363452118226,
                -0.03972263573772108,
                -0.0238658541749275,
                -0.040917685909361415,
                -0.048827928514259926,
                -0.07465444095579396,
                -0.020929820034681187,
                -0.12480795009716732,
                -0.08847256554480294,
                0.02903392769235576,
                -0.05403987919442397,
                0.037657659358698886,
                -0.026474471946842788,
                -0.1264095384255925,
                0.00020610779161490915,
                0.10030636311972561,
                0.026689613059714946,
                -0.08459834003806606,
                -0.11045552483056063,
                0.1007868238660548,
                0.024823588954534036,
                -0.13253871124434974,
                -0.022974685261091782,
                0.07379981020399128,
                0.09145185212564114,
                -0.02447163966274366,
                -0.10669549335533955,
                -0.0031943261075802715,
                0.01891947649831633,
                0.0031905169086117904,
                0.0758996895781053,
                0.1033622642259947,
                -0.09307994358870962,
                -0.08342489089712546,
                -0.020638395519465284,
                0.08302277876458454,
                0.03022305202501559,
                -0.11398750645826661,
                -0.15178142805785705,
                -0.013881795352855258,
                -0.013374215237617367,
                -0.02295705928659649,
                -0.00297883480094018,
                -0.018863032249756256,
                -0.02010941605997123,
                -0.0005590510565905729,
                -0.02445324577708489,
                -0.06526063746812027,
                -0.025601036726287992,
                0.022430771165767874,
                -0.04730742266476945,
                -0.022862902815809206,
                -0.11753308437478227,
                -0.08035289077065162,
                -0.009473742571613084,
                -0.012562301754567936,
                -0.060393765252194684,
                -0.00823855160746097,
                0.07340261186903556,
                -0.03490474172572727,
                0.001972205107580506,
                -0.006716648245245911,
                0.07703026256622576,
                -0.05240845369331397,
                0.0378396275065953,
                0.08486175563651752,
                0.0896496921763873,
                -0.05685255547272689,
                -0.02392965408583143,
                -0.030051381913496145,
                0.09428845270907928,
                0.09063213509179882,
                -0.009121537965639524,
                0.06675603933062339,
                -0.00013443912053841812,
                -0.05436300984045778,
                0.08690319155353422,
                0.00041569207034651806,
                -0.0025282723242863714,
                0.05792557695660159,
                0.04579978280837864,
                -0.04472045555033594,
                0.020059004861365887,
                0.09168148546927526,
                0.0866036451877568,
                0.05169186883981212,
                0.038015074203079084,
                -0.06666842143034783,
                0.005559838714884019,
                0.03822455755344391,
                0.05788223014048199,
                -0.013793331566746007,
                0.006088854594143435,
                -0.023674228126518357,
                -0.049806731868626095,
                -0.019491052813280563,
                -0.06006095146264861,
                -0.0002189764037923834,
                -0.004301385983081596,
                0.02488037304906546,
                -0.061120620730764796,
                -0.054597877516162456,
                0.03983571378050691,
                0.03983571378050691,
                0.04977563276112471,
                0.05977563276112471,
                0.01977563276112434,
                0.02977563276112434,
                -0.020224367238875662,
                -0.01022436723887552,
                -0.00022436723887554817,
                -0.020224367238875662,
                -0.03022436723887558,
                -0.050224367238875293,
                0.00977563276112448,
                -0.03022436723887558,
                -0.040243026810288185,
                -0.03029452871172359,
                -0.030192094888562473,
                0.029807905111437476,
                0.00977563276112448,
                0.00977563276112448,
                0.02977563276112434,
                -0.020224367238875662,
                -0.00022436723887554817,
                -0.06022436723887529,
                0.01977563276112434,
                -0.020224367238875662,
                0.01977563276112434,
                -0.020224367238875662,
                0.02977563276112434,
                0.01977563276112434,
                0.049807905111437886,
                0.01980790511143748,
                -0.04011618484247029,
                -0.046812696338325285,
                0.024010647121966325,
                0.05988381515752972,
                0.05988381515752972,
                -0.03015109073955888,
                -0.06394479263563209,
                -0.045213886944092084,
                -0.03320815673881434,
                -0.03547230412176722,
                -0.026752342811540725,
                0.013134824016741972,
                -0.03050827624962616,
                0.04312795197166228,
                -0.03542414889350094,
                -0.023005513748428755,
                0.012319300274236158,
                0.05135288798917956,
                0.020384930518639953,
                -0.0003764931271064543,
                -0.01014559925459995,
                -0.05020885507691342,
                0.04977563276112471,
                -0.030145599254599947,
                -0.050145599254599896,
                0.01979114492308629,
                0.01977563276112434,
                0.019812432275108056,
                -0.02016001158414816,
                -0.01629997047885333,
                -0.005928381978829871,
                0.049851542807216535,
                0.0397756327611247,
                -0.01022436723887552,
                0.0397756327611247,
                -0.03022436723887558,
                0.04977563276112471,
                0.0397756327611247,
                0.01977563276112434,
                0.01977563276112434,
                0.01977563276112434,
                -0.050224367238875293,
                -0.00022436723887554817,
                0.0397756327611247,
                -0.050224367238875293,
                0.05977563276112471,
                -0.06022436723887529,
                -0.03022436723887558,
                -0.01022436723887552,
                -0.03022436723887558,
                -0.0402243672388753,
                -0.06022436723887529,
                -0.0402243672388753,
                -0.020224367238875662,
                -0.050224367238875293,
                0.04977563276112471,
                -0.03022436723887558,
                0.01977563276112434,
                0.0397756327611247,
                0.0397756327611247,
                -0.06022436723887529,
                -0.020224367238875662,
                0.02977563276112434,
                -0.00022436723887554817,
                0.02977563276112434,
                0.05977563276112471,
                -0.03022436723887558,
                0.05977563276112471,
                -0.03022436723887558,
                -0.00022436723887554817,
                0.02977563276112434,
                0.0397756327611247,
                -0.03022436723887558,
                0.00977563276112448,
                0.05977563276112471,
                0.02977563276112434,
                -0.050224367238875293,
                0.02977563276112434,
                -0.0402243672388753,
                0.0397756327611247,
                -0.03022436723887558,
                -0.03022436723887558,
                -0.00022436723887554817,
                0.02977563276112434,
                -0.00022436723887554817,
                0.00977563276112448,
                0.05977563276112471,
                -0.050224367238875293,
                -0.06022436723887529,
                -0.00022436723887554817,
                -0.03022436723887558,
                0.04977563276112471,
                0.01977563276112434,
                0.01977563276112434,
                -0.06022436723887529,
                0.02977563276112434,
                -0.04027461423062767,
                -0.06027461423062766,
                -0.026769684768520034,
                0.06323031523148011,
                -0.03032542090358988,
                -0.04044538499387151,
                -0.051904120106842894,
                -0.03166960001680265,
                0.009223230252256685,
                -0.04466878354389356,
                -0.03459930543567448,
                0.007233791689319669,
                -0.05821858236814077,
                0.034391904713371536,
                -0.04020885507691341,
                -0.04015904201319553,
                -0.020159038028907037,
                0.03984096197109334,
                -0.008017654340613703,
                0.021797948493702195,
                -0.026598929736050124,
                0.045748311109016816,
                0.014173531170898132,
                0.038483847369474924,
                0.029612417970090354,
                0.011690095470234951,
                -0.05425222248582183,
                -0.07198316995594295,
                0.023185543512458065,
                0.011736404787867088,
                0.05984096197109333,
                0.05985647413305525,
                0.00977563276112448,
                0.0397756327611247,
                -0.050224367238875293,
                0.00977563276112448,
                -0.020224367238875662,
                -0.00022436723887554817,
                0.05977563276112471,
                -0.020224367238875662,
                0.0397756327611247,
                0.04977563276112471,
                -0.020224367238875662,
                0.01977563276112434,
                -0.03022436723887558,
                -0.050224367238875293,
                0.02977563276112434,
                0.0397756327611247,
                0.01977563276112434,
                -0.0402243672388753,
                -0.06022436723887529,
                0.02977563276112434,
                0.0397756327611247,
                0.04977563276112471,
                -0.01022436723887552,
                -0.01022436723887552,
                -0.06022436723887529,
                -0.01022436723887552,
                0.02977563276112434,
                0.0397756327611247,
                0.00977563276112448,
                -0.01022436723887552,
                0.05977563276112471,
                -0.0402243672388753,
                -0.03022436723887558,
                0.0397756327611247,
                -0.020224367238875662,
                0.05977563276112471,
                0.0397756327611247,
                -0.00022436723887554817,
                -0.020224367238875662,
                0.0397756327611247,
                0.05977563276112471,
                -0.01022436723887552,
                -0.03022436723887558,
                -0.050224367238875293,
                -0.06022436723887529,
                -0.06022436723887529,
                0.00977563276112448,
                0.01977563276112434,
                -0.024832247122519795,
                0.03817969462031613,
                -0.042182615114831214,
                -0.00483224712251976,
                0.019840961971092964,
                0.019840961971092964,
                -0.008555423285677983,
                -0.0475094060212183,
                0.00810739159451496,
                0.0586919228120338,
                -0.006326441331062766,
                0.030637005951071085,
                -0.006327491861327765,
                0.019434592341436536,
                -0.013328579561358822,
                0.024604268769915796,
                -0.05114451726771324,
                -0.05910929740209609,
                0.01562613624365713,
                -0.007547096843367076,
                -0.02649351447329693,
                0.05516775287748041,
                -0.05015903802890667,
                0.043401652161443004,
                -0.004585438890174593,
                -0.010159038028906919,
                -0.04015903802890666,
                0.043170031350496504,
                -0.06807110602677377,
                0.03441900148990086,
                -0.03131899191866088,
                -0.04740371469222625,
                -0.011122915311554495,
                -0.0039170680847491575,
                -0.010456534753144954,
                0.051821704930507625,
                -0.052847621394551424,
                0.010463220476677927,
                0.010144823047804577,
                -0.040006266137273164,
                0.03347587735273192,
                -0.05981982348300622,
                -0.034442164628547434,
                0.03114820560549681,
                -0.0035328074224763306,
                0.041861033905649624,
                -0.024834734144334788,
                -0.044727535997915915,
                -0.010893799424285958,
                -0.04103335237104938,
                0.05550526729112086,
                0.1349704322503416,
                0.16642546311986398,
                0.053007030309227224,
                0.015396394834880957,
                0.07008197530673044,
                0.12240516563531877,
                0.006857773733195787,
                0.023129543892740686,
                0.00950999877532066,
                6.679344028416458e-05,
                0.05676079469002092,
                -0.07735890583856227,
                -0.11244684747852061,
                -0.07724016847236305,
                -0.029168723898555925,
                -0.004782840802056041,
                0.02181492693420804,
                0.041041329522916545,
                -0.01876218206756245,
                -0.005130570750028784,
                0.06261730108161569,
                0.09400257237437235,
                0.03495618215716534,
                0.02378798112729687,
                0.0045417061523828,
                0.008685139426570919,
                -0.027266557794620363,
                0.005895500034333719,
                -0.10195864683467239,
                -0.037139923485694996,
                0.0010764362651729485,
                -0.023745836063429872,
                0.0018626396358093504,
                0.038439109102486706,
                -0.018449576380073506,
                0.023046751584872335,
                0.020367697347238735,
                0.0022570182000686985,
                -0.06206180117141339,
                -0.0496204569806579,
                0.03603770646183474,
                -0.016620620807224477,
                -0.06444115140803486,
                0.03723127129750719,
                -0.049619564402739395,
                -0.03259306898673936,
                -0.026526359905381505,
                0.05724360343922936,
                0.0005685997656723542,
                0.022229898069998165,
                0.002114568119028491,
                0.05218179142600017,
                -0.009455709213798525,
                -0.061316067109460436,
                -0.0479375140904825,
                0.012181791426000052,
                0.03872332680201342,
                0.03616241475855092,
                -0.02980668525984508,
                -0.027690040506881817,
                -0.04960046117857563,
                0.022346021003839457,
                0.057101614077100335,
                0.07840991199821105,
                -0.01755836355738312,
                0.00046809124172711127,
                -0.038191839100887616,
                0.07136178573997473,
                0.022933975340152693,
                -0.012122371642354166,
                -0.0037895043667432906,
                0.02221331606479966,
                -0.027774283675057986,
                -0.02779119937887408,
                0.02568101032852826,
                0.031737787254220017,
                0.04219640036098359,
                0.01977563276112434,
                0.05977563276112471,
                0.0397756327611247,
                -0.050224367238875293,
                -0.050224367238875293,
                -0.050224367238875293,
                -0.03022436723887558,
                0.04977563276112471,
                0.01977563276112434,
                0.01977563276112434,
                -0.01022436723887552,
                0.02977563276112434,
                -0.050224367238875293,
                0.00977563276112448,
                -0.0402243672388753,
                0.04977563276112471,
                0.04977563276112471,
                0.04977563276112471,
                0.02977563276112434,
                0.02977563276112434,
                -0.020224367238875662,
                -0.01022436723887552,
                0.0397756327611247,
                0.0397756327611247,
                -0.01022436723887552,
                0.0397756327611247,
                0.04977563276112471,
                0.04977563276112471,
                0.02977563276112434,
                -0.01022436723887552,
                0.00977563276112448,
                -0.050224367238875293,
                -0.01022436723887552,
                -0.01022436723887552,
                0.05977563276112471,
                0.02977563276112434,
                -0.050224367238875293,
                0.02977563276112434,
                0.00977563276112448,
                -0.06022436723887529,
                0.04977563276112471,
                0.00977563276112448,
                0.01977563276112434,
                0.01977563276112434,
                -0.020224367238875662,
                0.0397756327611247,
                -0.0402243672388753,
                -0.020224367238875662,
                -0.05020347750723549,
                -0.00022436723887554817,
                0.03981457727632127,
                0.04987106393474869,
                -0.0445942569004345,
                -0.015516740629225952,
                -0.022804271774620712,
                -0.03244654782453986,
                0.01128368190136575,
                0.021340289052849896,
                0.01977563276112434,
                0.0397756327611247,
                -0.03022436723887558,
                -0.00021377141598312463,
                0.00977563276112448,
                0.01977563276112434,
                0.01977563276112434,
                0.01977563276112434,
                0.04977563276112471,
                -0.00022436723887554817,
                0.05977563276112471,
                0.02977563276112434,
                0.0397756327611247,
                0.0397756327611247,
                0.05977563276112471,
                -0.00022436723887554817,
                0.02977563276112434,
                -0.03022436723887558,
                -0.00022436723887554817,
                -0.0402243672388753,
                0.04977563276112471,
                0.02977563276112434,
                -0.06022436723887529,
                0.05977563276112471,
                0.04977563276112471,
                -0.06022436723887529,
                -0.0402243672388753,
                -0.020224367238875662,
                -0.020224367238875662,
                -0.0402243672388753,
                0.05977563276112471,
                -0.03022436723887558,
                -0.01022436723887552,
                0.04977563276112471,
                -0.050224367238875293,
                -0.020224367238875662,
                0.0397756327611247,
                0.01977563276112434
            ],
            [
                0.01162784559507268,
                -0.038372154404926834,
                0.001627845595072604,
                0.04162784559507296,
                -0.028372154404927557,
                0.021627845595072446,
                -0.028372154404927557,
                -0.038372154404926834,
                0.04162784559507296,
                -0.038372154404926834,
                0.021627845595072446,
                -0.058372154404927046,
                -0.028372154404927557,
                0.04162784559507296,
                -0.028372154404927557,
                0.01162784559507268,
                -0.008372154404927407,
                0.001627845595072604,
                0.04162784559507296,
                -0.058372154404927046,
                0.031627845595072965,
                0.001627845595072604,
                0.031627845595072965,
                -0.028372154404927557,
                0.01162784559507268,
                0.021627845595072446,
                0.016713784692419655,
                0.02671378469241945,
                -0.05187672176201035,
                -0.008372154404927407,
                0.01162784559507268,
                -0.020925746776699297,
                0.039074253223301415,
                -0.0028409383449157525,
                -0.04566337982823883,
                -0.011494714496723507,
                -0.07788943464191769,
                0.020053957926177826,
                0.05509795389538007,
                0.026495332989261346,
                0.012597378431264109,
                0.013924386854473829,
                0.019867287350133895,
                0.06962986268591399,
                0.005842079898236223,
                -0.07543414395371595,
                0.025805271311549336,
                -0.03419472868844997,
                -0.068372154404927,
                0.051627845595072955,
                -0.04837215440492704,
                -0.028372154404927557,
                -0.058372154404927046,
                0.031627845595072965,
                -0.058372154404927046,
                -0.058372154404927046,
                0.01162784559507268,
                -0.028372154404927557,
                0.04162784559507296,
                -0.068372154404927,
                0.001627845595072604,
                -0.04837215440492704,
                -0.008372154404927407,
                0.031627845595072965,
                -0.068372154404927,
                -0.058372154404927046,
                -0.01837215440492768,
                -0.028372154404927557,
                -0.04837215440492704,
                -0.028372154404927557,
                -0.01837215440492768,
                -0.068372154404927,
                0.021627845595072446,
                -0.058372154404927046,
                0.04162784559507296,
                0.01162784559507268,
                -0.028372154404927557,
                0.04162784559507296,
                0.031627845595072965,
                -0.01837215440492768,
                0.031627845595072965,
                0.04162784559507296,
                -0.008372154404927407,
                0.051627845595072955,
                -0.01837215440492768,
                0.021627845595072446,
                -0.01837215440492768,
                0.001627845595072604,
                -0.068372154404927,
                -0.008372154404927407,
                0.031627845595072965,
                0.001627845595072604,
                -0.038372154404926834,
                0.031627845595072965,
                0.031627845595072965,
                -0.04837215440492704,
                0.03639070428981848,
                -0.0957149848987973,
                0.046032424315421,
                -0.010759653896888774,
                -0.058162313404371016,
                -0.023350472300175742,
                -0.0362868642394996,
                -0.01443106052422603,
                -0.036049758158676684,
                -0.028116134913769932,
                -0.03721077685893437,
                -0.020745969048276802,
                0.015807366391093574,
                0.029769120052461615,
                -0.09541526454825484,
                0.0030974808336095326,
                0.05156261976796623,
                0.004831815964446077,
                -0.11099649166770006,
                -0.025252966208677063,
                -0.06999736103639714,
                -0.0276462013768943,
                -0.01039236836345932,
                -0.043279420378670067,
                -0.0271494577883498,
                -0.0010936410789717202,
                -0.07544099028152976,
                -0.01448568781717761,
                -0.01704565888586069,
                0.030720694352823225,
                -0.012531429165536742,
                0.039646594953502055,
                -0.0585309562631779,
                0.09280517044984248,
                0.020689152487163024,
                0.03135847574211078,
                0.07498413538439459,
                -0.037904345543182776,
                0.010541609837961244,
                0.04076588305217925,
                0.052852071262173325,
                -0.05356114677993306,
                0.03162877595398787,
                -0.051161561961500186,
                -0.008906178827462238,
                -0.01597763984383402,
                0.045916551777983,
                0.059625453311288504,
                0.005228280530684655,
                -0.011844114981627633,
                0.0119596835570707,
                -0.03728461693509563,
                0.06642866932262217,
                0.024736794055848933,
                0.0930559046972225,
                -0.03214740715847266,
                0.06153441360240989,
                0.04854168024792283,
                -0.02033968740066656,
                -0.04736965838936294,
                -0.015676304118747122,
                -0.04855260945116351,
                -0.0030349081331171633,
                0.07309248949959077,
                -0.046186532644703515,
                -0.031286893806744376,
                0.007504703320785851,
                -0.011194833464667594,
                -0.046343772406750014,
                0.009908308173121131,
                0.06441029750681439,
                -0.028824266723977327,
                -0.02491678644931607,
                0.0021939935869822384,
                0.08803239770920059,
                -0.022603640021059367,
                0.019610503400470238,
                0.054183252699179445,
                -0.09748329904735298,
                0.0028783646686401636,
                0.08650397501747667,
                -0.002644084142369351,
                0.04331632992643159,
                0.05204262968325689,
                0.019413480015867346,
                0.04207377047216246,
                -0.06579999826704032,
                -0.03709073855321095,
                -0.017277881111421145,
                0.021374470640265174,
                0.0276081021827453,
                -0.02077463857127018,
                0.015211721222838667,
                -0.010795894790115862,
                -0.036512745068251945,
                -0.027770005411525817,
                0.09775388092504762,
                0.02926118841610438,
                -0.10550336392803847,
                -0.023536485360134765,
                -0.005948868989920094,
                -0.0743831457741615,
                -0.012200273840386551,
                0.013803413031506005,
                -0.08333911716206187,
                -0.05080164825312554,
                -0.01080164825312565,
                -0.04750464773461431,
                0.027856260855600064,
                0.014150001437305763,
                0.060476983704626903,
                0.05971033553203183,
                -0.06709640299738062,
                -0.007849166068510051,
                0.0546971571521968,
                -0.018298797265609627,
                -0.0472059861070559,
                0.0006936872782527802,
                -0.006889787066243642,
                0.09049005314531618,
                0.007391604334574504,
                0.031055897034194833,
                -0.024350909688393544,
                -0.018554998350554425,
                0.008915813388624773,
                -0.05005519877726664,
                -0.020209556514970094,
                -0.02437466600239056,
                -0.023286215307580353,
                -0.038372154404926834,
                -0.008372154404927407,
                0.03671378469241999,
                -0.013286215307580175,
                -0.04328621530758001,
                0.021627845595072446,
                0.001627845595072604,
                0.051627845595072955,
                -0.068372154404927,
                0.04162784559507296,
                0.04162784559507296,
                -0.028372154404927557,
                0.01162784559507268,
                -0.04837215440492704,
                -0.01837215440492768,
                0.04162784559507296,
                0.051627845595072955,
                0.021627845595072446,
                0.04162784559507296,
                0.04162784559507296,
                -0.05328621530758002,
                -0.015898869221219983,
                0.001627845595072604,
                -0.01837215440492768,
                -0.03543634267765029,
                -0.045898869221219774,
                -0.01837215440492768,
                -0.058372154404927046,
                -0.01837215440492768,
                -0.038372154404926834,
                0.031627845595072965,
                0.001627845595072604,
                0.01162784559507268,
                -0.038372154404926834,
                0.01162784559507268,
                0.001627845595072604,
                0.04162784559507296,
                0.001627845595072604,
                0.04162784559507296,
                -0.068372154404927,
                -0.04837215440492704,
                0.039697140661307286,
                0.02733667213042551,
                0.0073987105086800635,
                -0.008372154404927407,
                0.021627845595072446,
                0.057120603227749055,
                0.0036314092721666264,
                -0.08591882072867879,
                -0.055771194015492326,
                -0.007446196784420529,
                -0.07384493132553041,
                -0.07748063695272964,
                0.009703213845334046,
                -0.05380850782122973,
                0.005212888559792221,
                0.02118758636797029,
                -0.07087879408008788,
                -0.004344795743999116,
                0.04504219746291526,
                -0.04999382097801235,
                0.035504262222564455,
                -0.09395470231198946,
                -0.035587545805252516,
                -0.05169517312099811,
                -0.014897047117730997,
                0.122560929426206,
                0.0805262256819539,
                0.0622588855323088,
                0.01855331198157367,
                -0.016100747122498683,
                0.0591438539501725,
                0.01576004543479068,
                -0.01042888598455545,
                0.035394847133328904,
                0.044239662158025314,
                -0.020358285175817465,
                -0.05634951354259158,
                -0.0753990856392769,
                0.00015966720487627884,
                -0.008372154404927407,
                0.04162784559507296,
                -0.040302859338692675,
                -0.000302859338693123,
                0.04969714066130728,
                0.021627845595072446,
                0.031627845595072965,
                0.001627845595072604,
                0.031627845595072965,
                0.021627845595072446,
                -0.068372154404927,
                -0.028372154404927557,
                -0.01837215440492768,
                -0.038372154404926834,
                0.021627845595072446,
                -0.058372154404927046,
                -0.01837215440492768,
                0.051627845595072955,
                0.01162784559507268,
                0.001627845595072604,
                -0.06984033279512299,
                -0.06984033279512299,
                -0.01837215440492768,
                -0.008372154404927407,
                -0.05984033279512332,
                0.020159667204876074,
                0.051627845595072955,
                0.031627845595072965,
                0.051627845595072955,
                -0.008372154404927407,
                -0.038372154404926834,
                0.031627845595072965,
                -0.058372154404927046,
                -0.008372154404927407,
                -0.04837215440492704,
                -0.058372154404927046,
                -0.058372154404927046,
                -0.04837215440492704,
                0.031627845595072965,
                -0.038372154404926834,
                -0.008372154404927407,
                0.021627845595072446,
                -0.008372154404927407,
                -0.068372154404927,
                0.001627845595072604,
                0.04162784559507296,
                0.01162784559507268,
                0.051627845595072955,
                -0.043639979598880024,
                -0.01837215440492768,
                0.021627845595072446,
                0.051627845595072955,
                -0.038372154404926834,
                0.021627845595072446,
                0.01162784559507268,
                -0.04837215440492704,
                -0.058372154404927046,
                -0.058372154404927046,
                0.01162784559507268,
                -0.04837215440492704,
                0.021627845595072446,
                -0.06363997959887949,
                -0.043639979598880024,
                0.038885730935693384,
                0.08880997793669952,
                0.0586073464609075,
                0.00015966720487627884,
                -0.03510815798907629,
                0.010159667204876289,
                -0.04588734900689819,
                -0.03022849041286104,
                0.08355945184455234,
                -0.0016189738980050333,
                0.03636885396416085,
                0.002866393216007571,
                0.06540769351196797,
                0.011633487233177213,
                0.042619463599408706,
                0.05726498304161391,
                0.012693785622866887,
                -0.018693087417544066,
                0.045303483222793275,
                0.028141747869132816,
                -0.012400627673770618,
                -0.034006742222832065,
                0.10071277369107125,
                0.06914517087234644,
                0.05167363107311516,
                -0.022080333151969434,
                -0.046267070175678965,
                0.026010342672408822,
                0.04019992468442076,
                0.07497637475557573,
                0.026816162543778808,
                0.013919699079599604,
                0.006360020401119663,
                0.046360020401119986,
                0.051627845595072955,
                -0.008372154404927407,
                0.021627845595072446,
                -0.038372154404926834,
                -0.04837215440492704,
                0.021627845595072446,
                -0.038372154404926834,
                -0.038372154404926834,
                -0.068372154404927,
                -0.01837215440492768,
                -0.04837215440492704,
                0.04162784559507296,
                -0.043639979598880024,
                0.046360020401119986,
                -0.01608315422536797,
                -0.04608315422536715,
                -0.04837215440492704,
                -0.058372154404927046,
                -0.068372154404927,
                -0.038372154404926834,
                -0.058372154404927046,
                -0.068372154404927,
                0.031627845595072965,
                0.031627845595072965,
                -0.038372154404926834,
                0.031627845595072965,
                -0.04837215440492704,
                -0.058372154404927046,
                0.04391684577463285,
                0.018607230594197437,
                -0.02497293276428205,
                0.005795237563553201,
                0.01825973549511087,
                0.05401742123045533,
                -0.0259801092339125,
                -0.0043310678208225845,
                -0.06812885554958423,
                -0.07933273470671362,
                0.03387714307875311,
                0.008663881319621486,
                0.0014062838581281093,
                0.05565485739539127,
                -0.010269104118652193,
                -0.040487883325476315,
                -0.048514500839025324,
                -0.0033487927649056572,
                0.010046804788335553,
                -0.05902021062345416,
                0.02282869371081557,
                -0.02398961584609418,
                0.09779552700559188,
                0.021197323739103737,
                0.03786648585033652,
                0.013165862270456609,
                -0.0022667512826236936,
                -0.06415224128466925,
                -0.0234780848738211,
                -0.00861219940015693,
                -0.1264565561471323,
                0.005712138254594623,
                -0.020508380515650224,
                -0.051474109214591154,
                0.0031764872474873787,
                -0.034647109533370045,
                0.1025415983527016,
                0.028649269558204224,
                0.042289857821342584,
                -0.029974686415601123,
                0.0342891222056907,
                0.08296984202627813,
                0.024848710756202052,
                0.005935666462186074,
                -0.10823057997678827,
                -0.01822474118300548,
                0.011326823565603127,
                0.023978510103491748,
                -0.02830829020839102,
                0.05204245461615247,
                -0.015231501696443108,
                -0.08223712225864262,
                0.046833640175413145,
                0.03745980898880321,
                0.032299213301186354,
                -0.06182424096089001,
                0.02643017579034343,
                0.0038643103951339942,
                0.040341841684078,
                -0.012557163914630246,
                -0.054078622931662636,
                0.07489622244485478,
                0.06674590460853519,
                -0.013877991009251245,
                -0.02187223190348968,
                0.031143167849667867,
                -0.055533666271884385,
                0.02165997042076794,
                -0.002089710918561555,
                0.043879337028503065,
                -0.02395777894019773,
                -0.0012519031097191638,
                0.020708377336689895,
                0.04792349595169351,
                0.038593603237672566,
                -0.017685613361596138,
                -0.036848836800142414,
                0.0010808367410338464,
                -0.04178639194494492,
                -0.009181261180508498,
                0.0684361803035851,
                0.08540897767757619,
                0.0018870184345249575,
                -0.05190074749036448,
                0.07341123833084022,
                0.03227374952569356,
                -0.09919786620541757,
                -0.022364972075292363,
                -0.022951269157684816,
                0.006251278415859656,
                -0.0006613429722108116,
                -0.013952313776005676,
                -0.0001654115010432545,
                0.04318326309465522,
                0.0516641668207318,
                -0.04002479044214965,
                -0.03470287635165664,
                0.018138903316792725,
                0.06098261948120407,
                -0.00399714401484695,
                -0.05341793342807102,
                -0.041652770018986415,
                -0.0843797629882819,
                -0.02817239813199988,
                0.0763652845328045,
                -0.0741976503363731,
                0.011493778132176792,
                -0.01609211708303598,
                -0.05578067985219385,
                -0.015427140277347899,
                -0.0843462744910517,
                0.0030400812710937287,
                -0.019189789865628196,
                -0.07719749629723713,
                -0.006032508118236629,
                0.073438990044793,
                -0.014672480224009816,
                -0.03650411185923905,
                -0.06002889200839909,
                0.014152767479861404,
                0.00836383026216718,
                0.009548719217951288,
                -0.02770884855503193,
                -0.0381089696850029,
                0.022917474914794823,
                -0.037389175742547825,
                -0.09803554131463524,
                -0.01288645929777319,
                -0.011587500034445343,
                0.04983852075747403,
                -0.02486405798463258,
                0.001912053910960419,
                0.03419757820468164,
                0.02502798320626123,
                0.0005694468731795738,
                -0.0720427429564904,
                0.012887671263020047,
                0.05924227256671148,
                -0.09590898985199545,
                -0.05832793261318646,
                0.04511359039808861,
                -0.0663447272908098,
                0.047844666130007575,
                -0.006069814184307373,
                -0.02876473992239526,
                0.08045442830475288,
                -0.04671144543911471,
                -0.04221666966565029,
                -0.05251840827609311,
                -0.05364621664981973,
                -0.010933452990066412,
                -0.03266386741647799,
                0.01240150578425917,
                0.03279343105438162,
                0.011752561024497584,
                -0.001634686549427149,
                -0.06595706554795651,
